<?xml version="1.0"?>
<opencv_storage>
  <haarcascade_frontalface_default type_id="opencv-haar-classifier">
    <size>24 24</size>
    <stages>
      <_>
        <trees>
          <_>
            <_>
              <feature>
                <rects>
                  <_>4 4 17 3 -1.0</_>
                  <_>4 7 17 3 2.0</_>
                  <_>4 10 17 3 -1.0</_>
                </rects>
                <tilted>0</tilted>
              </feature>
              <threshold>-38.052162170410156</threshold>
              <left_val>1.4864350881637556</left_val>
              <right_val>-1.4864350881637556</right_val>
            </_>
          </_>
          <_>
            <_>
              <feature>
                <rects>
                  <_>0 0 8 10 -1.0</_>
                  <_>8 0 8 10 2.0</_>
                  <_>16 0 8 10 -1.0</_>
                </rects>
                <tilted>0</tilted>
              </feature>
              <threshold>82.32183837890625</threshold>
              <left_val>-1.0841270210550795</left_val>
              <right_val>1.0841270210550795</right_val>
            </_>
          </_>
          <_>
            <_>
              <feature>
                <rects>
                  <_>1 7 23 4 -1.0</_>
                  <_>1 11 23 4 2.0</_>
                  <_>1 15 23 4 -1.0</_>
                </rects>
                <tilted>0</tilted>
              </feature>
              <threshold>31.415115356445312</threshold>
              <left_val>-0.7075546775308392</left_val>
              <right_val>0.7075546775308392</right_val>
            </_>
          </_>
        </trees>
        <stage_threshold>-1.8630074316879959</stage_threshold>
        <parent>-1</parent>
        <next>-1</next>
      </_>
      <_>
        <trees>
          <_>
            <_>
              <feature>
                <rects>
                  <_>3 4 18 3 -1.0</_>
                  <_>3 7 18 3 2.0</_>
                  <_>3 10 18 3 -1.0</_>
                </rects>
                <tilted>0</tilted>
              </feature>
              <threshold>-48.012359619140625</threshold>
              <left_val>1.1675899551960225</left_val>
              <right_val>-1.1675899551960225</right_val>
            </_>
          </_>
          <_>
            <_>
              <feature>
                <rects>
                  <_>0 0 8 7 -1.0</_>
                  <_>8 0 8 7 2.0</_>
                  <_>16 0 8 7 -1.0</_>
                </rects>
                <tilted>0</tilted>
              </feature>
              <threshold>73.05729675292969</threshold>
              <left_val>-0.9137999367245236</left_val>
              <right_val>0.9137999367245236</right_val>
            </_>
          </_>
          <_>
            <_>
              <feature>
                <rects>
                  <_>6 6 4 4 -1.0</_>
                  <_>10 6 4 4 2.0</_>
                  <_>14 6 4 4 -1.0</_>
                </rects>
                <tilted>0</tilted>
              </feature>
              <threshold>11.329573631286621</threshold>
              <left_val>-0.6873191628069902</left_val>
              <right_val>0.6873191628069902</right_val>
            </_>
          </_>
          <_>
            <_>
              <feature>
                <rects>
                  <_>9 18 7 3 1.0</_>
                  <_>16 18 7 3 -1.0</_>
                  <_>9 21 7 3 -1.0</_>
                  <_>16 21 7 3 1.0</_>
                </rects>
                <tilted>0</tilted>
              </feature>
              <threshold>-8.088312149047852</threshold>
              <left_val>0.6559153074991207</left_val>
              <right_val>-0.6559153074991207</right_val>
            </_>
          </_>
          <_>
            <_>
              <feature>
                <rects>
                  <_>1 8 22 3 -1.0</_>
                  <_>1 11 22 3 2.0</_>
                  <_>1 14 22 3 -1.0</_>
                </rects>
                <tilted>0</tilted>
              </feature>
              <threshold>24.66745376586914</threshold>
              <left_val>-0.5696584958675044</left_val>
              <right_val>0.5696584958675044</right_val>
            </_>
          </_>
          <_>
            <_>
              <feature>
                <rects>
                  <_>0 1 3 23 -1.0</_>
                  <_>3 1 3 23 1.0</_>
                </rects>
                <tilted>0</tilted>
              </feature>
              <threshold>27.74335479736328</threshold>
              <left_val>-0.5218284858832687</left_val>
              <right_val>0.5218284858832687</right_val>
            </_>
          </_>
        </trees>
        <stage_threshold>-2.3331373804758835</stage_threshold>
        <parent>0</parent>
        <next>-1</next>
      </_>
      <_>
        <trees>
          <_>
            <_>
              <feature>
                <rects>
                  <_>3 0 18 3 -1.0</_>
                  <_>3 3 18 3 2.0</_>
                  <_>3 6 18 3 -1.0</_>
                </rects>
                <tilted>0</tilted>
              </feature>
              <threshold>29.241785049438477</threshold>
              <left_val>-0.9627245869589671</left_val>
              <right_val>0.9627245869589671</right_val>
            </_>
          </_>
          <_>
            <_>
              <feature>
                <rects>
                  <_>0 20 8 4 -1.0</_>
                  <_>8 20 8 4 2.0</_>
                  <_>16 20 8 4 -1.0</_>
                </rects>
                <tilted>0</tilted>
              </feature>
              <threshold>41.310028076171875</threshold>
              <left_val>-0.7670417438770029</left_val>
              <right_val>0.7670417438770029</right_val>
            </_>
          </_>
          <_>
            <_>
              <feature>
                <rects>
                  <_>2 7 20 4 -1.0</_>
                  <_>2 11 20 4 2.0</_>
                  <_>2 15 20 4 -1.0</_>
                </rects>
                <tilted>0</tilted>
              </feature>
              <threshold>59.004981994628906</threshold>
              <left_val>-0.8101679910161711</left_val>
              <right_val>0.8101679910161711</right_val>
            </_>
          </_>
          <_>
            <_>
              <feature>
                <rects>
                  <_>0 0 8 4 -1.0</_>
                  <_>8 0 8 4 2.0</_>
                  <_>16 0 8 4 -1.0</_>
                </rects>
                <tilted>0</tilted>
              </feature>
              <threshold>45.23058319091797</threshold>
              <left_val>-0.6951291965106872</left_val>
              <right_val>0.6951291965106872</right_val>
            </_>
          </_>
          <_>
            <_>
              <feature>
                <rects>
                  <_>5 6 4 5 1.0</_>
                  <_>9 6 4 5 -1.0</_>
                  <_>5 11 4 5 -1.0</_>
                  <_>9 11 4 5 1.0</_>
                </rects>
                <tilted>0</tilted>
              </feature>
              <threshold>-7.967759132385254</threshold>
              <left_val>0.5990343853342905</left_val>
              <right_val>-0.5990343853342905</right_val>
            </_>
          </_>
          <_>
            <_>
              <feature>
                <rects>
                  <_>16 7 4 3 -1.0</_>
                  <_>16 10 4 3 1.0</_>
                </rects>
                <tilted>0</tilted>
              </feature>
              <threshold>5.7229719161987305</threshold>
              <left_val>-0.4905115176720488</left_val>
              <right_val>0.4905115176720488</right_val>
            </_>
          </_>
          <_>
            <_>
              <feature>
                <rects>
                  <_>14 0 5 6 1.0</_>
                  <_>19 0 5 6 -1.0</_>
                  <_>14 6 5 6 -1.0</_>
                  <_>19 6 5 6 1.0</_>
                </rects>
                <tilted>0</tilted>
              </feature>
              <threshold>12.132749557495117</threshold>
              <left_val>-0.41914613403726897</left_val>
              <right_val>0.41914613403726897</right_val>
            </_>
          </_>
        </trees>
        <stage_threshold>-2.564663749393758</stage_threshold>
        <parent>1</parent>
        <next>-1</next>
      </_>
      <_>
        <trees>
          <_>
            <_>
              <feature>
                <rects>
                  <_>3 4 18 3 -1.0</_>
                  <_>3 7 18 3 2.0</_>
                  <_>3 10 18 3 -1.0</_>
                </rects>
                <tilted>0</tilted>
              </feature>
              <threshold>-57.03081512451172</threshold>
              <left_val>0.8771443374114211</left_val>
              <right_val>-0.8771443374114211</right_val>
            </_>
          </_>
          <_>
            <_>
              <feature>
                <rects>
                  <_>0 0 8 11 -1.0</_>
                  <_>8 0 8 11 2.0</_>
                  <_>16 0 8 11 -1.0</_>
                </rects>
                <tilted>0</tilted>
              </feature>
              <threshold>86.7477798461914</threshold>
              <left_val>-0.7965457839575752</left_val>
              <right_val>0.7965457839575752</right_val>
            </_>
          </_>
          <_>
            <_>
              <feature>
                <rects>
                  <_>1 18 7 3 1.0</_>
                  <_>8 18 7 3 -1.0</_>
                  <_>1 21 7 3 -1.0</_>
                  <_>8 21 7 3 1.0</_>
                </rects>
                <tilted>0</tilted>
              </feature>
              <threshold>9.665460586547852</threshold>
              <left_val>-0.5952440392793618</left_val>
              <right_val>0.5952440392793618</right_val>
            </_>
          </_>
          <_>
            <_>
              <feature>
                <rects>
                  <_>0 2 4 4 1.0</_>
                  <_>4 2 4 4 -1.0</_>
                  <_>0 6 4 4 -1.0</_>
                  <_>4 6 4 4 1.0</_>
                </rects>
                <tilted>0</tilted>
              </feature>
              <threshold>-8.636857986450195</threshold>
              <left_val>0.5648979770667207</left_val>
              <right_val>-0.5648979770667207</right_val>
            </_>
          </_>
          <_>
            <_>
              <feature>
                <rects>
                  <_>0 6 23 5 -1.0</_>
                  <_>0 11 23 5 2.0</_>
                  <_>0 16 23 5 -1.0</_>
                </rects>
                <tilted>0</tilted>
              </feature>
              <threshold>50.777610778808594</threshold>
              <left_val>-0.5343165745244226</left_val>
              <right_val>0.5343165745244226</right_val>
            </_>
          </_>
          <_>
            <_>
              <feature>
                <rects>
                  <_>18 0 3 23 -1.0</_>
                  <_>21 0 3 23 1.0</_>
                </rects>
                <tilted>0</tilted>
              </feature>
              <threshold>-28.46729278564453</threshold>
              <left_val>0.5399596165048411</left_val>
              <right_val>-0.5399596165048411</right_val>
            </_>
          </_>
          <_>
            <_>
              <feature>
                <rects>
                  <_>11 6 3 4 -1.0</_>
                  <_>14 6 3 4 1.0</_>
                </rects>
                <tilted>0</tilted>
              </feature>
              <threshold>-3.3789844512939453</threshold>
              <left_val>0.5465797875267498</left_val>
              <right_val>-0.5465797875267498</right_val>
            </_>
          </_>
          <_>
            <_>
              <feature>
                <rects>
                  <_>8 14 6 6 -1.0</_>
                  <_>10 16 2 2 2.0</_>
                </rects>
                <tilted>0</tilted>
              </feature>
              <threshold>-108.24869537353516</threshold>
              <left_val>-0.4115680558390519</left_val>
              <right_val>0.4115680558390519</right_val>
            </_>
          </_>
        </trees>
        <stage_threshold>-2.2888313856091984</stage_threshold>
        <parent>2</parent>
        <next>-1</next>
      </_>
      <_>
        <trees>
          <_>
            <_>
              <feature>
                <rects>
                  <_>2 0 19 3 -1.0</_>
                  <_>2 3 19 3 2.0</_>
                  <_>2 6 19 3 -1.0</_>
                </rects>
                <tilted>0</tilted>
              </feature>
              <threshold>32.032772064208984</threshold>
              <left_val>-0.8337939489980455</left_val>
              <right_val>0.8337939489980455</right_val>
            </_>
          </_>
          <_>
            <_>
              <feature>
                <rects>
                  <_>0 20 8 4 -1.0</_>
                  <_>8 20 8 4 2.0</_>
                  <_>16 20 8 4 -1.0</_>
                </rects>
                <tilted>0</tilted>
              </feature>
              <threshold>38.972373962402344</threshold>
              <left_val>-0.707163919374083</left_val>
              <right_val>0.707163919374083</right_val>
            </_>
          </_>
          <_>
            <_>
              <feature>
                <rects>
                  <_>2 8 22 3 -1.0</_>
                  <_>2 11 22 3 2.0</_>
                  <_>2 14 22 3 -1.0</_>
                </rects>
                <tilted>0</tilted>
              </feature>
              <threshold>42.13188552856445</threshold>
              <left_val>-0.674741991497773</left_val>
              <right_val>0.674741991497773</right_val>
            </_>
          </_>
          <_>
            <_>
              <feature>
                <rects>
                  <_>0 0 4 5 -1.0</_>
                  <_>4 0 4 5 1.0</_>
                </rects>
                <tilted>0</tilted>
              </feature>
              <threshold>12.699710845947266</threshold>
              <left_val>-0.6386441251254266</left_val>
              <right_val>0.6386441251254266</right_val>
            </_>
          </_>
          <_>
            <_>
              <feature>
                <rects>
                  <_>6 6 4 4 -1.0</_>
                  <_>10 6 4 4 2.0</_>
                  <_>14 6 4 4 -1.0</_>
                </rects>
                <tilted>0</tilted>
              </feature>
              <threshold>14.401334762573242</threshold>
              <left_val>-0.5936697718436582</left_val>
              <right_val>0.5936697718436582</right_val>
            </_>
          </_>
          <_>
            <_>
              <feature>
                <rects>
                  <_>16 0 4 4 -1.0</_>
                  <_>20 0 4 4 1.0</_>
                </rects>
                <tilted>0</tilted>
              </feature>
              <threshold>-11.166093826293945</threshold>
              <left_val>0.4845692387982902</left_val>
              <right_val>-0.4845692387982902</right_val>
            </_>
          </_>
          <_>
            <_>
              <feature>
                <rects>
                  <_>2 7 21 5 -1.0</_>
                  <_>2 12 21 5 2.0</_>
                  <_>2 17 21 5 -1.0</_>
                </rects>
                <tilted>0</tilted>
              </feature>
              <threshold>27.56952667236328</threshold>
              <left_val>-0.467973443708532</left_val>
              <right_val>0.467973443708532</right_val>
            </_>
          </_>
          <_>
            <_>
              <feature>
                <rects>
                  <_>2 18 6 3 1.0</_>
                  <_>8 18 6 3 -1.0</_>
                  <_>2 21 6 3 -1.0</_>
                  <_>8 21 6 3 1.0</_>
                </rects>
                <tilted>0</tilted>
              </feature>
              <threshold>10.4118070602417</threshold>
              <left_val>-0.4296933632331065</left_val>
              <right_val>0.4296933632331065</right_val>
            </_>
          </_>
          <_>
            <_>
              <feature>
                <rects>
                  <_>9 14 6 6 -1.0</_>
                  <_>11 16 2 2 2.0</_>
                </rects>
                <tilted>0</tilted>
              </feature>
              <threshold>-100.68740844726562</threshold>
              <left_val>-0.3863247600594554</left_val>
              <right_val>0.3863247600594554</right_val>
            </_>
          </_>
        </trees>
        <stage_threshold>-2.5388396775058153</stage_threshold>
        <parent>3</parent>
        <next>-1</next>
      </_>
      <_>
        <trees>
          <_>
            <_>
              <feature>
                <rects>
                  <_>4 4 5 3 -1.0</_>
                  <_>4 7 5 3 2.0</_>
                  <_>4 10 5 3 -1.0</_>
                </rects>
                <tilted>0</tilted>
              </feature>
              <threshold>-18.605382919311523</threshold>
              <left_val>0.8219236488988925</left_val>
              <right_val>-0.8219236488988925</right_val>
            </_>
          </_>
          <_>
            <_>
              <feature>
                <rects>
                  <_>0 0 8 6 -1.0</_>
                  <_>8 0 8 6 2.0</_>
                  <_>16 0 8 6 -1.0</_>
                </rects>
                <tilted>0</tilted>
              </feature>
              <threshold>70.17508697509766</threshold>
              <left_val>-0.6881395929432993</left_val>
              <right_val>0.6881395929432993</right_val>
            </_>
          </_>
          <_>
            <_>
              <feature>
                <rects>
                  <_>15 4 5 3 -1.0</_>
                  <_>15 7 5 3 2.0</_>
                  <_>15 10 5 3 -1.0</_>
                </rects>
                <tilted>0</tilted>
              </feature>
              <threshold>-16.24217987060547</threshold>
              <left_val>0.634535452325586</left_val>
              <right_val>-0.634535452325586</right_val>
            </_>
          </_>
          <_>
            <_>
              <feature>
                <rects>
                  <_>13 18 4 3 1.0</_>
                  <_>17 18 4 3 -1.0</_>
                  <_>13 21 4 3 -1.0</_>
                  <_>17 21 4 3 1.0</_>
                </rects>
                <tilted>0</tilted>
              </feature>
              <threshold>-5.611692428588867</threshold>
              <left_val>0.5721303927236062</left_val>
              <right_val>-0.5721303927236062</right_val>
            </_>
          </_>
          <_>
            <_>
              <feature>
                <rects>
                  <_>0 0 3 23 -1.0</_>
                  <_>3 0 3 23 1.0</_>
                </rects>
                <tilted>0</tilted>
              </feature>
              <threshold>19.041751861572266</threshold>
              <left_val>-0.4364384229128412</left_val>
              <right_val>0.4364384229128412</right_val>
            </_>
          </_>
          <_>
            <_>
              <feature>
                <rects>
                  <_>8 6 3 4 -1.0</_>
                  <_>11 6 3 4 2.0</_>
                  <_>14 6 3 4 -1.0</_>
                </rects>
                <tilted>0</tilted>
              </feature>
              <threshold>8.550992012023926</threshold>
              <left_val>-0.45727110059595694</left_val>
              <right_val>0.45727110059595694</right_val>
            </_>
          </_>
          <_>
            <_>
              <feature>
                <rects>
                  <_>0 11 24 4 -1.0</_>
                  <_>0 15 24 4 1.0</_>
                </rects>
                <tilted>0</tilted>
              </feature>
              <threshold>-13.575995445251465</threshold>
              <left_val>0.4202904125006207</left_val>
              <right_val>-0.4202904125006207</right_val>
            </_>
          </_>
          <_>
            <_>
              <feature>
                <rects>
                  <_>18 0 3 24 -1.0</_>
                  <_>21 0 3 24 1.0</_>
                </rects>
                <tilted>0</tilted>
              </feature>
              <threshold>-27.019624710083008</threshold>
              <left_val>0.42504244989023177</left_val>
              <right_val>-0.42504244989023177</right_val>
            </_>
          </_>
          <_>
            <_>
              <feature>
                <rects>
                  <_>6 0 11 3 -1.0</_>
                  <_>6 3 11 3 2.0</_>
                  <_>6 6 11 3 -1.0</_>
                </rects>
                <tilted>0</tilted>
              </feature>
              <threshold>19.375991821289062</threshold>
              <left_val>-0.3728067442935289</left_val>
              <right_val>0.3728067442935289</right_val>
            </_>
          </_>
          <_>
            <_>
              <feature>
                <rects>
                  <_>0 17 6 3 1.0</_>
                  <_>6 17 6 3 -1.0</_>
                  <_>0 20 6 3 -1.0</_>
                  <_>6 20 6 3 1.0</_>
                </rects>
                <tilted>0</tilted>
              </feature>
              <threshold>5.740076065063477</threshold>
              <left_val>-0.36691706416338843</left_val>
              <right_val>0.36691706416338843</right_val>
            </_>
          </_>
          <_>
            <_>
              <feature>
                <rects>
                  <_>13 4 6 6 -1.0</_>
                  <_>15 6 2 2 2.0</_>
                </rects>
                <tilted>0</tilted>
              </feature>
              <threshold>-105.31266784667969</threshold>
              <left_val>-0.37825523121126664</left_val>
              <right_val>0.37825523121126664</right_val>
            </_>
          </_>
          <_>
            <_>
              <feature>
                <rects>
                  <_>14 0 5 5 1.0</_>
                  <_>19 0 5 5 -1.0</_>
                  <_>14 5 5 5 -1.0</_>
                  <_>19 5 5 5 1.0</_>
                </rects>
                <tilted>0</tilted>
              </feature>
              <threshold>11.836196899414062</threshold>
              <left_val>-0.31286177224488915</left_val>
              <right_val>0.31286177224488915</right_val>
            </_>
          </_>
          <_>
            <_>
              <feature>
                <rects>
                  <_>0 20 8 4 -1.0</_>
                  <_>8 20 8 4 2.0</_>
                  <_>16 20 8 4 -1.0</_>
                </rects>
                <tilted>0</tilted>
              </feature>
              <threshold>58.47645568847656</threshold>
              <left_val>-0.2701782909184293</left_val>
              <right_val>0.2701782909184293</right_val>
            </_>
          </_>
          <_>
            <_>
              <feature>
                <rects>
                  <_>6 8 12 4 -1.0</_>
                  <_>6 12 12 4 1.0</_>
                </rects>
                <tilted>0</tilted>
              </feature>
              <threshold>-0.13408388197422028</threshold>
              <left_val>-0.36811884136826456</left_val>
              <right_val>0.36811884136826456</right_val>
            </_>
          </_>
        </trees>
        <stage_threshold>-2.5477331490327124</stage_threshold>
        <parent>4</parent>
        <next>-1</next>
      </_>
      <_>
        <trees>
          <_>
            <_>
              <feature>
                <rects>
                  <_>1 7 22 3 -1.0</_>
                  <_>1 10 22 3 1.0</_>
                </rects>
                <tilted>0</tilted>
              </feature>
              <threshold>29.773183822631836</threshold>
              <left_val>-0.7508982148175323</left_val>
              <right_val>0.7508982148175323</right_val>
            </_>
          </_>
          <_>
            <_>
              <feature>
                <rects>
                  <_>0 0 8 4 -1.0</_>
                  <_>8 0 8 4 2.0</_>
                  <_>16 0 8 4 -1.0</_>
                </rects>
                <tilted>0</tilted>
              </feature>
              <threshold>49.652687072753906</threshold>
              <left_val>-0.6898452245162139</left_val>
              <right_val>0.6898452245162139</right_val>
            </_>
          </_>
          <_>
            <_>
              <feature>
                <rects>
                  <_>3 0 19 3 -1.0</_>
                  <_>3 3 19 3 2.0</_>
                  <_>3 6 19 3 -1.0</_>
                </rects>
                <tilted>0</tilted>
              </feature>
              <threshold>34.552032470703125</threshold>
              <left_val>-0.5511815762153244</left_val>
              <right_val>0.5511815762153244</right_val>
            </_>
          </_>
          <_>
            <_>
              <feature>
                <rects>
                  <_>0 20 8 4 -1.0</_>
                  <_>8 20 8 4 2.0</_>
                  <_>16 20 8 4 -1.0</_>
                </rects>
                <tilted>0</tilted>
              </feature>
              <threshold>55.186439514160156</threshold>
              <left_val>-0.5844710283329146</left_val>
              <right_val>0.5844710283329146</right_val>
            </_>
          </_>
          <_>
            <_>
              <feature>
                <rects>
                  <_>5 6 4 5 1.0</_>
                  <_>9 6 4 5 -1.0</_>
                  <_>5 11 4 5 -1.0</_>
                  <_>9 11 4 5 1.0</_>
                </rects>
                <tilted>0</tilted>
              </feature>
              <threshold>-8.491514205932617</threshold>
              <left_val>0.5160191839175632</left_val>
              <right_val>-0.5160191839175632</right_val>
            </_>
          </_>
          <_>
            <_>
              <feature>
                <rects>
                  <_>16 2 4 4 1.0</_>
                  <_>20 2 4 4 -1.0</_>
                  <_>16 6 4 4 -1.0</_>
                  <_>20 6 4 4 1.0</_>
                </rects>
                <tilted>0</tilted>
              </feature>
              <threshold>8.43979263305664</threshold>
              <left_val>-0.42520422518863077</left_val>
              <right_val>0.42520422518863077</right_val>
            </_>
          </_>
          <_>
            <_>
              <feature>
                <rects>
                  <_>0 0 3 21 -1.0</_>
                  <_>3 0 3 21 2.0</_>
                  <_>6 0 3 21 -1.0</_>
                </rects>
                <tilted>0</tilted>
              </feature>
              <threshold>8.964396476745605</threshold>
              <left_val>-0.3663140914007275</left_val>
              <right_val>0.3663140914007275</right_val>
            </_>
          </_>
          <_>
            <_>
              <feature>
                <rects>
                  <_>8 7 3 7 -1.0</_>
                  <_>11 7 3 7 2.0</_>
                  <_>14 7 3 7 -1.0</_>
                </rects>
                <tilted>0</tilted>
              </feature>
              <threshold>17.154468536376953</threshold>
              <left_val>-0.3645511375002861</left_val>
              <right_val>0.3645511375002861</right_val>
            </_>
          </_>
          <_>
            <_>
              <feature>
                <rects>
                  <_>2 12 22 4 -1.0</_>
                  <_>2 16 22 4 1.0</_>
                </rects>
                <tilted>0</tilted>
              </feature>
              <threshold>-10.858787536621094</threshold>
              <left_val>0.3922050594945485</left_val>
              <right_val>-0.3922050594945485</right_val>
            </_>
          </_>
          <_>
            <_>
              <feature>
                <rects>
                  <_>14 11 3 10 -1.0</_>
                  <_>17 11 3 10 2.0</_>
                  <_>20 11 3 10 -1.0</_>
                </rects>
                <tilted>0</tilted>
              </feature>
              <threshold>10.587620735168457</threshold>
              <left_val>-0.3734873012097759</left_val>
              <right_val>0.3734873012097759</right_val>
            </_>
          </_>
          <_>
            <_>
              <feature>
                <rects>
                  <_>0 4 4 3 1.0</_>
                  <_>4 4 4 3 -1.0</_>
                  <_>0 7 4 3 -1.0</_>
                  <_>4 7 4 3 1.0</_>
                </rects>
                <tilted>0</tilted>
              </feature>
              <threshold>-5.921238899230957</threshold>
              <left_val>0.30115728312206025</left_val>
              <right_val>-0.30115728312206025</right_val>
            </_>
          </_>
          <_>
            <_>
              <feature>
                <rects>
                  <_>9 14 6 6 -1.0</_>
                  <_>11 16 2 2 2.0</_>
                </rects>
                <tilted>0</tilted>
              </feature>
              <threshold>-124.16026306152344</threshold>
              <left_val>-0.3102895285499533</left_val>
              <right_val>0.3102895285499533</right_val>
            </_>
          </_>
          <_>
            <_>
              <feature>
                <rects>
                  <_>0 0 3 22 -1.0</_>
                  <_>3 0 3 22 1.0</_>
                </rects>
                <tilted>0</tilted>
              </feature>
              <threshold>56.772666931152344</threshold>
              <left_val>-0.33118453359798716</left_val>
              <right_val>0.33118453359798716</right_val>
            </_>
          </_>
          <_>
            <_>
              <feature>
                <rects>
                  <_>11 7 11 5 -1.0</_>
                  <_>11 12 11 5 1.0</_>
                </rects>
                <tilted>0</tilted>
              </feature>
              <threshold>-0.08680006116628647</threshold>
              <left_val>-0.34350698095112747</left_val>
              <right_val>0.34350698095112747</right_val>
            </_>
          </_>
          <_>
            <_>
              <feature>
                <rects>
                  <_>8 4 8 8 -1.0</_>
                  <_>8 12 8 8 1.0</_>
                </rects>
                <tilted>0</tilted>
              </feature>
              <threshold>1.9617066383361816</threshold>
              <left_val>0.30438276752345744</left_val>
              <right_val>-0.30438276752345744</right_val>
            </_>
          </_>
        </trees>
        <stage_threshold>-2.4021330336648643</stage_threshold>
        <parent>5</parent>
        <next>-1</next>
      </_>
      <_>
        <trees>
          <_>
            <_>
              <feature>
                <rects>
                  <_>3 4 17 3 -1.0</_>
                  <_>3 7 17 3 2.0</_>
                  <_>3 10 17 3 -1.0</_>
                </rects>
                <tilted>0</tilted>
              </feature>
              <threshold>-47.58507537841797</threshold>
              <left_val>0.7675274593734265</left_val>
              <right_val>-0.7675274593734265</right_val>
            </_>
          </_>
          <_>
            <_>
              <feature>
                <rects>
                  <_>0 0 8 11 -1.0</_>
                  <_>8 0 8 11 2.0</_>
                  <_>16 0 8 11 -1.0</_>
                </rects>
                <tilted>0</tilted>
              </feature>
              <threshold>118.63700103759766</threshold>
              <left_val>-0.6516674904807196</left_val>
              <right_val>0.6516674904807196</right_val>
            </_>
          </_>
          <_>
            <_>
              <feature>
                <rects>
                  <_>2 18 5 3 1.0</_>
                  <_>7 18 5 3 -1.0</_>
                  <_>2 21 5 3 -1.0</_>
                  <_>7 21 5 3 1.0</_>
                </rects>
                <tilted>0</tilted>
              </feature>
              <threshold>8.017538070678711</threshold>
              <left_val>-0.5195041312044414</left_val>
              <right_val>0.5195041312044414</right_val>
            </_>
          </_>
          <_>
            <_>
              <feature>
                <rects>
                  <_>16 7 5 4 -1.0</_>
                  <_>16 11 5 4 2.0</_>
                  <_>16 15 5 4 -1.0</_>
                </rects>
                <tilted>0</tilted>
              </feature>
              <threshold>15.951852798461914</threshold>
              <left_val>-0.48662305657777105</left_val>
              <right_val>0.48662305657777105</right_val>
            </_>
          </_>
          <_>
            <_>
              <feature>
                <rects>
                  <_>7 7 3 4 -1.0</_>
                  <_>10 7 3 4 2.0</_>
                  <_>13 7 3 4 -1.0</_>
                </rects>
                <tilted>0</tilted>
              </feature>
              <threshold>14.75905990600586</threshold>
              <left_val>-0.46692094336323947</left_val>
              <right_val>0.46692094336323947</right_val>
            </_>
          </_>
          <_>
            <_>
              <feature>
                <rects>
                  <_>18 0 3 7 -1.0</_>
                  <_>21 0 3 7 1.0</_>
                </rects>
                <tilted>0</tilted>
              </feature>
              <threshold>-8.074701309204102</threshold>
              <left_val>0.4254640205594554</left_val>
              <right_val>-0.4254640205594554</right_val>
            </_>
          </_>
          <_>
            <_>
              <feature>
                <rects>
                  <_>3 7 5 4 -1.0</_>
                  <_>3 11 5 4 2.0</_>
                  <_>3 15 5 4 -1.0</_>
                </rects>
                <tilted>0</tilted>
              </feature>
              <threshold>8.822833061218262</threshold>
              <left_val>-0.4130542948308691</left_val>
              <right_val>0.4130542948308691</right_val>
            </_>
          </_>
          <_>
            <_>
              <feature>
                <rects>
                  <_>14 20 5 4 -1.0</_>
                  <_>19 20 5 4 1.0</_>
                </rects>
                <tilted>0</tilted>
              </feature>
              <threshold>-18.585330963134766</threshold>
              <left_val>0.45739852390027363</left_val>
              <right_val>-0.45739852390027363</right_val>
            </_>
          </_>
          <_>
            <_>
              <feature>
                <rects>
                  <_>9 14 6 6 -1.0</_>
                  <_>11 16 2 2 2.0</_>
                </rects>
                <tilted>0</tilted>
              </feature>
              <threshold>-133.01620483398438</threshold>
              <left_val>-0.3846557928494271</left_val>
              <right_val>0.3846557928494271</right_val>
            </_>
          </_>
          <_>
            <_>
              <feature>
                <rects>
                  <_>0 0 3 6 -1.0</_>
                  <_>3 0 3 6 1.0</_>
                </rects>
                <tilted>0</tilted>
              </feature>
              <threshold>12.345680236816406</threshold>
              <left_val>-0.41576419276648663</left_val>
              <right_val>0.41576419276648663</right_val>
            </_>
          </_>
          <_>
            <_>
              <feature>
                <rects>
                  <_>13 18 4 3 1.0</_>
                  <_>17 18 4 3 -1.0</_>
                  <_>13 21 4 3 -1.0</_>
                  <_>17 21 4 3 1.0</_>
                </rects>
                <tilted>0</tilted>
              </feature>
              <threshold>-3.1277027130126953</threshold>
              <left_val>0.31195697084973095</left_val>
              <right_val>-0.31195697084973095</right_val>
            </_>
          </_>
          <_>
            <_>
              <feature>
                <rects>
                  <_>7 0 16 3 -1.0</_>
                  <_>7 3 16 3 2.0</_>
                  <_>7 6 16 3 -1.0</_>
                </rects>
                <tilted>0</tilted>
              </feature>
              <threshold>24.022947311401367</threshold>
              <left_val>-0.3045863961326192</left_val>
              <right_val>0.3045863961326192</right_val>
            </_>
          </_>
          <_>
            <_>
              <feature>
                <rects>
                  <_>0 12 3 12 -1.0</_>
                  <_>3 12 3 12 1.0</_>
                </rects>
                <tilted>0</tilted>
              </feature>
              <threshold>18.824264526367188</threshold>
              <left_val>-0.2809168603698268</left_val>
              <right_val>0.2809168603698268</right_val>
            </_>
          </_>
          <_>
            <_>
              <feature>
                <rects>
                  <_>4 4 16 6 -1.0</_>
                  <_>4 10 16 6 1.0</_>
                </rects>
                <tilted>0</tilted>
              </feature>
              <threshold>-6.018035411834717</threshold>
              <left_val>-0.2852735403559876</left_val>
              <right_val>0.2852735403559876</right_val>
            </_>
          </_>
          <_>
            <_>
              <feature>
                <rects>
                  <_>8 7 3 4 -1.0</_>
                  <_>11 7 3 4 2.0</_>
                  <_>14 7 3 4 -1.0</_>
                </rects>
                <tilted>0</tilted>
              </feature>
              <threshold>15.099827766418457</threshold>
              <left_val>-0.30260919004611075</left_val>
              <right_val>0.30260919004611075</right_val>
            </_>
          </_>
          <_>
            <_>
              <feature>
                <rects>
                  <_>3 10 19 3 -1.0</_>
                  <_>3 13 19 3 1.0</_>
                </rects>
                <tilted>0</tilted>
              </feature>
              <threshold>8.344722747802734</threshold>
              <left_val>0.2620702989907021</left_val>
              <right_val>-0.2620702989907021</right_val>
            </_>
          </_>
          <_>
            <_>
              <feature>
                <rects>
                  <_>0 15 12 9 -1.0</_>
                  <_>12 15 12 9 1.0</_>
                </rects>
                <tilted>0</tilted>
              </feature>
              <threshold>105.71836853027344</threshold>
              <left_val>-0.2939910133683862</left_val>
              <right_val>0.2939910133683862</right_val>
            </_>
          </_>
          <_>
            <_>
              <feature>
                <rects>
                  <_>7 1 10 6 -1.0</_>
                  <_>7 7 10 6 2.0</_>
                  <_>7 13 10 6 -1.0</_>
                </rects>
                <tilted>0</tilted>
              </feature>
              <threshold>1.8315871953964233</threshold>
              <left_val>0.2847063265604186</left_val>
              <right_val>-0.2847063265604186</right_val>
            </_>
          </_>
          <_>
            <_>
              <feature>
                <rects>
                  <_>18 0 6 6 -1.0</_>
                  <_>20 2 2 2 2.0</_>
                </rects>
                <tilted>0</tilted>
              </feature>
              <threshold>-39.505615234375</threshold>
              <left_val>-0.2294433064627958</left_val>
              <right_val>0.2294433064627958</right_val>
            </_>
          </_>
          <_>
            <_>
              <feature>
                <rects>
                  <_>9 6 6 7 -1.0</_>
                  <_>9 13 6 7 1.0</_>
                </rects>
                <tilted>0</tilted>
              </feature>
              <threshold>6.018467903137207</threshold>
              <left_val>0.3196755118866696</left_val>
              <right_val>-0.3196755118866696</right_val>
            </_>
          </_>
        </trees>
        <stage_threshold>-2.608885213983228</stage_threshold>
        <parent>6</parent>
        <next>-1</next>
      </_>
      <_>
        <trees>
          <_>
            <_>
              <feature>
                <rects>
                  <_>15 2 5 4 -1.0</_>
                  <_>15 6 5 4 2.0</_>
                  <_>15 10 5 4 -1.0</_>
                </rects>
                <tilted>0</tilted>
              </feature>
              <threshold>-26.233285903930664</threshold>
              <left_val>0.7049025498920053</left_val>
              <right_val>-0.7049025498920053</right_val>
            </_>
          </_>
          <_>
            <_>
              <feature>
                <rects>
                  <_>0 0 8 5 -1.0</_>
                  <_>8 0 8 5 2.0</_>
                  <_>16 0 8 5 -1.0</_>
                </rects>
                <tilted>0</tilted>
              </feature>
              <threshold>58.46614074707031</threshold>
              <left_val>-0.6159198583002395</left_val>
              <right_val>0.6159198583002395</right_val>
            </_>
          </_>
          <_>
            <_>
              <feature>
                <rects>
                  <_>4 4 4 3 -1.0</_>
                  <_>4 7 4 3 2.0</_>
                  <_>4 10 4 3 -1.0</_>
                </rects>
                <tilted>0</tilted>
              </feature>
              <threshold>-17.03865623474121</threshold>
              <left_val>0.563356464544342</left_val>
              <right_val>-0.563356464544342</right_val>
            </_>
          </_>
          <_>
            <_>
              <feature>
                <rects>
                  <_>0 20 8 4 -1.0</_>
                  <_>8 20 8 4 2.0</_>
                  <_>16 20 8 4 -1.0</_>
                </rects>
                <tilted>0</tilted>
              </feature>
              <threshold>36.310672760009766</threshold>
              <left_val>-0.518909156903569</left_val>
              <right_val>0.518909156903569</right_val>
            </_>
          </_>
          <_>
            <_>
              <feature>
                <rects>
                  <_>7 6 3 4 -1.0</_>
                  <_>10 6 3 4 1.0</_>
                </rects>
                <tilted>0</tilted>
              </feature>
              <threshold>5.977922439575195</threshold>
              <left_val>-0.3990864256572003</left_val>
              <right_val>0.3990864256572003</right_val>
            </_>
          </_>
          <_>
            <_>
              <feature>
                <rects>
                  <_>0 7 13 4 -1.0</_>
                  <_>0 11 13 4 2.0</_>
                  <_>0 15 13 4 -1.0</_>
                </rects>
                <tilted>0</tilted>
              </feature>
              <threshold>27.014320373535156</threshold>
              <left_val>-0.3700977746861379</left_val>
              <right_val>0.3700977746861379</right_val>
            </_>
          </_>
          <_>
            <_>
              <feature>
                <rects>
                  <_>18 1 3 22 -1.0</_>
                  <_>21 1 3 22 1.0</_>
                </rects>
                <tilted>0</tilted>
              </feature>
              <threshold>-34.444366455078125</threshold>
              <left_val>0.3851620988064445</left_val>
              <right_val>-0.3851620988064445</right_val>
            </_>
          </_>
          <_>
            <_>
              <feature>
                <rects>
                  <_>8 14 6 6 -1.0</_>
                  <_>10 16 2 2 2.0</_>
                </rects>
                <tilted>0</tilted>
              </feature>
              <threshold>-130.12945556640625</threshold>
              <left_val>-0.39085746159112095</left_val>
              <right_val>0.39085746159112095</right_val>
            </_>
          </_>
          <_>
            <_>
              <feature>
                <rects>
                  <_>0 0 3 6 -1.0</_>
                  <_>3 0 3 6 1.0</_>
                </rects>
                <tilted>0</tilted>
              </feature>
              <threshold>15.803764343261719</threshold>
              <left_val>-0.36665480396718886</left_val>
              <right_val>0.36665480396718886</right_val>
            </_>
          </_>
          <_>
            <_>
              <feature>
                <rects>
                  <_>3 1 21 3 -1.0</_>
                  <_>3 4 21 3 2.0</_>
                  <_>3 7 21 3 -1.0</_>
                </rects>
                <tilted>0</tilted>
              </feature>
              <threshold>16.19240951538086</threshold>
              <left_val>-0.3658489598287295</left_val>
              <right_val>0.3658489598287295</right_val>
            </_>
          </_>
          <_>
            <_>
              <feature>
                <rects>
                  <_>2 18 4 3 1.0</_>
                  <_>6 18 4 3 -1.0</_>
                  <_>2 21 4 3 -1.0</_>
                  <_>6 21 4 3 1.0</_>
                </rects>
                <tilted>0</tilted>
              </feature>
              <threshold>5.837596893310547</threshold>
              <left_val>-0.3261269243669036</left_val>
              <right_val>0.3261269243669036</right_val>
            </_>
          </_>
          <_>
            <_>
              <feature>
                <rects>
                  <_>11 18 6 3 1.0</_>
                  <_>17 18 6 3 -1.0</_>
                  <_>11 21 6 3 -1.0</_>
                  <_>17 21 6 3 1.0</_>
                </rects>
                <tilted>0</tilted>
              </feature>
              <threshold>-4.104425430297852</threshold>
              <left_val>0.2940746441028826</left_val>
              <right_val>-0.2940746441028826</right_val>
            </_>
          </_>
          <_>
            <_>
              <feature>
                <rects>
                  <_>14 0 5 6 1.0</_>
                  <_>19 0 5 6 -1.0</_>
                  <_>14 6 5 6 -1.0</_>
                  <_>19 6 5 6 1.0</_>
                </rects>
                <tilted>0</tilted>
              </feature>
              <threshold>11.242435455322266</threshold>
              <left_val>-0.2658151432301284</left_val>
              <right_val>0.2658151432301284</right_val>
            </_>
          </_>
          <_>
            <_>
              <feature>
                <rects>
                  <_>1 0 11 24 -1.0</_>
                  <_>12 0 11 24 1.0</_>
                </rects>
                <tilted>0</tilted>
              </feature>
              <threshold>-178.43380737304688</threshold>
              <left_val>0.2520740778522952</left_val>
              <right_val>-0.2520740778522952</right_val>
            </_>
          </_>
          <_>
            <_>
              <feature>
                <rects>
                  <_>1 3 23 6 -1.0</_>
                  <_>1 9 23 6 2.0</_>
                  <_>1 15 23 6 -1.0</_>
                </rects>
                <tilted>0</tilted>
              </feature>
              <threshold>-15.221935272216797</threshold>
              <left_val>-0.348672572358522</left_val>
              <right_val>0.348672572358522</right_val>
            </_>
          </_>
          <_>
            <_>
              <feature>
                <rects>
                  <_>1 12 3 4 -1.0</_>
                  <_>4 12 3 4 2.0</_>
                  <_>7 12 3 4 -1.0</_>
                </rects>
                <tilted>0</tilted>
              </feature>
              <threshold>7.951197624206543</threshold>
              <left_val>-0.26813304475702593</left_val>
              <right_val>0.26813304475702593</right_val>
            </_>
          </_>
          <_>
            <_>
              <feature>
                <rects>
                  <_>13 11 3 10 -1.0</_>
                  <_>16 11 3 10 1.0</_>
                </rects>
                <tilted>0</tilted>
              </feature>
              <threshold>-0.006124529056251049</threshold>
              <left_val>-0.24286883423247774</left_val>
              <right_val>0.24286883423247774</right_val>
            </_>
          </_>
          <_>
            <_>
              <feature>
                <rects>
                  <_>8 7 3 6 -1.0</_>
                  <_>11 7 3 6 2.0</_>
                  <_>14 7 3 6 -1.0</_>
                </rects>
                <tilted>0</tilted>
              </feature>
              <threshold>23.4315128326416</threshold>
              <left_val>-0.2700632522156748</left_val>
              <right_val>0.2700632522156748</right_val>
            </_>
          </_>
          <_>
            <_>
              <feature>
                <rects>
                  <_>8 5 8 8 -1.0</_>
                  <_>8 13 8 8 1.0</_>
                </rects>
                <tilted>0</tilted>
              </feature>
              <threshold>11.133960723876953</threshold>
              <left_val>0.2755828110886619</left_val>
              <right_val>-0.2755828110886619</right_val>
            </_>
          </_>
          <_>
            <_>
              <feature>
                <rects>
                  <_>0 18 12 6 -1.0</_>
                  <_>12 18 12 6 1.0</_>
                </rects>
                <tilted>0</tilted>
              </feature>
              <threshold>-76.58372497558594</threshold>
              <left_val>0.24932422486667621</left_val>
              <right_val>-0.24932422486667621</right_val>
            </_>
          </_>
          <_>
            <_>
              <feature>
                <rects>
                  <_>11 7 10 5 -1.0</_>
                  <_>11 12 10 5 1.0</_>
                </rects>
                <tilted>0</tilted>
              </feature>
              <threshold>-0.12587963044643402</threshold>
              <left_val>-0.3401384973586775</left_val>
              <right_val>0.3401384973586775</right_val>
            </_>
          </_>
        </trees>
        <stage_threshold>-2.490911538455542</stage_threshold>
        <parent>7</parent>
        <next>-1</next>
      </_>
      <_>
        <trees>
          <_>
            <_>
              <feature>
                <rects>
                  <_>6 3 13 3 -1.0</_>
                  <_>6 6 13 3 1.0</_>
                </rects>
                <tilted>0</tilted>
              </feature>
              <threshold>-21.24013900756836</threshold>
              <left_val>0.6898188274472503</left_val>
              <right_val>-0.6898188274472503</right_val>
            </_>
          </_>
          <_>
            <_>
              <feature>
                <rects>
                  <_>0 0 8 24 -1.0</_>
                  <_>8 0 8 24 2.0</_>
                  <_>16 0 8 24 -1.0</_>
                </rects>
                <tilted>0</tilted>
              </feature>
              <threshold>168.19662475585938</threshold>
              <left_val>-0.5916397010671715</left_val>
              <right_val>0.5916397010671715</right_val>
            </_>
          </_>
          <_>
            <_>
              <feature>
                <rects>
                  <_>4 7 4 4 -1.0</_>
                  <_>4 11 4 4 2.0</_>
                  <_>4 15 4 4 -1.0</_>
                </rects>
                <tilted>0</tilted>
              </feature>
              <threshold>17.373994827270508</threshold>
              <left_val>-0.5476346653495396</left_val>
              <right_val>0.5476346653495396</right_val>
            </_>
          </_>
          <_>
            <_>
              <feature>
                <rects>
                  <_>10 6 5 5 1.0</_>
                  <_>15 6 5 5 -1.0</_>
                  <_>10 11 5 5 -1.0</_>
                  <_>15 11 5 5 1.0</_>
                </rects>
                <tilted>0</tilted>
              </feature>
              <threshold>14.097695350646973</threshold>
              <left_val>-0.4831171763502526</left_val>
              <right_val>0.4831171763502526</right_val>
            </_>
          </_>
          <_>
            <_>
              <feature>
                <rects>
                  <_>18 0 3 24 -1.0</_>
                  <_>21 0 3 24 1.0</_>
                </rects>
                <tilted>0</tilted>
              </feature>
              <threshold>-39.98403549194336</threshold>
              <left_val>0.4093187659563053</left_val>
              <right_val>-0.4093187659563053</right_val>
            </_>
          </_>
          <_>
            <_>
              <feature>
                <rects>
                  <_>0 0 4 6 1.0</_>
                  <_>4 0 4 6 -1.0</_>
                  <_>0 6 4 6 -1.0</_>
                  <_>4 6 4 6 1.0</_>
                </rects>
                <tilted>0</tilted>
              </feature>
              <threshold>-12.618391990661621</threshold>
              <left_val>0.4056098668521844</left_val>
              <right_val>-0.4056098668521844</right_val>
            </_>
          </_>
          <_>
            <_>
              <feature>
                <rects>
                  <_>2 18 6 3 1.0</_>
                  <_>8 18 6 3 -1.0</_>
                  <_>2 21 6 3 -1.0</_>
                  <_>8 21 6 3 1.0</_>
                </rects>
                <tilted>0</tilted>
              </feature>
              <threshold>6.640546798706055</threshold>
              <left_val>-0.36265351874392754</left_val>
              <right_val>0.36265351874392754</right_val>
            </_>
          </_>
          <_>
            <_>
              <feature>
                <rects>
                  <_>10 8 12 3 -1.0</_>
                  <_>10 11 12 3 2.0</_>
                  <_>10 14 12 3 -1.0</_>
                </rects>
                <tilted>0</tilted>
              </feature>
              <threshold>18.414459228515625</threshold>
              <left_val>-0.34782041047168183</left_val>
              <right_val>0.34782041047168183</right_val>
            </_>
          </_>
          <_>
            <_>
              <feature>
                <rects>
                  <_>7 6 3 9 -1.0</_>
                  <_>10 6 3 9 2.0</_>
                  <_>13 6 3 9 -1.0</_>
                </rects>
                <tilted>0</tilted>
              </feature>
              <threshold>23.15715789794922</threshold>
              <left_val>-0.340085642054218</left_val>
              <right_val>0.340085642054218</right_val>
            </_>
          </_>
          <_>
            <_>
              <feature>
                <rects>
                  <_>18 0 6 6 -1.0</_>
                  <_>20 2 2 2 2.0</_>
                </rects>
                <tilted>0</tilted>
              </feature>
              <threshold>-128.59375</threshold>
              <left_val>-0.3340726190911158</left_val>
              <right_val>0.3340726190911158</right_val>
            </_>
          </_>
          <_>
            <_>
              <feature>
                <rects>
                  <_>0 3 3 21 -1.0</_>
                  <_>3 3 3 21 1.0</_>
                </rects>
                <tilted>0</tilted>
              </feature>
              <threshold>26.516267776489258</threshold>
              <left_val>-0.38664177207999423</left_val>
              <right_val>0.38664177207999423</right_val>
            </_>
          </_>
          <_>
            <_>
              <feature>
                <rects>
                  <_>20 0 4 8 -1.0</_>
                  <_>20 8 4 8 2.0</_>
                  <_>20 16 4 8 -1.0</_>
                </rects>
                <tilted>0</tilted>
              </feature>
              <threshold>14.78281021118164</threshold>
              <left_val>-0.3105810502504488</left_val>
              <right_val>0.3105810502504488</right_val>
            </_>
          </_>
          <_>
            <_>
              <feature>
                <rects>
                  <_>3 1 21 3 -1.0</_>
                  <_>3 4 21 3 2.0</_>
                  <_>3 7 21 3 -1.0</_>
                </rects>
                <tilted>0</tilted>
              </feature>
              <threshold>13.774502754211426</threshold>
              <left_val>-0.2952467989063635</left_val>
              <right_val>0.2952467989063635</right_val>
            </_>
          </_>
          <_>
            <_>
              <feature>
                <rects>
                  <_>0 8 11 16 -1.0</_>
                  <_>11 8 11 16 1.0</_>
                </rects>
                <tilted>0</tilted>
              </feature>
              <threshold>-134.3482208251953</threshold>
              <left_val>0.24509751082900746</left_val>
              <right_val>-0.24509751082900746</right_val>
            </_>
          </_>
          <_>
            <_>
              <feature>
                <rects>
                  <_>3 5 12 6 -1.0</_>
                  <_>3 11 12 6 1.0</_>
                </rects>
                <tilted>0</tilted>
              </feature>
              <threshold>-5.640884876251221</threshold>
              <left_val>-0.307786305110099</left_val>
              <right_val>0.307786305110099</right_val>
            </_>
          </_>
          <_>
            <_>
              <feature>
                <rects>
                  <_>0 4 12 20 -1.0</_>
                  <_>12 4 12 20 1.0</_>
                </rects>
                <tilted>0</tilted>
              </feature>
              <threshold>167.60269165039062</threshold>
              <left_val>-0.26311541098505314</left_val>
              <right_val>0.26311541098505314</right_val>
            </_>
          </_>
          <_>
            <_>
              <feature>
                <rects>
                  <_>8 6 7 7 -1.0</_>
                  <_>8 13 7 7 1.0</_>
                </rects>
                <tilted>0</tilted>
              </feature>
              <threshold>8.879328727722168</threshold>
              <left_val>0.3264123975520524</left_val>
              <right_val>-0.3264123975520524</right_val>
            </_>
          </_>
          <_>
            <_>
              <feature>
                <rects>
                  <_>14 18 3 3 1.0</_>
                  <_>17 18 3 3 -1.0</_>
                  <_>14 21 3 3 -1.0</_>
                  <_>17 21 3 3 1.0</_>
                </rects>
                <tilted>0</tilted>
              </feature>
              <threshold>-5.832651138305664</threshold>
              <left_val>0.26217269322188225</left_val>
              <right_val>-0.26217269322188225</right_val>
            </_>
          </_>
          <_>
            <_>
              <feature>
                <rects>
                  <_>5 8 3 13 -1.0</_>
                  <_>8 8 3 13 1.0</_>
                </rects>
                <tilted>0</tilted>
              </feature>
              <threshold>4.279498100280762</threshold>
              <left_val>0.2133206016711402</left_val>
              <right_val>-0.2133206016711402</right_val>
            </_>
          </_>
          <_>
            <_>
              <feature>
                <rects>
                  <_>0 17 3 6 -1.0</_>
                  <_>3 17 3 6 1.0</_>
                </rects>
                <tilted>0</tilted>
              </feature>
              <threshold>-16.2464599609375</threshold>
              <left_val>0.23935192980072434</left_val>
              <right_val>-0.23935192980072434</right_val>
            </_>
          </_>
          <_>
            <_>
              <feature>
                <rects>
                  <_>8 7 11 5 -1.0</_>
                  <_>8 12 11 5 1.0</_>
                </rects>
                <tilted>0</tilted>
              </feature>
              <threshold>-0.1767883598804474</threshold>
              <left_val>-0.2849786547062291</left_val>
              <right_val>0.2849786547062291</right_val>
            </_>
          </_>
        </trees>
        <stage_threshold>-2.447699525769839</stage_threshold>
        <parent>8</parent>
        <next>-1</next>
      </_>
      <_>
        <trees>
          <_>
            <_>
              <feature>
                <rects>
                  <_>3 4 18 3 -1.0</_>
                  <_>3 7 18 3 2.0</_>
                  <_>3 10 18 3 -1.0</_>
                </rects>
                <tilted>0</tilted>
              </feature>
              <threshold>-62.114173889160156</threshold>
              <left_val>0.6641580079368293</left_val>
              <right_val>-0.6641580079368293</right_val>
            </_>
          </_>
          <_>
            <_>
              <feature>
                <rects>
                  <_>0 0 8 10 -1.0</_>
                  <_>8 0 8 10 2.0</_>
                  <_>16 0 8 10 -1.0</_>
                </rects>
                <tilted>0</tilted>
              </feature>
              <threshold>98.99775695800781</threshold>
              <left_val>-0.6558776997962388</left_val>
              <right_val>0.6558776997962388</right_val>
            </_>
          </_>
          <_>
            <_>
              <feature>
                <rects>
                  <_>9 18 7 3 1.0</_>
                  <_>16 18 7 3 -1.0</_>
                  <_>9 21 7 3 -1.0</_>
                  <_>16 21 7 3 1.0</_>
                </rects>
                <tilted>0</tilted>
              </feature>
              <threshold>-12.396574020385742</threshold>
              <left_val>0.4450747979564937</left_val>
              <right_val>-0.4450747979564937</right_val>
            </_>
          </_>
          <_>
            <_>
              <feature>
                <rects>
                  <_>11 6 3 4 -1.0</_>
                  <_>14 6 3 4 1.0</_>
                </rects>
                <tilted>0</tilted>
              </feature>
              <threshold>-5.155246734619141</threshold>
              <left_val>0.4430299441036876</left_val>
              <right_val>-0.4430299441036876</right_val>
            </_>
          </_>
          <_>
            <_>
              <feature>
                <rects>
                  <_>0 2 4 4 1.0</_>
                  <_>4 2 4 4 -1.0</_>
                  <_>0 6 4 4 -1.0</_>
                  <_>4 6 4 4 1.0</_>
                </rects>
                <tilted>0</tilted>
              </feature>
              <threshold>-11.169111251831055</threshold>
              <left_val>0.4010647963586903</left_val>
              <right_val>-0.4010647963586903</right_val>
            </_>
          </_>
          <_>
            <_>
              <feature>
                <rects>
                  <_>1 10 6 7 -1.0</_>
                  <_>1 17 6 7 1.0</_>
                </rects>
                <tilted>0</tilted>
              </feature>
              <threshold>-16.811920166015625</threshold>
              <left_val>0.37860672973441295</left_val>
              <right_val>-0.37860672973441295</right_val>
            </_>
          </_>
          <_>
            <_>
              <feature>
                <rects>
                  <_>18 0 3 24 -1.0</_>
                  <_>21 0 3 24 1.0</_>
                </rects>
                <tilted>0</tilted>
              </feature>
              <threshold>-28.126087188720703</threshold>
              <left_val>0.37997703947694067</left_val>
              <right_val>-0.37997703947694067</right_val>
            </_>
          </_>
          <_>
            <_>
              <feature>
                <rects>
                  <_>0 0 23 3 -1.0</_>
                  <_>0 3 23 3 2.0</_>
                  <_>0 6 23 3 -1.0</_>
                </rects>
                <tilted>0</tilted>
              </feature>
              <threshold>26.97992706298828</threshold>
              <left_val>-0.3710362638859099</left_val>
              <right_val>0.3710362638859099</right_val>
            </_>
          </_>
          <_>
            <_>
              <feature>
                <rects>
                  <_>0 0 11 24 -1.0</_>
                  <_>11 0 11 24 1.0</_>
                </rects>
                <tilted>0</tilted>
              </feature>
              <threshold>188.53369140625</threshold>
              <left_val>-0.3189283671110237</left_val>
              <right_val>0.3189283671110237</right_val>
            </_>
          </_>
          <_>
            <_>
              <feature>
                <rects>
                  <_>8 7 9 9 -1.0</_>
                  <_>11 10 3 3 2.0</_>
                </rects>
                <tilted>0</tilted>
              </feature>
              <threshold>-320.69451904296875</threshold>
              <left_val>-0.3814245503784375</left_val>
              <right_val>0.3814245503784375</right_val>
            </_>
          </_>
          <_>
            <_>
              <feature>
                <rects>
                  <_>3 17 3 3 1.0</_>
                  <_>6 17 3 3 -1.0</_>
                  <_>3 20 3 3 -1.0</_>
                  <_>6 20 3 3 1.0</_>
                </rects>
                <tilted>0</tilted>
              </feature>
              <threshold>5.132871150970459</threshold>
              <left_val>-0.31364363231128073</left_val>
              <right_val>0.31364363231128073</right_val>
            </_>
          </_>
          <_>
            <_>
              <feature>
                <rects>
                  <_>13 7 10 4 -1.0</_>
                  <_>13 11 10 4 2.0</_>
                  <_>13 15 10 4 -1.0</_>
                </rects>
                <tilted>0</tilted>
              </feature>
              <threshold>23.915958404541016</threshold>
              <left_val>-0.31784442973471255</left_val>
              <right_val>0.31784442973471255</right_val>
            </_>
          </_>
          <_>
            <_>
              <feature>
                <rects>
                  <_>0 0 3 23 -1.0</_>
                  <_>3 0 3 23 1.0</_>
                </rects>
                <tilted>0</tilted>
              </feature>
              <threshold>43.878273010253906</threshold>
              <left_val>-0.3038905362545994</left_val>
              <right_val>0.3038905362545994</right_val>
            </_>
          </_>
          <_>
            <_>
              <feature>
                <rects>
                  <_>3 7 9 4 -1.0</_>
                  <_>3 11 9 4 1.0</_>
                </rects>
                <tilted>0</tilted>
              </feature>
              <threshold>6.281828880310059</threshold>
              <left_val>-0.3087065182903281</left_val>
              <right_val>0.3087065182903281</right_val>
            </_>
          </_>
          <_>
            <_>
              <feature>
                <rects>
                  <_>14 0 5 6 1.0</_>
                  <_>19 0 5 6 -1.0</_>
                  <_>14 6 5 6 -1.0</_>
                  <_>19 6 5 6 1.0</_>
                </rects>
                <tilted>0</tilted>
              </feature>
              <threshold>23.943317413330078</threshold>
              <left_val>-0.2703451448501401</left_val>
              <right_val>0.2703451448501401</right_val>
            </_>
          </_>
          <_>
            <_>
              <feature>
                <rects>
                  <_>10 8 5 5 -1.0</_>
                  <_>10 13 5 5 2.0</_>
                  <_>10 18 5 5 -1.0</_>
                </rects>
                <tilted>0</tilted>
              </feature>
              <threshold>10.586708068847656</threshold>
              <left_val>0.23718920933165488</left_val>
              <right_val>-0.23718920933165488</right_val>
            </_>
          </_>
          <_>
            <_>
              <feature>
                <rects>
                  <_>2 18 11 6 -1.0</_>
                  <_>13 18 11 6 1.0</_>
                </rects>
                <tilted>0</tilted>
              </feature>
              <threshold>-68.83901977539062</threshold>
              <left_val>0.3221419140372217</left_val>
              <right_val>-0.3221419140372217</right_val>
            </_>
          </_>
          <_>
            <_>
              <feature>
                <rects>
                  <_>6 4 14 6 -1.0</_>
                  <_>6 10 14 6 1.0</_>
                </rects>
                <tilted>0</tilted>
              </feature>
              <threshold>-7.976283073425293</threshold>
              <left_val>-0.26137369855457315</left_val>
              <right_val>0.26137369855457315</right_val>
            </_>
          </_>
          <_>
            <_>
              <feature>
                <rects>
                  <_>7 8 3 6 -1.0</_>
                  <_>10 8 3 6 2.0</_>
                  <_>13 8 3 6 -1.0</_>
                </rects>
                <tilted>0</tilted>
              </feature>
              <threshold>23.064300537109375</threshold>
              <left_val>-0.23159155853715827</left_val>
              <right_val>0.23159155853715827</right_val>
            </_>
          </_>
          <_>
            <_>
              <feature>
                <rects>
                  <_>8 6 9 8 -1.0</_>
                  <_>8 14 9 8 1.0</_>
                </rects>
                <tilted>0</tilted>
              </feature>
              <threshold>6.452044486999512</threshold>
              <left_val>0.2575429559220904</left_val>
              <right_val>-0.2575429559220904</right_val>
            </_>
          </_>
          <_>
            <_>
              <feature>
                <rects>
                  <_>0 16 8 8 -1.0</_>
                  <_>8 16 8 8 2.0</_>
                  <_>16 16 8 8 -1.0</_>
                </rects>
                <tilted>0</tilted>
              </feature>
              <threshold>65.06556701660156</threshold>
              <left_val>-0.22678307195537292</left_val>
              <right_val>0.22678307195537292</right_val>
            </_>
          </_>
          <_>
            <_>
              <feature>
                <rects>
                  <_>3 12 6 4 -1.0</_>
                  <_>9 12 6 4 2.0</_>
                  <_>15 12 6 4 -1.0</_>
                </rects>
                <tilted>0</tilted>
              </feature>
              <threshold>3.626131534576416</threshold>
              <left_val>0.25648646433234495</left_val>
              <right_val>-0.25648646433234495</right_val>
            </_>
          </_>
          <_>
            <_>
              <feature>
                <rects>
                  <_>5 0 6 6 -1.0</_>
                  <_>7 2 2 2 2.0</_>
                </rects>
                <tilted>0</tilted>
              </feature>
              <threshold>-31.533634185791016</threshold>
              <left_val>-0.21103123779060282</left_val>
              <right_val>0.21103123779060282</right_val>
            </_>
          </_>
          <_>
            <_>
              <feature>
                <rects>
                  <_>7 1 11 6 -1.0</_>
                  <_>7 7 11 6 2.0</_>
                  <_>7 13 11 6 -1.0</_>
                </rects>
                <tilted>0</tilted>
              </feature>
              <threshold>0.05029425397515297</threshold>
              <left_val>0.28851991447290026</left_val>
              <right_val>-0.28851991447290026</right_val>
            </_>
          </_>
          <_>
            <_>
              <feature>
                <rects>
                  <_>0 0 6 6 -1.0</_>
                  <_>2 2 2 2 2.0</_>
                </rects>
                <tilted>0</tilted>
              </feature>
              <threshold>-66.82878112792969</threshold>
              <left_val>-0.20437687680407463</left_val>
              <right_val>0.20437687680407463</right_val>
            </_>
          </_>
          <_>
            <_>
              <feature>
                <rects>
                  <_>2 7 7 7 -1.0</_>
                  <_>9 7 7 7 2.0</_>
                  <_>16 7 7 7 -1.0</_>
                </rects>
                <tilted>0</tilted>
              </feature>
              <threshold>-2.7174253463745117</threshold>
              <left_val>-0.2012721329821145</left_val>
              <right_val>0.2012721329821145</right_val>
            </_>
          </_>
          <_>
            <_>
              <feature>
                <rects>
                  <_>18 17 3 7 -1.0</_>
                  <_>21 17 3 7 1.0</_>
                </rects>
                <tilted>0</tilted>
              </feature>
              <threshold>18.875221252441406</threshold>
              <left_val>-0.23248064465595805</left_val>
              <right_val>0.23248064465595805</right_val>
            </_>
          </_>
        </trees>
        <stage_threshold>-2.639570407568819</stage_threshold>
        <parent>9</parent>
        <next>-1</next>
      </_>
      <_>
        <trees>
          <_>
            <_>
              <feature>
                <rects>
                  <_>0 7 22 3 -1.0</_>
                  <_>0 10 22 3 1.0</_>
                </rects>
                <tilted>0</tilted>
              </feature>
              <threshold>32.27225875854492</threshold>
              <left_val>-0.6267996475701602</left_val>
              <right_val>0.6267996475701602</right_val>
            </_>
          </_>
          <_>
            <_>
              <feature>
                <rects>
                  <_>0 0 8 6 -1.0</_>
                  <_>8 0 8 6 2.0</_>
                  <_>16 0 8 6 -1.0</_>
                </rects>
                <tilted>0</tilted>
              </feature>
              <threshold>81.81718444824219</threshold>
              <left_val>-0.6020523797503442</left_val>
              <right_val>0.6020523797503442</right_val>
            </_>
          </_>
          <_>
            <_>
              <feature>
                <rects>
                  <_>2 0 7 3 -1.0</_>
                  <_>2 3 7 3 2.0</_>
                  <_>2 6 7 3 -1.0</_>
                </rects>
                <tilted>0</tilted>
              </feature>
              <threshold>11.748039245605469</threshold>
              <left_val>-0.44361878363359686</left_val>
              <right_val>0.44361878363359686</right_val>
            </_>
          </_>
          <_>
            <_>
              <feature>
                <rects>
                  <_>0 20 8 4 -1.0</_>
                  <_>8 20 8 4 2.0</_>
                  <_>16 20 8 4 -1.0</_>
                </rects>
                <tilted>0</tilted>
              </feature>
              <threshold>48.586090087890625</threshold>
              <left_val>-0.4780516155502876</left_val>
              <right_val>0.4780516155502876</right_val>
            </_>
          </_>
          <_>
            <_>
              <feature>
                <rects>
                  <_>8 6 3 4 -1.0</_>
                  <_>11 6 3 4 2.0</_>
                  <_>14 6 3 4 -1.0</_>
                </rects>
                <tilted>0</tilted>
              </feature>
              <threshold>11.744291305541992</threshold>
              <left_val>-0.43331329463354523</left_val>
              <right_val>0.43331329463354523</right_val>
            </_>
          </_>
          <_>
            <_>
              <feature>
                <rects>
                  <_>16 4 4 3 1.0</_>
                  <_>20 4 4 3 -1.0</_>
                  <_>16 7 4 3 -1.0</_>
                  <_>20 7 4 3 1.0</_>
                </rects>
                <tilted>0</tilted>
              </feature>
              <threshold>6.1170125007629395</threshold>
              <left_val>-0.38876998175405997</left_val>
              <right_val>0.38876998175405997</right_val>
            </_>
          </_>
          <_>
            <_>
              <feature>
                <rects>
                  <_>0 0 3 4 -1.0</_>
                  <_>3 0 3 4 1.0</_>
                </rects>
                <tilted>0</tilted>
              </feature>
              <threshold>6.401101589202881</threshold>
              <left_val>-0.3139535669483053</left_val>
              <right_val>0.3139535669483053</right_val>
            </_>
          </_>
          <_>
            <_>
              <feature>
                <rects>
                  <_>13 0 11 3 -1.0</_>
                  <_>13 3 11 3 2.0</_>
                  <_>13 6 11 3 -1.0</_>
                </rects>
                <tilted>0</tilted>
              </feature>
              <threshold>11.201379776000977</threshold>
              <left_val>-0.3318306878726381</left_val>
              <right_val>0.3318306878726381</right_val>
            </_>
          </_>
          <_>
            <_>
              <feature>
                <rects>
                  <_>3 18 4 3 1.0</_>
                  <_>7 18 4 3 -1.0</_>
                  <_>3 21 4 3 -1.0</_>
                  <_>7 21 4 3 1.0</_>
                </rects>
                <tilted>0</tilted>
              </feature>
              <threshold>7.371809005737305</threshold>
              <left_val>-0.3263911377000009</left_val>
              <right_val>0.3263911377000009</right_val>
            </_>
          </_>
          <_>
            <_>
              <feature>
                <rects>
                  <_>9 14 6 6 -1.0</_>
                  <_>11 16 2 2 2.0</_>
                </rects>
                <tilted>0</tilted>
              </feature>
              <threshold>-112.18150329589844</threshold>
              <left_val>-0.29302948929999256</left_val>
              <right_val>0.29302948929999256</right_val>
            </_>
          </_>
          <_>
            <_>
              <feature>
                <rects>
                  <_>18 0 3 24 -1.0</_>
                  <_>21 0 3 24 1.0</_>
                </rects>
                <tilted>0</tilted>
              </feature>
              <threshold>-30.175579071044922</threshold>
              <left_val>0.35296327040674613</left_val>
              <right_val>-0.35296327040674613</right_val>
            </_>
          </_>
          <_>
            <_>
              <feature>
                <rects>
                  <_>0 8 3 3 1.0</_>
                  <_>3 8 3 3 -1.0</_>
                  <_>0 11 3 3 -1.0</_>
                  <_>3 11 3 3 1.0</_>
                </rects>
                <tilted>0</tilted>
              </feature>
              <threshold>3.7533559799194336</threshold>
              <left_val>-0.3171570893406856</left_val>
              <right_val>0.3171570893406856</right_val>
            </_>
          </_>
          <_>
            <_>
              <feature>
                <rects>
                  <_>13 12 3 4 -1.0</_>
                  <_>16 12 3 4 1.0</_>
                </rects>
                <tilted>0</tilted>
              </feature>
              <threshold>0.9585365056991577</threshold>
              <left_val>-0.2535553341249658</left_val>
              <right_val>0.2535553341249658</right_val>
            </_>
          </_>
          <_>
            <_>
              <feature>
                <rects>
                  <_>1 8 19 4 -1.0</_>
                  <_>1 12 19 4 2.0</_>
                  <_>1 16 19 4 -1.0</_>
                </rects>
                <tilted>0</tilted>
              </feature>
              <threshold>25.285085678100586</threshold>
              <left_val>-0.22417934658172467</left_val>
              <right_val>0.22417934658172467</right_val>
            </_>
          </_>
          <_>
            <_>
              <feature>
                <rects>
                  <_>0 0 12 24 -1.0</_>
                  <_>12 0 12 24 1.0</_>
                </rects>
                <tilted>0</tilted>
              </feature>
              <threshold>-247.14585876464844</threshold>
              <left_val>0.3106103992350539</left_val>
              <right_val>-0.3106103992350539</right_val>
            </_>
          </_>
          <_>
            <_>
              <feature>
                <rects>
                  <_>8 6 7 8 -1.0</_>
                  <_>8 14 7 8 1.0</_>
                </rects>
                <tilted>0</tilted>
              </feature>
              <threshold>3.7544941902160645</threshold>
              <left_val>0.3056210198796069</left_val>
              <right_val>-0.3056210198796069</right_val>
            </_>
          </_>
          <_>
            <_>
              <feature>
                <rects>
                  <_>15 17 4 3 1.0</_>
                  <_>19 17 4 3 -1.0</_>
                  <_>15 20 4 3 -1.0</_>
                  <_>19 20 4 3 1.0</_>
                </rects>
                <tilted>0</tilted>
              </feature>
              <threshold>-6.858922004699707</threshold>
              <left_val>0.2367286143112817</left_val>
              <right_val>-0.2367286143112817</right_val>
            </_>
          </_>
          <_>
            <_>
              <feature>
                <rects>
                  <_>6 0 12 7 -1.0</_>
                  <_>6 7 12 7 2.0</_>
                  <_>6 14 12 7 -1.0</_>
                </rects>
                <tilted>0</tilted>
              </feature>
              <threshold>0.17970116436481476</threshold>
              <left_val>0.2248694612740866</left_val>
              <right_val>-0.2248694612740866</right_val>
            </_>
          </_>
          <_>
            <_>
              <feature>
                <rects>
                  <_>0 1 3 23 -1.0</_>
                  <_>3 1 3 23 1.0</_>
                </rects>
                <tilted>0</tilted>
              </feature>
              <threshold>37.907962799072266</threshold>
              <left_val>-0.21323397933198487</left_val>
              <right_val>0.21323397933198487</right_val>
            </_>
          </_>
          <_>
            <_>
              <feature>
                <rects>
                  <_>1 3 14 7 -1.0</_>
                  <_>1 10 14 7 2.0</_>
                  <_>1 17 14 7 -1.0</_>
                </rects>
                <tilted>0</tilted>
              </feature>
              <threshold>-0.98409104347229</threshold>
              <left_val>-0.2454668657664047</left_val>
              <right_val>0.2454668657664047</right_val>
            </_>
          </_>
          <_>
            <_>
              <feature>
                <rects>
                  <_>0 17 3 6 -1.0</_>
                  <_>3 17 3 6 1.0</_>
                </rects>
                <tilted>0</tilted>
              </feature>
              <threshold>-17.138784408569336</threshold>
              <left_val>0.24586675423688995</left_val>
              <right_val>-0.24586675423688995</right_val>
            </_>
          </_>
          <_>
            <_>
              <feature>
                <rects>
                  <_>9 10 6 6 -1.0</_>
                  <_>11 12 2 2 2.0</_>
                </rects>
                <tilted>0</tilted>
              </feature>
              <threshold>-166.52316284179688</threshold>
              <left_val>-0.28176458727426346</left_val>
              <right_val>0.28176458727426346</right_val>
            </_>
          </_>
          <_>
            <_>
              <feature>
                <rects>
                  <_>0 1 12 23 -1.0</_>
                  <_>12 1 12 23 1.0</_>
                </rects>
                <tilted>0</tilted>
              </feature>
              <threshold>198.38584899902344</threshold>
              <left_val>-0.23834110952738977</left_val>
              <right_val>0.23834110952738977</right_val>
            </_>
          </_>
          <_>
            <_>
              <feature>
                <rects>
                  <_>11 7 10 5 -1.0</_>
                  <_>11 12 10 5 1.0</_>
                </rects>
                <tilted>0</tilted>
              </feature>
              <threshold>-0.7529652118682861</threshold>
              <left_val>-0.24145707411856498</left_val>
              <right_val>0.24145707411856498</right_val>
            </_>
          </_>
          <_>
            <_>
              <feature>
                <rects>
                  <_>7 8 3 4 -1.0</_>
                  <_>10 8 3 4 2.0</_>
                  <_>13 8 3 4 -1.0</_>
                </rects>
                <tilted>0</tilted>
              </feature>
              <threshold>16.91362762451172</threshold>
              <left_val>-0.22475068386647248</left_val>
              <right_val>0.22475068386647248</right_val>
            </_>
          </_>
          <_>
            <_>
              <feature>
                <rects>
                  <_>4 13 4 4 -1.0</_>
                  <_>8 13 4 4 1.0</_>
                </rects>
                <tilted>0</tilted>
              </feature>
              <threshold>0.1821141242980957</threshold>
              <left_val>0.25440024621332114</left_val>
              <right_val>-0.25440024621332114</right_val>
            </_>
          </_>
          <_>
            <_>
              <feature>
                <rects>
                  <_>4 20 10 4 -1.0</_>
                  <_>14 20 10 4 1.0</_>
                </rects>
                <tilted>0</tilted>
              </feature>
              <threshold>-40.60048294067383</threshold>
              <left_val>0.19087832842379948</left_val>
              <right_val>-0.19087832842379948</right_val>
            </_>
          </_>
          <_>
            <_>
              <feature>
                <rects>
                  <_>5 10 14 3 -1.0</_>
                  <_>5 13 14 3 1.0</_>
                </rects>
                <tilted>0</tilted>
              </feature>
              <threshold>6.703402519226074</threshold>
              <left_val>0.25697963768905274</left_val>
              <right_val>-0.25697963768905274</right_val>
            </_>
          </_>
        </trees>
        <stage_threshold>-2.3785682818985556</stage_threshold>
        <parent>10</parent>
        <next>-1</next>
      </_>
      <_>
        <trees>
          <_>
            <_>
              <feature>
                <rects>
                  <_>4 4 5 3 -1.0</_>
                  <_>4 7 5 3 2.0</_>
                  <_>4 10 5 3 -1.0</_>
                </rects>
                <tilted>0</tilted>
              </feature>
              <threshold>-18.07714080810547</threshold>
              <left_val>0.6227548302090209</left_val>
              <right_val>-0.6227548302090209</right_val>
            </_>
          </_>
          <_>
            <_>
              <feature>
                <rects>
                  <_>14 0 5 5 -1.0</_>
                  <_>19 0 5 5 1.0</_>
                </rects>
                <tilted>0</tilted>
              </feature>
              <threshold>-22.184871673583984</threshold>
              <left_val>0.5678464512076987</left_val>
              <right_val>-0.5678464512076987</right_val>
            </_>
          </_>
          <_>
            <_>
              <feature>
                <rects>
                  <_>16 7 4 3 -1.0</_>
                  <_>16 10 4 3 1.0</_>
                </rects>
                <tilted>0</tilted>
              </feature>
              <threshold>9.229982376098633</threshold>
              <left_val>-0.4509318814129198</left_val>
              <right_val>0.4509318814129198</right_val>
            </_>
          </_>
          <_>
            <_>
              <feature>
                <rects>
                  <_>0 0 5 5 -1.0</_>
                  <_>5 0 5 5 1.0</_>
                </rects>
                <tilted>0</tilted>
              </feature>
              <threshold>23.576404571533203</threshold>
              <left_val>-0.4693131245877482</left_val>
              <right_val>0.4693131245877482</right_val>
            </_>
          </_>
          <_>
            <_>
              <feature>
                <rects>
                  <_>0 20 8 4 -1.0</_>
                  <_>8 20 8 4 2.0</_>
                  <_>16 20 8 4 -1.0</_>
                </rects>
                <tilted>0</tilted>
              </feature>
              <threshold>36.77399444580078</threshold>
              <left_val>-0.3964977516163106</left_val>
              <right_val>0.3964977516163106</right_val>
            </_>
          </_>
          <_>
            <_>
              <feature>
                <rects>
                  <_>8 5 3 5 -1.0</_>
                  <_>11 5 3 5 2.0</_>
                  <_>14 5 3 5 -1.0</_>
                </rects>
                <tilted>0</tilted>
              </feature>
              <threshold>11.08670711517334</threshold>
              <left_val>-0.3799712280477555</left_val>
              <right_val>0.3799712280477555</right_val>
            </_>
          </_>
          <_>
            <_>
              <feature>
                <rects>
                  <_>13 0 9 3 -1.0</_>
                  <_>13 3 9 3 2.0</_>
                  <_>13 6 9 3 -1.0</_>
                </rects>
                <tilted>0</tilted>
              </feature>
              <threshold>16.29027557373047</threshold>
              <left_val>-0.3561248847212646</left_val>
              <right_val>0.3561248847212646</right_val>
            </_>
          </_>
          <_>
            <_>
              <feature>
                <rects>
                  <_>1 17 4 3 1.0</_>
                  <_>5 17 4 3 -1.0</_>
                  <_>1 20 4 3 -1.0</_>
                  <_>5 20 4 3 1.0</_>
                </rects>
                <tilted>0</tilted>
              </feature>
              <threshold>4.421619892120361</threshold>
              <left_val>-0.30544536071602263</left_val>
              <right_val>0.30544536071602263</right_val>
            </_>
          </_>
          <_>
            <_>
              <feature>
                <rects>
                  <_>12 18 4 4 -1.0</_>
                  <_>16 18 4 4 2.0</_>
                  <_>20 18 4 4 -1.0</_>
                </rects>
                <tilted>0</tilted>
              </feature>
              <threshold>9.128927230834961</threshold>
              <left_val>-0.261363188111865</left_val>
              <right_val>0.261363188111865</right_val>
            </_>
          </_>
          <_>
            <_>
              <feature>
                <rects>
                  <_>2 12 19 5 -1.0</_>
                  <_>2 17 19 5 1.0</_>
                </rects>
                <tilted>0</tilted>
              </feature>
              <threshold>-15.684017181396484</threshold>
              <left_val>0.2968057656714175</left_val>
              <right_val>-0.2968057656714175</right_val>
            </_>
          </_>
          <_>
            <_>
              <feature>
                <rects>
                  <_>0 0 12 24 -1.0</_>
                  <_>12 0 12 24 1.0</_>
                </rects>
                <tilted>0</tilted>
              </feature>
              <threshold>-214.4453125</threshold>
              <left_val>0.2558274828097317</left_val>
              <right_val>-0.2558274828097317</right_val>
            </_>
          </_>
          <_>
            <_>
              <feature>
                <rects>
                  <_>9 14 6 6 -1.0</_>
                  <_>11 16 2 2 2.0</_>
                </rects>
                <tilted>0</tilted>
              </feature>
              <threshold>-147.88314819335938</threshold>
              <left_val>-0.2783992052097968</left_val>
              <right_val>0.2783992052097968</right_val>
            </_>
          </_>
          <_>
            <_>
              <feature>
                <rects>
                  <_>0 0 11 24 -1.0</_>
                  <_>11 0 11 24 1.0</_>
                </rects>
                <tilted>0</tilted>
              </feature>
              <threshold>188.91152954101562</threshold>
              <left_val>-0.2576245298229524</left_val>
              <right_val>0.2576245298229524</right_val>
            </_>
          </_>
          <_>
            <_>
              <feature>
                <rects>
                  <_>1 8 12 3 -1.0</_>
                  <_>1 11 12 3 2.0</_>
                  <_>1 14 12 3 -1.0</_>
                </rects>
                <tilted>0</tilted>
              </feature>
              <threshold>11.259778022766113</threshold>
              <left_val>-0.2621071832335306</left_val>
              <right_val>0.2621071832335306</right_val>
            </_>
          </_>
          <_>
            <_>
              <feature>
                <rects>
                  <_>15 18 3 3 1.0</_>
                  <_>18 18 3 3 -1.0</_>
                  <_>15 21 3 3 -1.0</_>
                  <_>18 21 3 3 1.0</_>
                </rects>
                <tilted>0</tilted>
              </feature>
              <threshold>-4.794145584106445</threshold>
              <left_val>0.23502053463252504</left_val>
              <right_val>-0.23502053463252504</right_val>
            </_>
          </_>
          <_>
            <_>
              <feature>
                <rects>
                  <_>9 2 5 9 -1.0</_>
                  <_>9 11 5 9 1.0</_>
                </rects>
                <tilted>0</tilted>
              </feature>
              <threshold>0.13095250725746155</threshold>
              <left_val>0.2460018469449293</left_val>
              <right_val>-0.2460018469449293</right_val>
            </_>
          </_>
          <_>
            <_>
              <feature>
                <rects>
                  <_>0 13 3 10 -1.0</_>
                  <_>3 13 3 10 1.0</_>
                </rects>
                <tilted>0</tilted>
              </feature>
              <threshold>22.757347106933594</threshold>
              <left_val>-0.24667145261196308</left_val>
              <right_val>0.24667145261196308</right_val>
            </_>
          </_>
          <_>
            <_>
              <feature>
                <rects>
                  <_>11 7 10 5 -1.0</_>
                  <_>11 12 10 5 1.0</_>
                </rects>
                <tilted>0</tilted>
              </feature>
              <threshold>-0.1958792358636856</threshold>
              <left_val>-0.2586369868418228</left_val>
              <right_val>0.2586369868418228</right_val>
            </_>
          </_>
          <_>
            <_>
              <feature>
                <rects>
                  <_>7 8 3 6 -1.0</_>
                  <_>10 8 3 6 2.0</_>
                  <_>13 8 3 6 -1.0</_>
                </rects>
                <tilted>0</tilted>
              </feature>
              <threshold>24.239784240722656</threshold>
              <left_val>-0.2572842230018585</left_val>
              <right_val>0.2572842230018585</right_val>
            </_>
          </_>
          <_>
            <_>
              <feature>
                <rects>
                  <_>3 4 6 12 -1.0</_>
                  <_>9 4 6 12 2.0</_>
                  <_>15 4 6 12 -1.0</_>
                </rects>
                <tilted>0</tilted>
              </feature>
              <threshold>60.65242385864258</threshold>
              <left_val>0.22657799758373187</left_val>
              <right_val>-0.22657799758373187</right_val>
            </_>
          </_>
          <_>
            <_>
              <feature>
                <rects>
                  <_>18 2 3 17 -1.0</_>
                  <_>21 2 3 17 1.0</_>
                </rects>
                <tilted>0</tilted>
              </feature>
              <threshold>-47.72917938232422</threshold>
              <left_val>0.20339446887524537</left_val>
              <right_val>-0.20339446887524537</right_val>
            </_>
          </_>
          <_>
            <_>
              <feature>
                <rects>
                  <_>6 0 3 14 -1.0</_>
                  <_>9 0 3 14 1.0</_>
                </rects>
                <tilted>0</tilted>
              </feature>
              <threshold>-0.12937572598457336</threshold>
              <left_val>-0.257535861904019</left_val>
              <right_val>0.257535861904019</right_val>
            </_>
          </_>
          <_>
            <_>
              <feature>
                <rects>
                  <_>0 16 12 8 -1.0</_>
                  <_>12 16 12 8 1.0</_>
                </rects>
                <tilted>0</tilted>
              </feature>
              <threshold>-84.30745697021484</threshold>
              <left_val>0.20059062212341597</left_val>
              <right_val>-0.20059062212341597</right_val>
            </_>
          </_>
          <_>
            <_>
              <feature>
                <rects>
                  <_>10 9 7 4 -1.0</_>
                  <_>10 13 7 4 2.0</_>
                  <_>10 17 7 4 -1.0</_>
                </rects>
                <tilted>0</tilted>
              </feature>
              <threshold>21.72747802734375</threshold>
              <left_val>0.23654181817256476</left_val>
              <right_val>-0.23654181817256476</right_val>
            </_>
          </_>
          <_>
            <_>
              <feature>
                <rects>
                  <_>16 20 4 4 -1.0</_>
                  <_>20 20 4 4 1.0</_>
                </rects>
                <tilted>0</tilted>
              </feature>
              <threshold>15.097766876220703</threshold>
              <left_val>-0.21706043616241608</left_val>
              <right_val>0.21706043616241608</right_val>
            </_>
          </_>
          <_>
            <_>
              <feature>
                <rects>
                  <_>5 6 9 6 -1.0</_>
                  <_>5 12 9 6 1.0</_>
                </rects>
                <tilted>0</tilted>
              </feature>
              <threshold>-9.363997459411621</threshold>
              <left_val>-0.25085254941413176</left_val>
              <right_val>0.25085254941413176</right_val>
            </_>
          </_>
          <_>
            <_>
              <feature>
                <rects>
                  <_>1 18 3 3 1.0</_>
                  <_>4 18 3 3 -1.0</_>
                  <_>1 21 3 3 -1.0</_>
                  <_>4 21 3 3 1.0</_>
                </rects>
                <tilted>0</tilted>
              </feature>
              <threshold>-6.850325584411621</threshold>
              <left_val>0.1919369761535048</left_val>
              <right_val>-0.1919369761535048</right_val>
            </_>
          </_>
          <_>
            <_>
              <feature>
                <rects>
                  <_>3 10 9 5 -1.0</_>
                  <_>3 15 9 5 1.0</_>
                </rects>
                <tilted>0</tilted>
              </feature>
              <threshold>0.5369179248809814</threshold>
              <left_val>0.22623654346697739</left_val>
              <right_val>-0.22623654346697739</right_val>
            </_>
          </_>
          <_>
            <_>
              <feature>
                <rects>
                  <_>4 4 5 3 -1.0</_>
                  <_>4 7 5 3 2.0</_>
                  <_>4 10 5 3 -1.0</_>
                </rects>
                <tilted>0</tilted>
              </feature>
              <threshold>-18.093982696533203</threshold>
              <left_val>-0.1965353148978366</left_val>
              <right_val>0.1965353148978366</right_val>
            </_>
          </_>
          <_>
            <_>
              <feature>
                <rects>
                  <_>1 0 10 3 -1.0</_>
                  <_>1 3 10 3 2.0</_>
                  <_>1 6 10 3 -1.0</_>
                </rects>
                <tilted>0</tilted>
              </feature>
              <threshold>13.767474174499512</threshold>
              <left_val>-0.23367983468841952</left_val>
              <right_val>0.23367983468841952</right_val>
            </_>
          </_>
          <_>
            <_>
              <feature>
                <rects>
