<?xml version="1.0"?>
<opencv_storage>
  <haarcascade_frontalface_default type_id="opencv-haar-classifier">
    <size>24 24</size>
    <stages>
      <_>
        <trees>
          <_>
            <_>
              <feature>
                <rects>
                  <_>4 4 17 3 -1.0</_>
                  <_>4 7 17 3 2.0</_>
                  <_>4 10 17 3 -1.0</_>
                </rects>
                <tilted>0</tilted>
              </feature>
              <threshold>-38.997314453125</threshold>
              <left_val>1.4313030961374789</left_val>
              <right_val>-1.4313030961374789</right_val>
            </_>
          </_>
          <_>
            <_>
              <feature>
                <rects>
                  <_>0 0 8 10 -1.0</_>
                  <_>8 0 8 10 2.0</_>
                  <_>16 0 8 10 -1.0</_>
                </rects>
                <tilted>0</tilted>
              </feature>
              <threshold>76.39842224121094</threshold>
              <left_val>-1.0355797036086383</left_val>
              <right_val>1.0355797036086383</right_val>
            </_>
          </_>
          <_>
            <_>
              <feature>
                <rects>
                  <_>1 7 8 4 -1.0</_>
                  <_>1 11 8 4 2.0</_>
                  <_>1 15 8 4 -1.0</_>
                </rects>
                <tilted>0</tilted>
              </feature>
              <threshold>15.723814010620117</threshold>
              <left_val>-0.6815363875512702</left_val>
              <right_val>0.6815363875512702</right_val>
            </_>
          </_>
          <_>
            <_>
              <feature>
                <rects>
                  <_>6 6 4 4 -1.0</_>
                  <_>10 6 4 4 2.0</_>
                  <_>14 6 4 4 -1.0</_>
                </rects>
                <tilted>0</tilted>
              </feature>
              <threshold>16.220909118652344</threshold>
              <left_val>-0.6156224529074709</left_val>
              <right_val>0.6156224529074709</right_val>
            </_>
          </_>
          <_>
            <_>
              <feature>
                <rects>
                  <_>10 18 6 3 1.0</_>
                  <_>16 18 6 3 -1.0</_>
                  <_>10 21 6 3 -1.0</_>
                  <_>16 21 6 3 1.0</_>
                </rects>
                <tilted>0</tilted>
              </feature>
              <threshold>-6.251896381378174</threshold>
              <left_val>0.5841646316426282</left_val>
              <right_val>-0.5841646316426282</right_val>
            </_>
          </_>
          <_>
            <_>
              <feature>
                <rects>
                  <_>0 18 6 6 -1.0</_>
                  <_>2 20 2 2 2.0</_>
                </rects>
                <tilted>0</tilted>
              </feature>
              <threshold>-107.8458251953125</threshold>
              <left_val>-0.6227059679542833</left_val>
              <right_val>0.6227059679542833</right_val>
            </_>
          </_>
          <_>
            <_>
              <feature>
                <rects>
                  <_>18 0 3 7 -1.0</_>
                  <_>21 0 3 7 1.0</_>
                </rects>
                <tilted>0</tilted>
              </feature>
              <threshold>-11.12997055053711</threshold>
              <left_val>0.5132117416459592</left_val>
              <right_val>-0.5132117416459592</right_val>
            </_>
          </_>
        </trees>
        <stage_threshold>-2.1675526383218857</stage_threshold>
        <parent>-1</parent>
        <next>-1</next>
      </_>
      <_>
        <trees>
          <_>
            <_>
              <feature>
                <rects>
                  <_>3 0 18 3 -1.0</_>
                  <_>3 3 18 3 2.0</_>
                  <_>3 6 18 3 -1.0</_>
                </rects>
                <tilted>0</tilted>
              </feature>
              <threshold>31.731491088867188</threshold>
              <left_val>-0.8945969350763892</left_val>
              <right_val>0.8945969350763892</right_val>
            </_>
          </_>
          <_>
            <_>
              <feature>
                <rects>
                  <_>16 7 5 4 -1.0</_>
                  <_>16 11 5 4 2.0</_>
                  <_>16 15 5 4 -1.0</_>
                </rects>
                <tilted>0</tilted>
              </feature>
              <threshold>18.257518768310547</threshold>
              <left_val>-0.7320665130860555</left_val>
              <right_val>0.7320665130860555</right_val>
            </_>
          </_>
          <_>
            <_>
              <feature>
                <rects>
                  <_>0 20 8 4 -1.0</_>
                  <_>8 20 8 4 2.0</_>
                  <_>16 20 8 4 -1.0</_>
                </rects>
                <tilted>0</tilted>
              </feature>
              <threshold>40.93717956542969</threshold>
              <left_val>-0.7650814526662074</left_val>
              <right_val>0.7650814526662074</right_val>
            </_>
          </_>
          <_>
            <_>
              <feature>
                <rects>
                  <_>0 0 4 6 -1.0</_>
                  <_>4 0 4 6 1.0</_>
                </rects>
                <tilted>0</tilted>
              </feature>
              <threshold>13.761688232421875</threshold>
              <left_val>-0.6169667127776111</left_val>
              <right_val>0.6169667127776111</right_val>
            </_>
          </_>
          <_>
            <_>
              <feature>
                <rects>
                  <_>11 6 3 4 -1.0</_>
                  <_>14 6 3 4 1.0</_>
                </rects>
                <tilted>0</tilted>
              </feature>
              <threshold>-3.5509941577911377</threshold>
              <left_val>0.5779058095152844</left_val>
              <right_val>-0.5779058095152844</right_val>
            </_>
          </_>
          <_>
            <_>
              <feature>
                <rects>
                  <_>4 7 5 3 -1.0</_>
                  <_>4 10 5 3 1.0</_>
                </rects>
                <tilted>0</tilted>
              </feature>
              <threshold>7.9706220626831055</threshold>
              <left_val>-0.560507050869731</left_val>
              <right_val>0.560507050869731</right_val>
            </_>
          </_>
          <_>
            <_>
              <feature>
                <rects>
                  <_>16 0 4 5 -1.0</_>
                  <_>20 0 4 5 1.0</_>
                </rects>
                <tilted>0</tilted>
              </feature>
              <threshold>-13.986330032348633</threshold>
              <left_val>0.530537128869584</left_val>
              <right_val>-0.530537128869584</right_val>
            </_>
          </_>
          <_>
            <_>
              <feature>
                <rects>
                  <_>9 8 6 6 -1.0</_>
                  <_>9 14 6 6 1.0</_>
                </rects>
                <tilted>0</tilted>
              </feature>
              <threshold>0.1434081494808197</threshold>
              <left_val>0.4035437921372686</left_val>
              <right_val>-0.4035437921372686</right_val>
            </_>
          </_>
          <_>
            <_>
              <feature>
                <rects>
                  <_>1 18 6 3 1.0</_>
                  <_>7 18 6 3 -1.0</_>
                  <_>1 21 6 3 -1.0</_>
                  <_>7 21 6 3 1.0</_>
                </rects>
                <tilted>0</tilted>
              </feature>
              <threshold>10.0552339553833</threshold>
              <left_val>-0.41577240643311114</left_val>
              <right_val>0.41577240643311114</right_val>
            </_>
          </_>
          <_>
            <_>
              <feature>
                <rects>
                  <_>3 5 20 6 -1.0</_>
                  <_>3 11 20 6 2.0</_>
                  <_>3 17 20 6 -1.0</_>
                </rects>
                <tilted>0</tilted>
              </feature>
              <threshold>39.77715301513672</threshold>
              <left_val>-0.3829491887858664</left_val>
              <right_val>0.3829491887858664</right_val>
            </_>
          </_>
          <_>
            <_>
              <feature>
                <rects>
                  <_>7 7 3 6 -1.0</_>
                  <_>10 7 3 6 2.0</_>
                  <_>13 7 3 6 -1.0</_>
                </rects>
                <tilted>0</tilted>
              </feature>
              <threshold>20.935932159423828</threshold>
              <left_val>-0.39070944375758115</left_val>
              <right_val>0.39070944375758115</right_val>
            </_>
          </_>
          <_>
            <_>
              <feature>
                <rects>
                  <_>12 2 6 5 1.0</_>
                  <_>18 2 6 5 -1.0</_>
                  <_>12 7 6 5 -1.0</_>
                  <_>18 7 6 5 1.0</_>
                </rects>
                <tilted>0</tilted>
              </feature>
              <threshold>7.71279239654541</threshold>
              <left_val>-0.37926278380695183</left_val>
              <right_val>0.37926278380695183</right_val>
            </_>
          </_>
          <_>
            <_>
              <feature>
                <rects>
                  <_>12 13 4 10 -1.0</_>
                  <_>16 13 4 10 2.0</_>
                  <_>20 13 4 10 -1.0</_>
                </rects>
                <tilted>0</tilted>
              </feature>
              <threshold>16.246816635131836</threshold>
              <left_val>-0.33863708929549985</left_val>
              <right_val>0.33863708929549985</right_val>
            </_>
          </_>
          <_>
            <_>
              <feature>
                <rects>
                  <_>5 2 7 5 -1.0</_>
                  <_>5 7 7 5 2.0</_>
                  <_>5 12 7 5 -1.0</_>
                </rects>
                <tilted>0</tilted>
              </feature>
              <threshold>-6.963603973388672</threshold>
              <left_val>0.33256179496714877</left_val>
              <right_val>-0.33256179496714877</right_val>
            </_>
          </_>
          <_>
            <_>
              <feature>
                <rects>
                  <_>0 0 10 24 -1.0</_>
                  <_>10 0 10 24 1.0</_>
                </rects>
                <tilted>0</tilted>
              </feature>
              <threshold>138.94497680664062</threshold>
              <left_val>-0.3358973357174954</left_val>
              <right_val>0.3358973357174954</right_val>
            </_>
          </_>
          <_>
            <_>
              <feature>
                <rects>
                  <_>9 14 6 6 -1.0</_>
                  <_>11 16 2 2 2.0</_>
                </rects>
                <tilted>0</tilted>
              </feature>
              <threshold>-101.81831359863281</threshold>
              <left_val>-0.32750977825109234</left_val>
              <right_val>0.32750977825109234</right_val>
            </_>
          </_>
          <_>
            <_>
              <feature>
                <rects>
                  <_>4 12 4 4 -1.0</_>
                  <_>8 12 4 4 1.0</_>
                </rects>
                <tilted>0</tilted>
              </feature>
              <threshold>-0.808231770992279</threshold>
              <left_val>0.3052952666150603</left_val>
              <right_val>-0.3052952666150603</right_val>
            </_>
          </_>
          <_>
            <_>
              <feature>
                <rects>
                  <_>14 17 5 3 1.0</_>
                  <_>19 17 5 3 -1.0</_>
                  <_>14 20 5 3 -1.0</_>
                  <_>19 20 5 3 1.0</_>
                </rects>
                <tilted>0</tilted>
              </feature>
              <threshold>-6.753384590148926</threshold>
              <left_val>0.2863313271786225</left_val>
              <right_val>-0.2863313271786225</right_val>
            </_>
          </_>
          <_>
            <_>
              <feature>
                <rects>
                  <_>5 7 14 3 -1.0</_>
                  <_>5 10 14 3 2.0</_>
                  <_>5 13 14 3 -1.0</_>
                </rects>
                <tilted>0</tilted>
              </feature>
              <threshold>4.837518692016602</threshold>
              <left_val>-0.29263015244016993</left_val>
              <right_val>0.29263015244016993</right_val>
            </_>
          </_>
          <_>
            <_>
              <feature>
                <rects>
                  <_>18 18 3 6 -1.0</_>
                  <_>21 18 3 6 1.0</_>
                </rects>
                <tilted>0</tilted>
              </feature>
              <threshold>13.260313034057617</threshold>
              <left_val>-0.3211616640623803</left_val>
              <right_val>0.3211616640623803</right_val>
            </_>
          </_>
          <_>
            <_>
              <feature>
                <rects>
                  <_>5 6 15 7 -1.0</_>
                  <_>5 13 15 7 1.0</_>
                </rects>
                <tilted>0</tilted>
              </feature>
              <threshold>-25.74982452392578</threshold>
              <left_val>-0.2987223611682958</left_val>
              <right_val>0.2987223611682958</right_val>
            </_>
          </_>
          <_>
            <_>
              <feature>
                <rects>
                  <_>0 0 3 24 -1.0</_>
                  <_>3 0 3 24 1.0</_>
                </rects>
                <tilted>0</tilted>
              </feature>
              <threshold>21.01908302307129</threshold>
              <left_val>-0.3151760002912138</left_val>
              <right_val>0.3151760002912138</right_val>
            </_>
          </_>
          <_>
            <_>
              <feature>
                <rects>
                  <_>9 5 9 9 -1.0</_>
                  <_>9 14 9 9 1.0</_>
                </rects>
                <tilted>0</tilted>
              </feature>
              <threshold>10.7188720703125</threshold>
              <left_val>0.25657178752115695</left_val>
              <right_val>-0.25657178752115695</right_val>
            </_>
          </_>
        </trees>
        <stage_threshold>-2.096185671980192</stage_threshold>
        <parent>0</parent>
        <next>-1</next>
      </_>
      <_>
        <trees>
          <_>
            <_>
              <feature>
                <rects>
                  <_>3 4 18 3 -1.0</_>
                  <_>3 7 18 3 2.0</_>
                  <_>3 10 18 3 -1.0</_>
                </rects>
                <tilted>0</tilted>
              </feature>
              <threshold>-63.057533264160156</threshold>
              <left_val>0.7526911472021568</left_val>
              <right_val>-0.7526911472021568</right_val>
            </_>
          </_>
          <_>
            <_>
              <feature>
                <rects>
                  <_>0 0 8 5 -1.0</_>
                  <_>8 0 8 5 2.0</_>
                  <_>16 0 8 5 -1.0</_>
                </rects>
                <tilted>0</tilted>
              </feature>
              <threshold>54.75702667236328</threshold>
              <left_val>-0.7433613167176367</left_val>
              <right_val>0.7433613167176367</right_val>
            </_>
          </_>
          <_>
            <_>
              <feature>
                <rects>
                  <_>6 6 4 4 -1.0</_>
                  <_>10 6 4 4 2.0</_>
                  <_>14 6 4 4 -1.0</_>
                </rects>
                <tilted>0</tilted>
              </feature>
              <threshold>15.874460220336914</threshold>
              <left_val>-0.47991944660398667</left_val>
              <right_val>0.47991944660398667</right_val>
            </_>
          </_>
          <_>
            <_>
              <feature>
                <rects>
                  <_>0 20 8 4 -1.0</_>
                  <_>8 20 8 4 2.0</_>
                  <_>16 20 8 4 -1.0</_>
                </rects>
                <tilted>0</tilted>
              </feature>
              <threshold>50.686771392822266</threshold>
              <left_val>-0.49010511589041844</left_val>
              <right_val>0.49010511589041844</right_val>
            </_>
          </_>
          <_>
            <_>
              <feature>
                <rects>
                  <_>0 6 22 4 -1.0</_>
                  <_>0 10 22 4 2.0</_>
                  <_>0 14 22 4 -1.0</_>
                </rects>
                <tilted>0</tilted>
              </feature>
              <threshold>38.697845458984375</threshold>
              <left_val>-0.49389961901128265</left_val>
              <right_val>0.49389961901128265</right_val>
            </_>
          </_>
          <_>
            <_>
              <feature>
                <rects>
                  <_>18 0 3 24 -1.0</_>
                  <_>21 0 3 24 1.0</_>
                </rects>
                <tilted>0</tilted>
              </feature>
              <threshold>-30.691959381103516</threshold>
              <left_val>0.3966519199972082</left_val>
              <right_val>-0.3966519199972082</right_val>
            </_>
          </_>
          <_>
            <_>
              <feature>
                <rects>
                  <_>9 14 6 6 -1.0</_>
                  <_>11 16 2 2 2.0</_>
                </rects>
                <tilted>0</tilted>
              </feature>
              <threshold>-121.52406311035156</threshold>
              <left_val>-0.39919356899825714</left_val>
              <right_val>0.39919356899825714</right_val>
            </_>
          </_>
          <_>
            <_>
              <feature>
                <rects>
                  <_>16 1 4 5 1.0</_>
                  <_>20 1 4 5 -1.0</_>
                  <_>16 6 4 5 -1.0</_>
                  <_>20 6 4 5 1.0</_>
                </rects>
                <tilted>0</tilted>
              </feature>
              <threshold>14.359992027282715</threshold>
              <left_val>-0.3661528519845087</left_val>
              <right_val>0.3661528519845087</right_val>
            </_>
          </_>
          <_>
            <_>
              <feature>
                <rects>
                  <_>3 18 3 3 1.0</_>
                  <_>6 18 3 3 -1.0</_>
                  <_>3 21 3 3 -1.0</_>
                  <_>6 21 3 3 1.0</_>
                </rects>
                <tilted>0</tilted>
              </feature>
              <threshold>5.068413734436035</threshold>
              <left_val>-0.35687117244222283</left_val>
              <right_val>0.35687117244222283</right_val>
            </_>
          </_>
          <_>
            <_>
              <feature>
                <rects>
                  <_>3 0 7 3 -1.0</_>
                  <_>3 3 7 3 2.0</_>
                  <_>3 6 7 3 -1.0</_>
                </rects>
                <tilted>0</tilted>
              </feature>
              <threshold>8.444747924804688</threshold>
              <left_val>-0.37740951622694785</left_val>
              <right_val>0.37740951622694785</right_val>
            </_>
          </_>
          <_>
            <_>
              <feature>
                <rects>
                  <_>0 0 3 17 -1.0</_>
                  <_>3 0 3 17 1.0</_>
                </rects>
                <tilted>0</tilted>
              </feature>
              <threshold>23.8316707611084</threshold>
              <left_val>-0.33720830325108353</left_val>
              <right_val>0.33720830325108353</right_val>
            </_>
          </_>
          <_>
            <_>
              <feature>
                <rects>
                  <_>5 8 15 3 -1.0</_>
                  <_>5 11 15 3 1.0</_>
                </rects>
                <tilted>0</tilted>
              </feature>
              <threshold>13.249002456665039</threshold>
              <left_val>-0.3436713560145447</left_val>
              <right_val>0.3436713560145447</right_val>
            </_>
          </_>
          <_>
            <_>
              <feature>
                <rects>
                  <_>2 0 11 24 -1.0</_>
                  <_>13 0 11 24 1.0</_>
                </rects>
                <tilted>0</tilted>
              </feature>
              <threshold>-192.22457885742188</threshold>
              <left_val>0.3107750739023651</left_val>
              <right_val>-0.3107750739023651</right_val>
            </_>
          </_>
          <_>
            <_>
              <feature>
                <rects>
                  <_>5 5 4 6 1.0</_>
                  <_>9 5 4 6 -1.0</_>
                  <_>5 11 4 6 -1.0</_>
                  <_>9 11 4 6 1.0</_>
                </rects>
                <tilted>0</tilted>
              </feature>
              <threshold>-4.32073974609375</threshold>
              <left_val>0.3341889229499111</left_val>
              <right_val>-0.3341889229499111</right_val>
            </_>
          </_>
          <_>
            <_>
              <feature>
                <rects>
                  <_>11 18 5 3 1.0</_>
                  <_>16 18 5 3 -1.0</_>
                  <_>11 21 5 3 -1.0</_>
                  <_>16 21 5 3 1.0</_>
                </rects>
                <tilted>0</tilted>
              </feature>
              <threshold>-6.296768665313721</threshold>
              <left_val>0.2888085166097901</left_val>
              <right_val>-0.2888085166097901</right_val>
            </_>
          </_>
          <_>
            <_>
              <feature>
                <rects>
                  <_>0 4 12 20 -1.0</_>
                  <_>12 4 12 20 1.0</_>
                </rects>
                <tilted>0</tilted>
              </feature>
              <threshold>151.97653198242188</threshold>
              <left_val>-0.24361935066764476</left_val>
              <right_val>0.24361935066764476</right_val>
            </_>
          </_>
          <_>
            <_>
              <feature>
                <rects>
                  <_>15 12 5 4 -1.0</_>
                  <_>15 16 5 4 1.0</_>
                </rects>
                <tilted>0</tilted>
              </feature>
              <threshold>-0.9731548428535461</threshold>
              <left_val>0.31961879422758893</left_val>
              <right_val>-0.31961879422758893</right_val>
            </_>
          </_>
          <_>
            <_>
              <feature>
                <rects>
                  <_>7 6 3 9 -1.0</_>
                  <_>10 6 3 9 2.0</_>
                  <_>13 6 3 9 -1.0</_>
                </rects>
                <tilted>0</tilted>
              </feature>
              <threshold>18.162721633911133</threshold>
              <left_val>-0.23398257454998111</left_val>
              <right_val>0.23398257454998111</right_val>
            </_>
          </_>
          <_>
            <_>
              <feature>
                <rects>
                  <_>17 0 5 3 -1.0</_>
                  <_>17 3 5 3 2.0</_>
                  <_>17 6 5 3 -1.0</_>
                </rects>
                <tilted>0</tilted>
              </feature>
              <threshold>1.8669400215148926</threshold>
              <left_val>-0.2469105014979647</left_val>
              <right_val>0.2469105014979647</right_val>
            </_>
          </_>
          <_>
            <_>
              <feature>
                <rects>
                  <_>0 1 3 22 -1.0</_>
                  <_>3 1 3 22 1.0</_>
                </rects>
                <tilted>0</tilted>
              </feature>
              <threshold>48.665809631347656</threshold>
              <left_val>-0.23180999797460533</left_val>
              <right_val>0.23180999797460533</right_val>
            </_>
          </_>
          <_>
            <_>
              <feature>
                <rects>
                  <_>4 6 11 6 -1.0</_>
                  <_>4 12 11 6 1.0</_>
                </rects>
                <tilted>0</tilted>
              </feature>
              <threshold>-7.608185291290283</threshold>
              <left_val>-0.2680345236655493</left_val>
              <right_val>0.2680345236655493</right_val>
            </_>
          </_>
          <_>
            <_>
              <feature>
                <rects>
                  <_>9 14 6 6 -1.0</_>
                  <_>11 16 2 2 2.0</_>
                </rects>
                <tilted>0</tilted>
              </feature>
              <threshold>-74.77102661132812</threshold>
              <left_val>-0.23421213104475483</left_val>
              <right_val>0.23421213104475483</right_val>
            </_>
          </_>
          <_>
            <_>
              <feature>
                <rects>
                  <_>3 11 6 4 -1.0</_>
                  <_>3 15 6 4 1.0</_>
                </rects>
                <tilted>0</tilted>
              </feature>
              <threshold>-0.09451140463352203</threshold>
              <left_val>0.22038051512316895</left_val>
              <right_val>-0.22038051512316895</right_val>
            </_>
          </_>
          <_>
            <_>
              <feature>
                <rects>
                  <_>18 1 3 23 -1.0</_>
                  <_>21 1 3 23 1.0</_>
                </rects>
                <tilted>0</tilted>
              </feature>
              <threshold>-51.6005859375</threshold>
              <left_val>0.2788641557414573</left_val>
              <right_val>-0.2788641557414573</right_val>
            </_>
          </_>
          <_>
            <_>
              <feature>
                <rects>
                  <_>0 0 5 6 1.0</_>
                  <_>5 0 5 6 -1.0</_>
                  <_>0 6 5 6 -1.0</_>
                  <_>5 6 5 6 1.0</_>
                </rects>
                <tilted>0</tilted>
              </feature>
              <threshold>-8.556838989257812</threshold>
              <left_val>0.2601544122227709</left_val>
              <right_val>-0.2601544122227709</right_val>
            </_>
          </_>
          <_>
            <_>
              <feature>
                <rects>
                  <_>7 8 9 4 -1.0</_>
                  <_>7 12 9 4 1.0</_>
                </rects>
                <tilted>0</tilted>
              </feature>
              <threshold>11.722806930541992</threshold>
              <left_val>0.2368649169678651</left_val>
              <right_val>-0.2368649169678651</right_val>
            </_>
          </_>
          <_>
            <_>
              <feature>
                <rects>
                  <_>16 7 7 3 -1.0</_>
                  <_>16 10 7 3 1.0</_>
                </rects>
                <tilted>0</tilted>
              </feature>
              <threshold>8.44265079498291</threshold>
              <left_val>-0.21318460209104034</left_val>
              <right_val>0.21318460209104034</right_val>
            </_>
          </_>
          <_>
            <_>
              <feature>
                <rects>
                  <_>0 20 5 4 -1.0</_>
                  <_>5 20 5 4 1.0</_>
                </rects>
                <tilted>0</tilted>
              </feature>
              <threshold>-31.398466110229492</threshold>
              <left_val>0.24221066161359103</left_val>
              <right_val>-0.24221066161359103</right_val>
            </_>
          </_>
          <_>
            <_>
              <feature>
                <rects>
                  <_>11 7 9 5 -1.0</_>
                  <_>11 12 9 5 1.0</_>
                </rects>
                <tilted>0</tilted>
              </feature>
              <threshold>-1.375840663909912</threshold>
              <left_val>-0.26044075922045323</left_val>
              <right_val>0.26044075922045323</right_val>
            </_>
          </_>
          <_>
            <_>
              <feature>
                <rects>
                  <_>0 14 6 5 -1.0</_>
                  <_>0 19 6 5 1.0</_>
                </rects>
                <tilted>0</tilted>
              </feature>
              <threshold>-11.710914611816406</threshold>
              <left_val>0.2021829893407063</left_val>
              <right_val>-0.2021829893407063</right_val>
            </_>
          </_>
          <_>
            <_>
              <feature>
                <rects>
                  <_>14 4 4 3 1.0</_>
                  <_>18 4 4 3 -1.0</_>
                  <_>14 7 4 3 -1.0</_>
                  <_>18 7 4 3 1.0</_>
                </rects>
                <tilted>0</tilted>
              </feature>
              <threshold>3.3273026943206787</threshold>
              <left_val>-0.19796777912018443</left_val>
              <right_val>0.19796777912018443</right_val>
            </_>
          </_>
          <_>
            <_>
              <feature>
                <rects>
                  <_>2 18 11 6 -1.0</_>
                  <_>13 18 11 6 1.0</_>
                </rects>
                <tilted>0</tilted>
              </feature>
              <threshold>-71.4570083618164</threshold>
              <left_val>0.19351443747571392</left_val>
              <right_val>-0.19351443747571392</right_val>
            </_>
          </_>
          <_>
            <_>
              <feature>
                <rects>
                  <_>4 7 9 4 1.0</_>
                  <_>13 7 9 4 -1.0</_>
                  <_>4 11 9 4 -1.0</_>
                  <_>13 11 9 4 1.0</_>
                </rects>
                <tilted>0</tilted>
              </feature>
              <threshold>18.071569442749023</threshold>
              <left_val>0.27016716462959856</left_val>
              <right_val>-0.27016716462959856</right_val>
            </_>
          </_>
          <_>
            <_>
              <feature>
                <rects>
                  <_>4 20 10 4 -1.0</_>
                  <_>14 20 10 4 1.0</_>
                </rects>
                <tilted>0</tilted>
              </feature>
              <threshold>26.29348373413086</threshold>
              <left_val>-0.21428263910196077</left_val>
              <right_val>0.21428263910196077</right_val>
            </_>
          </_>
          <_>
            <_>
              <feature>
                <rects>
                  <_>7 10 9 3 -1.0</_>
                  <_>7 13 9 3 2.0</_>
                  <_>7 16 9 3 -1.0</_>
                </rects>
                <tilted>0</tilted>
              </feature>
              <threshold>12.806159973144531</threshold>
              <left_val>0.23418755992504786</left_val>
              <right_val>-0.23418755992504786</right_val>
            </_>
          </_>
          <_>
            <_>
              <feature>
                <rects>
                  <_>0 0 4 4 -1.0</_>
                  <_>0 4 4 4 1.0</_>
                </rects>
                <tilted>0</tilted>
              </feature>
              <threshold>1.843381643295288</threshold>
              <left_val>-0.19423164182046548</left_val>
              <right_val>0.19423164182046548</right_val>
            </_>
          </_>
          <_>
            <_>
              <feature>
                <rects>
                  <_>14 17 4 3 1.0</_>
                  <_>18 17 4 3 -1.0</_>
                  <_>14 20 4 3 -1.0</_>
                  <_>18 20 4 3 1.0</_>
                </rects>
                <tilted>0</tilted>
              </feature>
              <threshold>-8.23320198059082</threshold>
              <left_val>0.17818210777693405</left_val>
              <right_val>-0.17818210777693405</right_val>
            </_>
          </_>
          <_>
            <_>
              <feature>
                <rects>
                  <_>7 5 8 9 -1.0</_>
                  <_>7 14 8 9 1.0</_>
                </rects>
                <tilted>0</tilted>
              </feature>
              <threshold>7.886401176452637</threshold>
              <left_val>0.2180716697002565</left_val>
              <right_val>-0.2180716697002565</right_val>
            </_>
          </_>
        </trees>
        <stage_threshold>-2.201019008580289</stage_threshold>
        <parent>1</parent>
        <next>-1</next>
      </_>
      <_>
        <trees>
          <_>
            <_>
              <feature>
                <rects>
                  <_>3 2 18 4 -1.0</_>
                  <_>3 6 18 4 2.0</_>
                  <_>3 10 18 4 -1.0</_>
                </rects>
                <tilted>0</tilted>
              </feature>
              <threshold>-89.84532165527344</threshold>
              <left_val>0.5814178391177146</left_val>
              <right_val>-0.5814178391177146</right_val>
            </_>
          </_>
          <_>
            <_>
              <feature>
                <rects>
                  <_>0 0 8 24 -1.0</_>
                  <_>8 0 8 24 2.0</_>
                  <_>16 0 8 24 -1.0</_>
                </rects>
                <tilted>0</tilted>
              </feature>
              <threshold>175.61453247070312</threshold>
              <left_val>-0.5791887004656919</left_val>
              <right_val>0.5791887004656919</right_val>
            </_>
          </_>
          <_>
            <_>
              <feature>
                <rects>
                  <_>10 6 5 5 1.0</_>
                  <_>15 6 5 5 -1.0</_>
                  <_>10 11 5 5 -1.0</_>
                  <_>15 11 5 5 1.0</_>
                </rects>
                <tilted>0</tilted>
              </feature>
              <threshold>12.29233455657959</threshold>
              <left_val>-0.43464481148303136</left_val>
              <right_val>0.43464481148303136</right_val>
            </_>
          </_>
          <_>
            <_>
              <feature>
                <rects>
                  <_>5 4 4 3 -1.0</_>
                  <_>5 7 4 3 2.0</_>
                  <_>5 10 4 3 -1.0</_>
                </rects>
                <tilted>0</tilted>
              </feature>
              <threshold>-18.18865394592285</threshold>
              <left_val>0.3953849900946745</left_val>
              <right_val>-0.3953849900946745</right_val>
            </_>
          </_>
          <_>
            <_>
              <feature>
                <rects>
                  <_>18 0 3 7 -1.0</_>
                  <_>21 0 3 7 1.0</_>
                </rects>
                <tilted>0</tilted>
              </feature>
              <threshold>-10.156816482543945</threshold>
              <left_val>0.3869951016445647</left_val>
              <right_val>-0.3869951016445647</right_val>
            </_>
          </_>
          <_>
            <_>
              <feature>
                <rects>
                  <_>12 18 5 3 1.0</_>
                  <_>17 18 5 3 -1.0</_>
                  <_>12 21 5 3 -1.0</_>
                  <_>17 21 5 3 1.0</_>
                </rects>
                <tilted>0</tilted>
              </feature>
              <threshold>-7.3088579177856445</threshold>
              <left_val>0.32458402581768064</left_val>
              <right_val>-0.32458402581768064</right_val>
            </_>
          </_>
          <_>
            <_>
              <feature>
                <rects>
                  <_>0 0 4 4 -1.0</_>
                  <_>4 0 4 4 1.0</_>
                </rects>
                <tilted>0</tilted>
              </feature>
              <threshold>11.220147132873535</threshold>
              <left_val>-0.3260112384462089</left_val>
              <right_val>0.3260112384462089</right_val>
            </_>
          </_>
          <_>
            <_>
              <feature>
                <rects>
                  <_>8 14 6 6 -1.0</_>
                  <_>10 16 2 2 2.0</_>
                </rects>
                <tilted>0</tilted>
              </feature>
              <threshold>-97.22720336914062</threshold>
              <left_val>-0.31933900918258395</left_val>
              <right_val>0.31933900918258395</right_val>
            </_>
          </_>
          <_>
            <_>
              <feature>
                <rects>
                  <_>13 0 8 3 -1.0</_>
                  <_>13 3 8 3 2.0</_>
                  <_>13 6 8 3 -1.0</_>
                </rects>
                <tilted>0</tilted>
              </feature>
              <threshold>16.0340576171875</threshold>
              <left_val>-0.3127855180099393</left_val>
              <right_val>0.3127855180099393</right_val>
            </_>
          </_>
          <_>
            <_>
              <feature>
                <rects>
                  <_>2 17 4 3 1.0</_>
                  <_>6 17 4 3 -1.0</_>
                  <_>2 20 4 3 -1.0</_>
                  <_>6 20 4 3 1.0</_>
                </rects>
                <tilted>0</tilted>
              </feature>
              <threshold>6.727687358856201</threshold>
              <left_val>-0.31711819904347477</left_val>
              <right_val>0.31711819904347477</right_val>
            </_>
          </_>
          <_>
            <_>
              <feature>
                <rects>
                  <_>15 7 7 3 -1.0</_>
                  <_>15 10 7 3 2.0</_>
                  <_>15 13 7 3 -1.0</_>
                </rects>
                <tilted>0</tilted>
              </feature>
              <threshold>8.919166564941406</threshold>
              <left_val>-0.2885134448981553</left_val>
              <right_val>0.2885134448981553</right_val>
            </_>
          </_>
          <_>
            <_>
              <feature>
                <rects>
                  <_>7 5 3 10 -1.0</_>
                  <_>10 5 3 10 2.0</_>
                  <_>13 5 3 10 -1.0</_>
                </rects>
                <tilted>0</tilted>
              </feature>
              <threshold>22.68683624267578</threshold>
              <left_val>-0.2849992577155856</left_val>
              <right_val>0.2849992577155856</right_val>
            </_>
          </_>
          <_>
            <_>
              <feature>
                <rects>
                  <_>0 5 9 5 -1.0</_>
                  <_>0 10 9 5 2.0</_>
                  <_>0 15 9 5 -1.0</_>
                </rects>
                <tilted>0</tilted>
              </feature>
              <threshold>21.930307388305664</threshold>
              <left_val>-0.2782277878019862</left_val>
              <right_val>0.2782277878019862</right_val>
            </_>
          </_>
          <_>
            <_>
              <feature>
                <rects>
                  <_>0 12 3 12 -1.0</_>
                  <_>3 12 3 12 1.0</_>
                </rects>
                <tilted>0</tilted>
              </feature>
              <threshold>22.849178314208984</threshold>
              <left_val>-0.2780025199174315</left_val>
              <right_val>0.2780025199174315</right_val>
            </_>
          </_>
          <_>
            <_>
              <feature>
                <rects>
                  <_>1 1 23 3 -1.0</_>
                  <_>1 4 23 3 2.0</_>
                  <_>1 7 23 3 -1.0</_>
                </rects>
                <tilted>0</tilted>
              </feature>
              <threshold>9.697286605834961</threshold>
              <left_val>-0.3031810022786325</left_val>
              <right_val>0.3031810022786325</right_val>
            </_>
          </_>
          <_>
            <_>
              <feature>
                <rects>
                  <_>18 10 3 13 -1.0</_>
                  <_>21 10 3 13 1.0</_>
                </rects>
                <tilted>0</tilted>
              </feature>
              <threshold>-26.053085327148438</threshold>
              <left_val>0.2277295528869157</left_val>
              <right_val>-0.2277295528869157</right_val>
            </_>
          </_>
          <_>
            <_>
              <feature>
                <rects>
                  <_>8 3 8 3 1.0</_>
                  <_>16 3 8 3 -1.0</_>
                  <_>8 6 8 3 -1.0</_>
                  <_>16 6 8 3 1.0</_>
                </rects>
                <tilted>0</tilted>
              </feature>
              <threshold>-0.4483973979949951</threshold>
              <left_val>-0.2644817375536819</left_val>
              <right_val>0.2644817375536819</right_val>
            </_>
          </_>
          <_>
            <_>
              <feature>
                <rects>
                  <_>8 8 3 4 -1.0</_>
                  <_>11 8 3 4 2.0</_>
                  <_>14 8 3 4 -1.0</_>
                </rects>
                <tilted>0</tilted>
              </feature>
              <threshold>13.838263511657715</threshold>
              <left_val>-0.22667474299016485</left_val>
              <right_val>0.22667474299016485</right_val>
            </_>
          </_>
          <_>
            <_>
              <feature>
                <rects>
                  <_>3 3 6 13 -1.0</_>
                  <_>9 3 6 13 2.0</_>
                  <_>15 3 6 13 -1.0</_>
                </rects>
                <tilted>0</tilted>
              </feature>
              <threshold>80.08865356445312</threshold>
              <left_val>0.24447962176209842</left_val>
              <right_val>-0.24447962176209842</right_val>
            </_>
          </_>
          <_>
            <_>
              <feature>
                <rects>
                  <_>0 0 6 6 -1.0</_>
                  <_>2 2 2 2 2.0</_>
                </rects>
                <tilted>0</tilted>
              </feature>
              <threshold>-53.756080627441406</threshold>
              <left_val>-0.26689005866604154</left_val>
              <right_val>0.26689005866604154</right_val>
            </_>
          </_>
          <_>
            <_>
              <feature>
                <rects>
                  <_>8 6 9 7 -1.0</_>
                  <_>8 13 9 7 1.0</_>
                </rects>
                <tilted>0</tilted>
              </feature>
              <threshold>11.556306838989258</threshold>
              <left_val>0.248358264690011</left_val>
              <right_val>-0.248358264690011</right_val>
            </_>
          </_>
          <_>
            <_>
              <feature>
                <rects>
                  <_>0 0 12 24 -1.0</_>
                  <_>12 0 12 24 1.0</_>
                </rects>
                <tilted>0</tilted>
              </feature>
              <threshold>-226.99594116210938</threshold>
              <left_val>0.2706351273100959</left_val>
              <right_val>-0.2706351273100959</right_val>
            </_>
          </_>
          <_>
            <_>
              <feature>
                <rects>
                  <_>4 6 13 6 -1.0</_>
                  <_>4 12 13 6 1.0</_>
                </rects>
                <tilted>0</tilted>
              </feature>
              <threshold>-2.83363676071167</threshold>
              <left_val>-0.3130359141857484</left_val>
              <right_val>0.3130359141857484</right_val>
            </_>
          </_>
          <_>
            <_>
              <feature>
                <rects>
                  <_>0 0 11 24 -1.0</_>
                  <_>11 0 11 24 1.0</_>
                </rects>
                <tilted>0</tilted>
              </feature>
              <threshold>206.6955108642578</threshold>
              <left_val>-0.23137052966238275</left_val>
              <right_val>0.23137052966238275</right_val>
            </_>
          </_>
          <_>
            <_>
              <feature>
                <rects>
                  <_>0 0 10 5 1.0</_>
                  <_>10 0 10 5 -1.0</_>
                  <_>0 5 10 5 -1.0</_>
                  <_>10 5 10 5 1.0</_>
                </rects>
                <tilted>0</tilted>
              </feature>
              <threshold>14.244403839111328</threshold>
              <left_val>0.23883583407103734</left_val>
              <right_val>-0.23883583407103734</right_val>
            </_>
          </_>
          <_>
            <_>
              <feature>
                <rects>
                  <_>7 2 3 4 1.0</_>
                  <_>10 2 3 4 -1.0</_>
                  <_>7 6 3 4 -1.0</_>
                  <_>10 6 3 4 1.0</_>
                </rects>
                <tilted>0</tilted>
              </feature>
              <threshold>1.6604890823364258</threshold>
              <left_val>-0.19434359038507945</left_val>
              <right_val>0.19434359038507945</right_val>
            </_>
          </_>
          <_>
            <_>
              <feature>
                <rects>
                  <_>14 19 5 4 -1.0</_>
                  <_>19 19 5 4 1.0</_>
                </rects>
                <tilted>0</tilted>
              </feature>
              <threshold>-20.085588455200195</threshold>
              <left_val>0.21550536953103697</left_val>
              <right_val>-0.21550536953103697</right_val>
            </_>
          </_>
          <_>
            <_>
              <feature>
                <rects>
                  <_>14 12 5 4 -1.0</_>
                  <_>14 16 5 4 1.0</_>
                </rects>
                <tilted>0</tilted>
              </feature>
              <threshold>-0.4636099338531494</threshold>
              <left_val>0.2206733455745409</left_val>
              <right_val>-0.2206733455745409</right_val>
            </_>
          </_>
          <_>
            <_>
              <feature>
                <rects>
                  <_>16 20 4 4 -1.0</_>
                  <_>20 20 4 4 1.0</_>
                </rects>
                <tilted>0</tilted>
              </feature>
              <threshold>16.958303451538086</threshold>
              <left_val>-0.21749739072650753</left_val>
              <right_val>0.21749739072650753</right_val>
            </_>
          </_>
          <_>
            <_>
              <feature>
                <rects>
                  <_>6 0 4 6 -1.0</_>
                  <_>10 0 4 6 2.0</_>
                  <_>14 0 4 6 -1.0</_>
                </rects>
                <tilted>0</tilted>
              </feature>
              <threshold>-2.8558809757232666</threshold>
              <left_val>-0.2309095860235662</left_val>
              <right_val>0.2309095860235662</right_val>
            </_>
          </_>
          <_>
            <_>
              <feature>
                <rects>
                  <_>0 0 3 15 -1.0</_>
                  <_>3 0 3 15 1.0</_>
                </rects>
                <tilted>0</tilted>
              </feature>
              <threshold>24.793848037719727</threshold>
              <left_val>-0.19191472435171628</left_val>
              <right_val>0.19191472435171628</right_val>
            </_>
          </_>
          <_>
            <_>
              <feature>
                <rects>
                  <_>0 8 13 3 -1.0</_>
                  <_>0 11 13 3 2.0</_>
                  <_>0 14 13 3 -1.0</_>
                </rects>
                <tilted>0</tilted>
              </feature>
              <threshold>14.115846633911133</threshold>
              <left_val>-0.2055953700143753</left_val>
              <right_val>0.2055953700143753</right_val>
            </_>
          </_>
          <_>
            <_>
              <feature>
                <rects>
                  <_>0 15 3 7 -1.0</_>
                  <_>3 15 3 7 1.0</_>
                </rects>
                <tilted>0</tilted>
              </feature>
              <threshold>-18.14752197265625</threshold>
              <left_val>0.2039249944168682</left_val>
              <right_val>-0.2039249944168682</right_val>
            </_>
          </_>
          <_>
            <_>
              <feature>
                <rects>
                  <_>8 8 7 4 -1.0</_>
                  <_>8 12 7 4 1.0</_>
                </rects>
                <tilted>0</tilted>
              </feature>
              <threshold>15.789539337158203</threshold>
              <left_val>0.24133366865108086</left_val>
              <right_val>-0.24133366865108086</right_val>
            </_>
          </_>
          <_>
            <_>
              <feature>
                <rects>
                  <_>14 4 5 3 1.0</_>
                  <_>19 4 5 3 -1.0</_>
                  <_>14 7 5 3 -1.0</_>
                  <_>19 7 5 3 1.0</_>
                </rects>
                <tilted>0</tilted>
              </feature>
              <threshold>9.311792373657227</threshold>
              <left_val>-0.20170369611121267</left_val>
              <right_val>0.20170369611121267</right_val>
            </_>
          </_>
          <_>
            <_>
              <feature>
                <rects>
                  <_>2 18 11 6 -1.0</_>
                  <_>13 18 11 6 1.0</_>
                </rects>
                <tilted>0</tilted>
              </feature>
              <threshold>-69.83096313476562</threshold>
              <left_val>0.18380815129636513</left_val>
              <right_val>-0.18380815129636513</right_val>
            </_>
          </_>
          <_>
            <_>
              <feature>
                <rects>
                  <_>11 7 13 4 -1.0</_>
                  <_>11 11 13 4 1.0</_>
                </rects>
                <tilted>0</tilted>
              </feature>
              <threshold>3.6026742458343506</threshold>
              <left_val>-0.22126614717688792</left_val>
              <right_val>0.22126614717688792</right_val>
            </_>
          </_>
          <_>
            <_>
              <feature>
                <rects>
                  <_>2 0 11 24 -1.0</_>
                  <_>13 0 11 24 1.0</_>
                </rects>
                <tilted>0</tilted>
              </feature>
              <threshold>235.47216796875</threshold>
              <left_val>-0.20601078258861233</left_val>
              <right_val>0.20601078258861233</right_val>
            </_>
          </_>
          <_>
            <_>
              <feature>
                <rects>
                  <_>3 5 9 7 1.0</_>
                  <_>12 5 9 7 -1.0</_>
                  <_>3 12 9 7 -1.0</_>
                  <_>12 12 9 7 1.0</_>
                </rects>
                <tilted>0</tilted>
              </feature>
              <threshold>28.410823822021484</threshold>
              <left_val>0.23285750773078284</left_val>
              <right_val>-0.23285750773078284</right_val>
            </_>
          </_>
          <_>
            <_>
              <feature>
                <rects>
                  <_>0 20 4 4 -1.0</_>
                  <_>4 20 4 4 1.0</_>
                </rects>
                <tilted>0</tilted>
              </feature>
              <threshold>9.533060073852539</threshold>
              <left_val>-0.19124443092156784</left_val>
              <right_val>0.19124443092156784</right_val>
            </_>
          </_>
          <_>
            <_>
              <feature>
                <rects>
                  <_>3 2 18 4 -1.0</_>
                  <_>3 6 18 4 2.0</_>
                  <_>3 10 18 4 -1.0</_>
                </rects>
                <tilted>0</tilted>
              </feature>
              <threshold>-89.8986587524414</threshold>
              <left_val>-0.17918058244821677</left_val>
              <right_val>0.17918058244821677</right_val>
            </_>
          </_>
          <_>
            <_>
              <feature>
                <rects>
                  <_>0 0 4 6 1.0</_>
                  <_>4 0 4 6 -1.0</_>
                  <_>0 6 4 6 -1.0</_>
                  <_>4 6 4 6 1.0</_>
                </rects>
                <tilted>0</tilted>
              </feature>
              <threshold>-17.9119873046875</threshold>
              <left_val>0.19000175935126631</left_val>
              <right_val>-0.19000175935126631</right_val>
            </_>
          </_>
          <_>
            <_>
              <feature>
                <rects>
                  <_>7 7 6 7 1.0</_>
                  <_>13 7 6 7 -1.0</_>
                  <_>7 14 6 7 -1.0</_>
                  <_>13 14 6 7 1.0</_>
                </rects>
                <tilted>0</tilted>
              </feature>
              <threshold>-4.920966625213623</threshold>
              <left_val>-0.1903918079299559</left_val>
              <right_val>0.1903918079299559</right_val>
            </_>
          </_>
          <_>
            <_>
              <feature>
                <rects>
                  <_>6 7 3 8 -1.0</_>
                  <_>9 7 3 8 2.0</_>
                  <_>12 7 3 8 -1.0</_>
                </rects>
                <tilted>0</tilted>
              </feature>
              <threshold>-17.343591690063477</threshold>
              <left_val>0.18246930590280688</left_val>
              <right_val>-0.18246930590280688</right_val>
            </_>
          </_>
          <_>
            <_>
              <feature>
                <rects>
                  <_>6 3 14 7 -1.0</_>
                  <_>6 10 14 7 2.0</_>
                  <_>6 17 14 7 -1.0</_>
                </rects>
                <tilted>0</tilted>
              </feature>
              <threshold>-8.375782012939453</threshold>
              <left_val>-0.2118588332977286</left_val>
              <right_val>0.2118588332977286</right_val>
            </_>
          </_>
          <_>
            <_>
              <feature>
                <rects>
                  <_>0 18 4 3 1.0</_>
                  <_>4 18 4 3 -1.0</_>
                  <_>0 21 4 3 -1.0</_>
                  <_>4 21 4 3 1.0</_>
                </rects>
                <tilted>0</tilted>
              </feature>
              <threshold>-11.93419361114502</threshold>
              <left_val>0.1944375845816189</left_val>
              <right_val>-0.1944375845816189</right_val>
            </_>
          </_>
          <_>
            <_>
              <feature>
                <rects>
                  <_>8 2 8 5 -1.0</_>
                  <_>8 7 8 5 1.0</_>
                </rects>
                <tilted>0</tilted>
              </feature>
              <threshold>-8.857200622558594</threshold>
              <left_val>0.24088383450521528</left_val>
              <right_val>-0.24088383450521528</right_val>
            </_>
          </_>
          <_>
            <_>
              <feature>
                <rects>
                  <_>18 0 6 6 -1.0</_>
                  <_>20 2 2 2 2.0</_>
                </rects>
                <tilted>0</tilted>
              </feature>
              <threshold>-55.493247985839844</threshold>
              <left_val>-0.19548987716482488</left_val>
              <right_val>0.19548987716482488</right_val>
            </_>
          </_>
          <_>
            <_>
              <feature>
                <rects>
                  <_>13 12 4 4 -1.0</_>
                  <_>17 12 4 4 1.0</_>
                </rects>
                <tilted>0</tilted>
              </feature>
              <threshold>-2.91802978515625</threshold>
              <left_val>-0.20763860769189632</left_val>
              <right_val>0.20763860769189632</right_val>
            </_>
          </_>
          <_>
            <_>
              <feature>
                <rects>
                  <_>8 0 8 3 1.0</_>
                  <_>16 0 8 3 -1.0</_>
                  <_>8 3 8 3 -1.0</_>
                  <_>16 3 8 3 1.0</_>
                </rects>
                <tilted>0</tilted>
              </feature>
              <threshold>-4.184866905212402</threshold>
              <left_val>-0.161046002801862</left_val>
              <right_val>0.161046002801862</right_val>
            </_>
          </_>
          <_>
            <_>
              <feature>
                <rects>
                  <_>8 7 3 8 -1.0</_>
                  <_>11 7 3 8 2.0</_>
                  <_>14 7 3 8 -1.0</_>
                </rects>
                <tilted>0</tilted>
              </feature>
              <threshold>32.071319580078125</threshold>
              <left_val>-0.18696499135627187</left_val>
              <right_val>0.18696499135627187</right_val>
            </_>
          </_>
          <_>
            <_>
              <feature>
                <rects>
                  <_>2 0 8 3 -1.0</_>
                  <_>2 3 8 3 1.0</_>
                </rects>
                <tilted>0</tilted>
              </feature>
              <threshold>-2.2806642055511475</threshold>
              <left_val>-0.1983642465928873</left_val>
              <right_val>0.1983642465928873</right_val>
            </_>
          </_>
          <_>
            <_>
              <feature>
                <rects>
                  <_>1 18 7 3 1.0</_>
                  <_>8 18 7 3 -1.0</_>
                  <_>1 21 7 3 -1.0</_>
                  <_>8 21 7 3 1.0</_>
                </rects>
                <tilted>0</tilted>
              </feature>
              <threshold>7.739889144897461</threshold>
              <left_val>-0.16426849965296425</left_val>
              <right_val>0.16426849965296425</right_val>
            </_>
          </_>
          <_>
            <_>
              <feature>
                <rects>
                  <_>16 1 4 23 -1.0</_>
                  <_>20 1 4 23 1.0</_>
                </rects>
                <tilted>0</tilted>
              </feature>
              <threshold>-49.105934143066406</threshold>
              <left_val>0.16427922145663137</left_val>
              <right_val>-0.16427922145663137</right_val>
            </_>
          </_>
          <_>
            <_>
              <feature>
                <rects>
                  <_>3 7 16 3 -1.0</_>
                  <_>3 10 16 3 2.0</_>
                  <_>3 13 16 3 -1.0</_>
                </rects>
                <tilted>0</tilted>
              </feature>
              <threshold>10.659463882446289</threshold>
              <left_val>-0.1923500719594067</left_val>
              <right_val>0.1923500719594067</right_val>
            </_>
          </_>
          <_>
            <_>
              <feature>
                <rects>
                  <_>0 20 6 4 -1.0</_>
                  <_>6 20 6 4 1.0</_>
                </rects>
                <tilted>0</tilted>
              </feature>
              <threshold>-25.92902374267578</threshold>
              <left_val>0.17594907892962805</left_val>
              <right_val>-0.17594907892962805</right_val>
            </_>
          </_>
          <_>
            <_>
              <feature>
                <rects>
                  <_>3 2 6 12 -1.0</_>
                  <_>9 2 6 12 2.0</_>
                  <_>15 2 6 12 -1.0</_>
                </rects>
                <tilted>0</tilted>
              </feature>
              <threshold>13.53900146484375</threshold>
              <left_val>-0.22024760540815966</left_val>
              <right_val>0.22024760540815966</right_val>
            </_>
          </_>
          <_>
            <_>
              <feature>
                <rects>
                  <_>7 1 3 5 -1.0</_>
                  <_>10 1 3 5 2.0</_>
                  <_>13 1 3 5 -1.0</_>
                </rects>
                <tilted>0</tilted>
              </feature>
              <threshold>9.520672798156738</threshold>
              <left_val>0.1550713787158354</left_val>
              <right_val>-0.1550713787158354</right_val>
            </_>
          </_>
          <_>
            <_>
              <feature>
                <rects>
                  <_>14 20 5 4 -1.0</_>
                  <_>19 20 5 4 1.0</_>
                </rects>
                <tilted>0</tilted>
              </feature>
              <threshold>30.06231689453125</threshold>
              <left_val>-0.22376784496686938</left_val>
              <right_val>0.22376784496686938</right_val>
            </_>
          </_>
        </trees>
        <stage_threshold>-2.094570559575814</stage_threshold>
        <parent>2</parent>
        <next>-1</next>
      </_>
      <_>
        <trees>
          <_>
            <_>
              <feature>
                <rects>
                  <_>15 2 5 4 -1.0</_>
                  <_>15 6 5 4 2.0</_>
                  <_>15 10 5 4 -1.0</_>
                </rects>
                <tilted>0</tilted>
              </feature>
              <threshold>-30.9451904296875</threshold>
              <left_val>0.5160823023329764</left_val>
              <right_val>-0.5160823023329764</right_val>
            </_>
          </_>
          <_>
            <_>
              <feature>
                <rects>
                  <_>0 0 8 6 -1.0</_>
                  <_>8 0 8 6 2.0</_>
                  <_>16 0 8 6 -1.0</_>
                </rects>
                <tilted>0</tilted>
              </feature>
              <threshold>82.79485321044922</threshold>
              <left_val>-0.5339517340220404</left_val>
              <right_val>0.5339517340220404</right_val>
            </_>
          </_>
          <_>
            <_>
              <feature>
                <rects>
                  <_>4 2 4 4 -1.0</_>
                  <_>4 6 4 4 2.0</_>
                  <_>4 10 4 4 -1.0</_>
                </rects>
                <tilted>0</tilted>
              </feature>
              <threshold>-24.34650421142578</threshold>
              <left_val>0.43967923568080725</left_val>
              <right_val>-0.43967923568080725</right_val>
            </_>
          </_>
          <_>
            <_>
              <feature>
                <rects>
                  <_>0 20 8 4 -1.0</_>
                  <_>8 20 8 4 2.0</_>
                  <_>16 20 8 4 -1.0</_>
                </rects>
                <tilted>0</tilted>
              </feature>
              <threshold>40.62326431274414</threshold>
              <left_val>-0.4282561203811499</left_val>
              <right_val>0.4282561203811499</right_val>
            </_>
          </_>
          <_>
            <_>
              <feature>
                <rects>
                  <_>7 6 3 4 -1.0</_>
                  <_>10 6 3 4 1.0</_>
                </rects>
                <tilted>0</tilted>
              </feature>
              <threshold>5.236125946044922</threshold>
              <left_val>-0.3190621692360942</left_val>
              <right_val>0.3190621692360942</right_val>
            </_>
          </_>
          <_>
            <_>
              <feature>
                <rects>
                  <_>0 0 3 7 -1.0</_>
                  <_>3 0 3 7 1.0</_>
                </rects>
                <tilted>0</tilted>
              </feature>
              <threshold>11.604348182678223</threshold>
              <left_val>-0.2928538439964435</left_val>
              <right_val>0.2928538439964435</right_val>
            </_>
          </_>
          <_>
            <_>
              <feature>
                <rects>
                  <_>9 14 6 6 -1.0</_>
                  <_>11 16 2 2 2.0</_>
                </rects>
                <tilted>0</tilted>
              </feature>
              <threshold>-128.94378662109375</threshold>
              <left_val>-0.29683229421217905</left_val>
              <right_val>0.29683229421217905</right_val>
            </_>
          </_>
          <_>
            <_>
              <feature>
                <rects>
                  <_>18 0 3 6 -1.0</_>
                  <_>21 0 3 6 1.0</_>
                </rects>
                <tilted>0</tilted>
              </feature>
              <threshold>-18.314035415649414</threshold>
              <left_val>0.3015531726121865</left_val>
              <right_val>-0.3015531726121865</right_val>
            </_>
          </_>
          <_>
            <_>
              <feature>
                <rects>
                  <_>0 7 21 3 -1.0</_>
                  <_>0 10 21 3 2.0</_>
                  <_>0 13 21 3 -1.0</_>
                </rects>
                <tilted>0</tilted>
              </feature>
              <threshold>24.936016082763672</threshold>
              <left_val>-0.30419105916372796</left_val>
              <right_val>0.30419105916372796</right_val>
            </_>
          </_>
          <_>
            <_>
              <feature>
                <rects>
                  <_>2 18 5 3 1.0</_>
                  <_>7 18 5 3 -1.0</_>
                  <_>2 21 5 3 -1.0</_>
                  <_>7 21 5 3 1.0</_>
                </rects>
                <tilted>0</tilted>
              </feature>
              <threshold>10.01284408569336</threshold>
              <left_val>-0.26269584401195367</left_val>
              <right_val>0.26269584401195367</right_val>
            </_>
          </_>
          <_>
            <_>
              <feature>
                <rects>
                  <_>1 1 23 3 -1.0</_>
                  <_>1 4 23 3 2.0</_>
                  <_>1 7 23 3 -1.0</_>
                </rects>
                <tilted>0</tilted>
              </feature>
              <threshold>18.322864532470703</threshold>
              <left_val>-0.2606605161973077</left_val>
              <right_val>0.2606605161973077</right_val>
            </_>
          </_>
          <_>
            <_>
              <feature>
                <rects>
                  <_>0 0 12 24 -1.0</_>
                  <_>12 0 12 24 1.0</_>
                </rects>
                <tilted>0</tilted>
              </feature>
              <threshold>-240.80743408203125</threshold>
              <left_val>0.2797399945545013</left_val>
              <right_val>-0.2797399945545013</right_val>
            </_>
          </_>
          <_>
            <_>
              <feature>
                <rects>
                  <_>12 12 4 4 -1.0</_>
                  <_>16 12 4 4 1.0</_>
                </rects>
                <tilted>0</tilted>
              </feature>
              <threshold>-0.17938455939292908</threshold>
              <left_val>-0.257867541937366</left_val>
              <right_val>0.257867541937366</right_val>
            </_>
          </_>
          <_>
            <_>
              <feature>
                <rects>
                  <_>20 0 4 7 -1.0</_>
                  <_>20 7 4 7 2.0</_>
                  <_>20 14 4 7 -1.0</_>
                </rects>
                <tilted>0</tilted>
              </feature>
              <threshold>6.227169036865234</threshold>
              <left_val>-0.22457101213700315</left_val>
              <right_val>0.22457101213700315</right_val>
            </_>
          </_>
          <_>
            <_>
              <feature>
                <rects>
                  <_>11 5 3 6 -1.0</_>
                  <_>14 5 3 6 1.0</_>
                </rects>
                <tilted>0</tilted>
              </feature>
              <threshold>-6.44872522354126</threshold>
              <left_val>0.21443540191715335</left_val>
              <right_val>-0.21443540191715335</right_val>
            </_>
          </_>
          <_>
            <_>
              <feature>
                <rects>
                  <_>16 17 3 3 1.0</_>
                  <_>19 17 3 3 -1.0</_>
                  <_>16 20 3 3 -1.0</_>
                  <_>19 20 3 3 1.0</_>
                </rects>
                <tilted>0</tilted>
              </feature>
              <threshold>-4.0568037033081055</threshold>
              <left_val>0.2120923156741424</left_val>
              <right_val>-0.2120923156741424</right_val>
            </_>
          </_>
          <_>
            <_>
              <feature>
                <rects>
                  <_>11 6 4 6 -1.0</_>
                  <_>11 12 4 6 2.0</_>
                  <_>11 18 4 6 -1.0</_>
                </rects>
                <tilted>0</tilted>
              </feature>
              <threshold>-11.686264038085938</threshold>
              <left_val>-0.23396335414149189</left_val>
              <right_val>0.23396335414149189</right_val>
            </_>
          </_>
          <_>
            <_>
              <feature>
                <rects>
                  <_>0 1 3 21 -1.0</_>
                  <_>3 1 3 21 1.0</_>
                </rects>
                <tilted>0</tilted>
              </feature>
              <threshold>47.183128356933594</threshold>
              <left_val>-0.22048836151601559</left_val>
              <right_val>0.22048836151601559</right_val>
            </_>
          </_>
          <_>
            <_>
              <feature>
                <rects>
                  <_>5 12 3 4 -1.0</_>
                  <_>8 12 3 4 1.0</_>
                </rects>
                <tilted>0</tilted>
              </feature>
              <threshold>-0.6279864311218262</threshold>
              <left_val>0.22218602711644275</left_val>
              <right_val>-0.22218602711644275</right_val>
            </_>
          </_>
          <_>
            <_>
              <feature>
                <rects>
                  <_>0 0 15 3 -1.0</_>
                  <_>0 3 15 3 2.0</_>
                  <_>0 6 15 3 -1.0</_>
                </rects>
                <tilted>0</tilted>
              </feature>
              <threshold>19.288671493530273</threshold>
              <left_val>-0.20164393167374917</left_val>
              <right_val>0.20164393167374917</right_val>
            </_>
          </_>
          <_>
            <_>
              <feature>
                <rects>
                  <_>2 15 11 9 -1.0</_>
                  <_>13 15 11 9 1.0</_>
                </rects>
                <tilted>0</tilted>
              </feature>
              <threshold>89.34748840332031</threshold>
              <left_val>-0.19219312085636828</left_val>
              <right_val>0.19219312085636828</right_val>
            </_>
          </_>
          <_>
            <_>
              <feature>
                <rects>
                  <_>12 18 6 6 -1.0</_>
                  <_>14 20 2 2 2.0</_>
                </rects>
                <tilted>0</tilted>
              </feature>
              <threshold>-161.47012329101562</threshold>
              <left_val>-0.2449113142516932</left_val>
              <right_val>0.2449113142516932</right_val>
            </_>
          </_>
          <_>
            <_>
              <feature>
                <rects>
                  <_>2 20 10 4 -1.0</_>
                  <_>12 20 10 4 1.0</_>
                </rects>
                <tilted>0</tilted>
              </feature>
              <threshold>-33.35734176635742</threshold>
              <left_val>0.20971844295486006</left_val>
              <right_val>-0.20971844295486006</right_val>
            </_>
          </_>
          <_>
            <_>
              <feature>
                <rects>
                  <_>12 0 3 6 -1.0</_>
                  <_>15 0 3 6 2.0</_>
                  <_>18 0 3 6 -1.0</_>
                </rects>
                <tilted>0</tilted>
              </feature>
              <threshold>-2.048767566680908</threshold>
              <left_val>-0.2173106275638969</left_val>
              <right_val>0.2173106275638969</right_val>
            </_>
          </_>
          <_>
            <_>
              <feature>
                <rects>
                  <_>12 18 4 4 -1.0</_>
                  <_>16 18 4 4 2.0</_>
                  <_>20 18 4 4 -1.0</_>
                </rects>
                <tilted>0</tilted>
              </feature>
              <threshold>5.514675140380859</threshold>
              <left_val>-0.18796548781889882</left_val>
              <right_val>0.18796548781889882</right_val>
            </_>
          </_>
          <_>
            <_>
              <feature>
                <rects>
                  <_>1 11 9 4 -1.0</_>
                  <_>1 15 9 4 1.0</_>
                </rects>
                <tilted>0</tilted>
              </feature>
              <threshold>-3.9120912551879883</threshold>
              <left_val>0.17932619395021787</left_val>
              <right_val>-0.17932619395021787</right_val>
            </_>
          </_>
          <_>
            <_>
              <feature>
                <rects>
                  <_>18 18 3 6 -1.0</_>
                  <_>21 18 3 6 1.0</_>
                </rects>
                <tilted>0</tilted>
              </feature>
              <threshold>13.348922729492188</threshold>
              <left_val>-0.23189911891222123</left_val>
              <right_val>0.23189911891222123</right_val>
            </_>
          </_>
          <_>
            <_>
              <feature>
                <rects>
                  <_>2 7 7 7 -1.0</_>
                  <_>9 7 7 7 2.0</_>
                  <_>16 7 7 7 -1.0</_>
                </rects>
                <tilted>0</tilted>
              </feature>
              <threshold>3.393836736679077</threshold>
              <left_val>-0.21977826284761734</left_val>
              <right_val>0.21977826284761734</right_val>
            </_>
          </_>
          <_>
            <_>
              <feature>
                <rects>
                  <_>0 0 5 7 1.0</_>
                  <_>5 0 5 7 -1.0</_>
                  <_>0 7 5 7 -1.0</_>
                  <_>5 7 5 7 1.0</_>
                </rects>
                <tilted>0</tilted>
              </feature>
              <threshold>-12.125507354736328</threshold>
              <left_val>0.18239590824792848</left_val>
              <right_val>-0.18239590824792848</right_val>
            </_>
          </_>
          <_>
            <_>
              <feature>
                <rects>
                  <_>1 17 3 3 1.0</_>
                  <_>4 17 3 3 -1.0</_>
                  <_>1 20 3 3 -1.0</_>
                  <_>4 20 3 3 1.0</_>
                </rects>
                <tilted>0</tilted>
              </feature>
              <threshold>6.663865089416504</threshold>
              <left_val>-0.1904814120908436</left_val>
              <right_val>0.1904814120908436</right_val>
            </_>
          </_>
          <_>
            <_>
              <feature>
                <rects>
                  <_>5 6 10 6 -1.0</_>
                  <_>5 12 10 6 1.0</_>
                </rects>
                <tilted>0</tilted>
              </feature>
              <threshold>-7.017287731170654</threshold>
              <left_val>-0.2151501863823212</left_val>
              <right_val>0.2151501863823212</right_val>
            </_>
          </_>
          <_>
            <_>
              <feature>
                <rects>
                  <_>14 0 5 24 -1.0</_>
                  <_>19 0 5 24 1.0</_>
                </rects>
                <tilted>0</tilted>
              </feature>
              <threshold>52.93010711669922</threshold>
              <left_val>-0.1979168810903536</left_val>
              <right_val>0.1979168810903536</right_val>
            </_>
          </_>
          <_>
            <_>
              <feature>
                <rects>
                  <_>7 10 10 3 -1.0</_>
                  <_>7 13 10 3 1.0</_>
                </rects>
                <tilted>0</tilted>
              </feature>
              <threshold>3.8160488605499268</threshold>
              <left_val>0.21470878581295638</left_val>
              <right_val>-0.21470878581295638</right_val>
            </_>
          </_>
          <_>
            <_>
              <feature>
                <rects>
                  <_>4 2 4 4 -1.0</_>
                  <_>4 6 4 4 2.0</_>
                  <_>4 10 4 4 -1.0</_>
                </rects>
                <tilted>0</tilted>
              </feature>
              <threshold>-24.293968200683594</threshold>
              <left_val>-0.18864730483404155</left_val>
              <right_val>0.18864730483404155</right_val>
            </_>
          </_>
          <_>
            <_>
              <feature>
                <rects>
                  <_>10 6 3 9 -1.0</_>
                  <_>13 6 3 9 2.0</_>
                  <_>16 6 3 9 -1.0</_>
                </rects>
                <tilted>0</tilted>
              </feature>
              <threshold>-8.526952743530273</threshold>
              <left_val>0.1882246324896517</left_val>
              <right_val>-0.1882246324896517</right_val>
            </_>
          </_>
          <_>
            <_>
              <feature>
                <rects>
                  <_>4 6 9 3 1.0</_>
                  <_>13 6 9 3 -1.0</_>
                  <_>4 9 9 3 -1.0</_>
                  <_>13 9 9 3 1.0</_>
                </rects>
                <tilted>0</tilted>
              </feature>
              <threshold>-13.752965927124023</threshold>
              <left_val>0.16569938938954307</left_val>
              <right_val>-0.16569938938954307</right_val>
            </_>
          </_>
          <_>
            <_>
              <feature>
                <rects>
                  <_>5 9 14 3 -1.0</_>
                  <_>5 12 14 3 1.0</_>
                </rects>
                <tilted>0</tilted>
              </feature>
              <threshold>2.760951519012451</threshold>
              <left_val>-0.20766433660821426</left_val>
              <right_val>0.20766433660821426</right_val>
            </_>
          </_>
          <_>
            <_>
              <feature>
                <rects>
                  <_>18 0 3 23 -1.0</_>
                  <_>21 0 3 23 1.0</_>
                </rects>
                <tilted>0</tilted>
              </feature>
              <threshold>-38.877471923828125</threshold>
              <left_val>0.17681687824458658</left_val>
              <right_val>-0.17681687824458658</right_val>
            </_>
          </_>
          <_>
            <_>
              <feature>
                <rects>
                  <_>12 0 3 11 -1.0</_>
                  <_>15 0 3 11 1.0</_>
                </rects>
                <tilted>0</tilted>
              </feature>
              <threshold>-4.293931007385254</threshold>
              <left_val>0.17750320760377944</left_val>
              <right_val>-0.17750320760377944</right_val>
            </_>
          </_>
          <_>
            <_>
              <feature>
                <rects>
                  <_>0 0 12 24 -1.0</_>
                  <_>12 0 12 24 1.0</_>
                </rects>
                <tilted>0</tilted>
              </feature>
              <threshold>136.9908905029297</threshold>
              <left_val>-0.1770547257990364</left_val>
              <right_val>0.1770547257990364</right_val>
            </_>
          </_>
          <_>
            <_>
              <feature>
                <rects>
                  <_>2 0 8 3 -1.0</_>
                  <_>2 3 8 3 2.0</_>
                  <_>2 6 8 3 -1.0</_>
                </rects>
                <tilted>0</tilted>
              </feature>
              <threshold>5.821617126464844</threshold>
              <left_val>-0.18567317645049733</left_val>
              <right_val>0.18567317645049733</right_val>
            </_>
          </_>
          <_>
            <_>
              <feature>
                <rects>
                  <_>18 0 6 6 -1.0</_>
                  <_>20 2 2 2 2.0</_>
                </rects>
                <tilted>0</tilted>
              </feature>
              <threshold>-46.950260162353516</threshold>
              <left_val>-0.16682870081980483</left_val>
              <right_val>0.16682870081980483</right_val>
            </_>
          </_>
          <_>
            <_>
              <feature>
                <rects>
                  <_>6 10 4 7 -1.0</_>
                  <_>6 17 4 7 1.0</_>
                </rects>
                <tilted>0</tilted>
              </feature>
              <threshold>2.331751823425293</threshold>
              <left_val>0.1901886031676278</left_val>
              <right_val>-0.1901886031676278</right_val>
            </_>
          </_>
          <_>
            <_>
              <feature>
                <rects>
                  <_>5 7 3 7 -1.0</_>
                  <_>8 7 3 7 2.0</_>
                  <_>11 7 3 7 -1.0</_>
                </rects>
                <tilted>0</tilted>
              </feature>
              <threshold>-10.981884002685547</threshold>
              <left_val>0.1737055197291524</left_val>
              <right_val>-0.1737055197291524</right_val>
            </_>
          </_>
          <_>
            <_>
              <feature>
                <rects>
                  <_>10 14 4 5 -1.0</_>
                  <_>10 19 4 5 1.0</_>
                </rects>
                <tilted>0</tilted>
              </feature>
              <threshold>-0.9021203517913818</threshold>
              <left_val>-0.17928294549412122</left_val>
              <right_val>0.17928294549412122</right_val>
            </_>
          </_>
          <_>
            <_>
              <feature>
                <rects>
                  <_>0 19 5 4 -1.0</_>
                  <_>5 19 5 4 2.0</_>
                  <_>10 19 5 4 -1.0</_>
                </rects>
                <tilted>0</tilted>
              </feature>
              <threshold>9.51476001739502</threshold>
              <left_val>-0.15028377557348763</left_val>
              <right_val>0.15028377557348763</right_val>
            </_>
          </_>
          <_>
            <_>
              <feature>
                <rects>
                  <_>17 0 7 3 -1.0</_>
                  <_>17 3 7 3 2.0</_>
                  <_>17 6 7 3 -1.0</_>
                </rects>
                <tilted>0</tilted>
              </feature>
              <threshold>4.219071388244629</threshold>
              <left_val>-0.15837602927560834</left_val>
              <right_val>0.15837602927560834</right_val>
            </_>
          </_>
          <_>
            <_>
              <feature>
                <rects>
                  <_>0 6 3 17 -1.0</_>
                  <_>3 6 3 17 1.0</_>
                </rects>
                <tilted>0</tilted>
              </feature>
              <threshold>-28.591217041015625</threshold>
              <left_val>0.17921151748927805</left_val>
              <right_val>-0.17921151748927805</right_val>
            </_>
          </_>
          <_>
            <_>
              <feature>
                <rects>
                  <_>6 2 3 4 -1.0</_>
                  <_>9 2 3 4 2.0</_>
                  <_>12 2 3 4 -1.0</_>
                </rects>
                <tilted>0</tilted>
              </feature>
              <threshold>-4.504244804382324</threshold>
              <left_val>-0.2089498126149186</left_val>
              <right_val>0.2089498126149186</right_val>
            </_>
          </_>
          <_>
            <_>
              <feature>
                <rects>
                  <_>0 10 3 7 1.0</_>
                  <_>3 10 3 7 -1.0</_>
                  <_>0 17 3 7 -1.0</_>
                  <_>3 17 3 7 1.0</_>
                </rects>
                <tilted>0</tilted>
              </feature>
              <threshold>-26.790285110473633</threshold>
              <left_val>0.16716365682613007</left_val>
              <right_val>-0.16716365682613007</right_val>
            </_>
          </_>
          <_>
            <_>
              <feature>
                <rects>
                  <_>6 2 3 4 -1.0</_>
                  <_>9 2 3 4 2.0</_>
                  <_>12 2 3 4 -1.0</_>
                </rects>
                <tilted>0</tilted>
              </feature>
              <threshold>8.631865501403809</threshold>
              <left_val>0.20782109303044644</left_val>
              <right_val>-0.20782109303044644</right_val>
            </_>
          </_>
          <_>
            <_>
              <feature>
                <rects>
                  <_>15 2 5 4 -1.0</_>
                  <_>15 6 5 4 2.0</_>
                  <_>15 10 5 4 -1.0</_>
                </rects>
                <tilted>0</tilted>
              </feature>
              <threshold>-30.97258186340332</threshold>
              <left_val>-0.14545411073766004</left_val>
              <right_val>0.14545411073766004</right_val>
            </_>
          </_>
          <_>
            <_>
              <feature>
                <rects>
                  <_>16 7 5 3 -1.0</_>
                  <_>16 10 5 3 2.0</_>
                  <_>16 13 5 3 -1.0</_>
                </rects>
                <tilted>0</tilted>
              </feature>
              <threshold>8.952210426330566</threshold>
              <left_val>-0.17125453454991796</left_val>
              <right_val>0.17125453454991796</right_val>
            </_>
          </_>
          <_>
            <_>
              <feature>
                <rects>
                  <_>2 1 11 23 -1.0</_>
                  <_>13 1 11 23 1.0</_>
                </rects>
                <tilted>0</tilted>
              </feature>
              <threshold>256.541748046875</threshold>
              <left_val>-0.16824233015685988</left_val>
              <right_val>0.16824233015685988</right_val>
            </_>
          </_>
          <_>
            <_>
              <feature>
                <rects>
                  <_>12 7 9 5 -1.0</_>
                  <_>12 12 9 5 1.0</_>
                </rects>
                <tilted>0</tilted>
              </feature>
              <threshold>1.305687665939331</threshold>
              <left_val>-0.2052597231178844</left_val>
              <right_val>0.2052597231178844</right_val>
            </_>
          </_>
          <_>
            <_>
              <feature>
                <rects>
                  <_>18 0 3 5 -1.0</_>
                  <_>21 0 3 5 1.0</_>
                </rects>
                <tilted>0</tilted>
              </feature>
              <threshold>-4.719333648681641</threshold>
              <left_val>0.15088418673264462</left_val>
              <right_val>-0.15088418673264462</right_val>
            </_>
          </_>
          <_>
            <_>
              <feature>
                <rects>
                  <_>0 0 12 24 -1.0</_>
                  <_>12 0 12 24 1.0</_>
                </rects>
                <tilted>0</tilted>
              </feature>
              <threshold>-328.082763671875</threshold>
              <left_val>0.16664871379829427</left_val>
              <right_val>-0.16664871379829427</right_val>
            </_>
          </_>
          <_>
            <_>
              <feature>
                <rects>
                  <_>5 10 12 7 -1.0</_>
                  <_>5 17 12 7 1.0</_>
                </rects>
                <tilted>0</tilted>
              </feature>
              <threshold>6.361563682556152</threshold>
              <left_val>0.19818840798394394</left_val>
              <right_val>-0.19818840798394394</right_val>
            </_>
          </_>
          <_>
            <_>
              <feature>
                <rects>
                  <_>18 0 3 4 -1.0</_>
                  <_>21 0 3 4 1.0</_>
                </rects>
                <tilted>0</tilted>
              </feature>
              <threshold>10.69776439666748</threshold>
              <left_val>-0.15313150001339995</left_val>
              <right_val>0.15313150001339995</right_val>
            </_>
          </_>
          <_>
            <_>
              <feature>
                <rects>
                  <_>3 6 9 7 1.0</_>
                  <_>12 6 9 7 -1.0</_>
                  <_>3 13 9 7 -1.0</_>
                  <_>12 13 9 7 1.0</_>
                </rects>
                <tilted>0</tilted>
              </feature>
              <threshold>27.562267303466797</threshold>
              <left_val>0.18982192511566678</left_val>
              <right_val>-0.18982192511566678</right_val>
            </_>
          </_>
          <_>
            <_>
              <feature>
                <rects>
                  <_>18 18 3 3 1.0</_>
                  <_>21 18 3 3 -1.0</_>
                  <_>18 21 3 3 -1.0</_>
                  <_>21 21 3 3 1.0</_>
                </rects>
                <tilted>0</tilted>
              </feature>
              <threshold>6.489646911621094</threshold>
              <left_val>-0.15163896383976985</left_val>
              <right_val>0.15163896383976985</right_val>
            </_>
          </_>
          <_>
            <_>
              <feature>
                <rects>
                  <_>11 0 7 7 -1.0</_>
                  <_>11 7 7 7 2.0</_>
                  <_>11 14 7 7 -1.0</_>
                </rects>
                <tilted>0</tilted>
              </feature>
              <threshold>10.9625825881958</threshold>
              <left_val>0.16538930058426174</left_val>
              <right_val>-0.16538930058426174</right_val>
            </_>
          </_>
          <_>
            <_>
              <feature>
                <rects>
                  <_>12 18 6 6 -1.0</_>
                  <_>14 20 2 2 2.0</_>
                </rects>
                <tilted>0</tilted>
              </feature>
              <threshold>-86.32888793945312</threshold>
              <left_val>-0.1502988162558609</left_val>
              <right_val>0.1502988162558609</right_val>
            </_>
          </_>
          <_>
            <_>
              <feature>
                <rects>
                  <_>14 18 5 3 1.0</_>
                  <_>19 18 5 3 -1.0</_>
                  <_>14 21 5 3 -1.0</_>
                  <_>19 21 5 3 1.0</_>
                </rects>
                <tilted>0</tilted>
              </feature>
              <threshold>-7.1964006423950195</threshold>
              <left_val>0.1539829020045898</left_val>
              <right_val>-0.1539829020045898</right_val>
            </_>
          </_>
          <_>
            <_>
              <feature>
                <rects>
                  <_>5 6 4 4 -1.0</_>
                  <_>9 6 4 4 1.0</_>
                </rects>
                <tilted>0</tilted>
              </feature>
              <threshold>5.24892520904541</threshold>
              <left_val>-0.15223658823087496</left_val>
              <right_val>0.15223658823087496</right_val>
            </_>
          </_>
          <_>
            <_>
              <feature>
                <rects>
                  <_>0 18 3 4 -1.0</_>
                  <_>3 18 3 4 2.0</_>
                  <_>6 18 3 4 -1.0</_>
                </rects>
                <tilted>0</tilted>
              </feature>
              <threshold>3.229949474334717</threshold>
              <left_val>-0.15036867023130396</left_val>
              <right_val>0.15036867023130396</right_val>
            </_>
          </_>
          <_>
            <_>
              <feature>
                <rects>
                  <_>11 11 4 3 -1.0</_>
                  <_>11 14 4 3 2.0</_>
                  <_>11 17 4 3 -1.0</_>
                </rects>
                <tilted>0</tilted>
              </feature>
              <threshold>-6.0211076736450195</threshold>
              <left_val>0.14100787024153996</left_val>
              <right_val>-0.14100787024153996</right_val>
            </_>
          </_>
          <_>
            <_>
              <feature>
                <rects>
                  <_>4 1 3 5 -1.0</_>
                  <_>7 1 3 5 2.0</_>
                  <_>10 1 3 5 -1.0</_>
                </rects>
                <tilted>0</tilted>
              </feature>
              <threshold>-5.305959701538086</threshold>
              <left_val>-0.14764303045437235</left_val>
              <right_val>0.14764303045437235</right_val>
            </_>
          </_>
          <_>
            <_>
              <feature>
                <rects>
                  <_>16 18 3 3 1.0</_>
                  <_>19 18 3 3 -1.0</_>
                  <_>16 21 3 3 -1.0</_>
                  <_>19 21 3 3 1.0</_>
                </rects>
                <tilted>0</tilted>
              </feature>
              <threshold>7.358426094055176</threshold>
              <left_val>-0.18100571842604615</left_val>
              <right_val>0.18100571842604615</right_val>
            </_>
          </_>
          <_>
            <_>
              <feature>
                <rects>
                  <_>1 5 11 6 1.0</_>
                  <_>12 5 11 6 -1.0</_>
                  <_>1 11 11 6 -1.0</_>
                  <_>12 11 11 6 1.0</_>
                </rects>
                <tilted>0</tilted>
              </feature>
              <threshold>-26.464933395385742</threshold>
              <left_val>-0.16839842549087042</left_val>
              <right_val>0.16839842549087042</right_val>
            </_>
          </_>
          <_>
            <_>
              <feature>
                <rects>
                  <_>1 18 3 3 1.0</_>
                  <_>4 18 3 3 -1.0</_>
                  <_>1 21 3 3 -1.0</_>
                  <_>4 21 3 3 1.0</_>
                </rects>
                <tilted>0</tilted>
              </feature>
              <threshold>-6.89157247543335</threshold>
              <left_val>0.15032631836508087</left_val>
              <right_val>-0.15032631836508087</right_val>
            </_>
          </_>
          <_>
            <_>
              <feature>
                <rects>
                  <_>0 6 14 6 -1.0</_>
                  <_>0 12 14 6 2.0</_>
                  <_>0 18 14 6 -1.0</_>
                </rects>
                <tilted>0</tilted>
              </feature>
              <threshold>8.418858528137207</threshold>
              <left_val>-0.18478678188233022</left_val>
              <right_val>0.18478678188233022</right_val>
            </_>
          </_>
          <_>
            <_>
              <feature>
                <rects>
                  <_>0 15 3 8 -1.0</_>
                  <_>3 15 3 8 1.0</_>
                </rects>
                <tilted>0</tilted>
              </feature>
              <threshold>-17.747478485107422</threshold>
              <left_val>0.1488044270764714</left_val>
              <right_val>-0.1488044270764714</right_val>
            </_>
          </_>
          <_>
            <_>
              <feature>
                <rects>
                  <_>16 13 7 3 -1.0</_>
                  <_>16 16 7 3 2.0</_>
                  <_>16 19 7 3 -1.0</_>
                </rects>
                <tilted>0</tilted>
              </feature>
              <threshold>9.525175094604492</threshold>
              <left_val>0.17910246767236723</left_val>
              <right_val>-0.17910246767236723</right_val>
            </_>
          </_>
          <_>
            <_>
              <feature>
                <rects>
                  <_>6 20 9 4 -1.0</_>
                  <_>15 20 9 4 1.0</_>
                </rects>
                <tilted>0</tilted>
              </feature>
              <threshold>-42.06538391113281</threshold>
              <left_val>0.15550674215524837</left_val>
              <right_val>-0.15550674215524837</right_val>
            </_>
          </_>
          <_>
            <_>
              <feature>
                <rects>
                  <_>4 11 9 4 1.0</_>
                  <_>13 11 9 4 -1.0</_>
                  <_>4 15 9 4 -1.0</_>
                  <_>13 15 9 4 1.0</_>
                </rects>
                <tilted>0</tilted>
              </feature>
              <threshold>-12.623271942138672</threshold>
              <left_val>-0.16495081557059066</left_val>
              <right_val>0.16495081557059066</right_val>
            </_>
          </_>
          <_>
            <_>
              <feature>
                <rects>
                  <_>6 6 3 6 -1.0</_>
                  <_>9 6 3 6 2.0</_>
                  <_>12 6 3 6 -1.0</_>
                </rects>
                <tilted>0</tilted>
              </feature>
              <threshold>-14.203094482421875</threshold>
              <left_val>0.16163776588630913</left_val>
              <right_val>-0.16163776588630913</right_val>
            </_>
          </_>
          <_>
            <_>
              <feature>
                <rects>
                  <_>7 11 4 5 -1.0</_>
                  <_>7 16 4 5 1.0</_>
                </rects>
                <tilted>0</tilted>
              </feature>
              <threshold>-16.14932632446289</threshold>
              <left_val>-0.16682490122695204</left_val>
              <right_val>0.16682490122695204</right_val>
            </_>
          </_>
          <_>
            <_>
              <feature>
                <rects>
                  <_>20 0 4 6 -1.0</_>
                  <_>20 6 4 6 1.0</_>
                </rects>
                <tilted>0</tilted>
              </feature>
              <threshold>24.13412094116211</threshold>
              <left_val>-0.14380894401236852</left_val>
              <right_val>0.14380894401236852</right_val>
            </_>
          </_>
          <_>
            <_>
              <feature>
                <rects>
                  <_>8 7 5 7 -1.0</_>
                  <_>8 14 5 7 1.0</_>
                </rects>
                <tilted>0</tilted>
              </feature>
              <threshold>4.408489227294922</threshold>
              <left_val>0.17053135385183035</left_val>
              <right_val>-0.17053135385183035</right_val>
            </_>
          </_>
          <_>
            <_>
              <feature>
                <rects>
                  <_>6 6 5 3 1.0</_>
                  <_>11 6 5 3 -1.0</_>
                  <_>6 9 5 3 -1.0</_>
                  <_>11 9 5 3 1.0</_>
                </rects>
                <tilted>0</tilted>
              </feature>
              <threshold>-10.556110382080078</threshold>
              <left_val>0.1402452420079305</left_val>
              <right_val>-0.1402452420079305</right_val>
            </_>
          </_>
          <_>
            <_>
              <feature>
                <rects>
                  <_>9 2 6 5 -1.0</_>
                  <_>9 7 6 5 2.0</_>
                  <_>9 12 6 5 -1.0</_>
                </rects>
                <tilted>0</tilted>
              </feature>
              <threshold>-2.376577615737915</threshold>
              <left_val>0.16057968169702802</left_val>
              <right_val>-0.16057968169702802</right_val>
            </_>
          </_>
          <_>
            <_>
              <feature>
                <rects>
                  <_>0 5 3 3 1.0</_>
                  <_>3 5 3 3 -1.0</_>
                  <_>0 8 3 3 -1.0</_>
                  <_>3 8 3 3 1.0</_>
                </rects>
                <tilted>0</tilted>
              </feature>
              <threshold>-5.409804344177246</threshold>
              <left_val>0.14439090545499395</left_val>
              <right_val>-0.14439090545499395</right_val>
            </_>
          </_>
          <_>
            <_>
              <feature>
                <rects>
                  <_>9 2 3 4 -1.0</_>
                  <_>12 2 3 4 2.0</_>
                  <_>15 2 3 4 -1.0</_>
                </rects>
                <tilted>0</tilted>
              </feature>
              <threshold>9.925769805908203</threshold>
              <left_val>0.15105220153433158</left_val>
              <right_val>-0.15105220153433158</right_val>
            </_>
          </_>
          <_>
            <_>
              <feature>
                <rects>
                  <_>3 0 19 6 -1.0</_>
                  <_>3 6 19 6 1.0</_>
                </rects>
                <tilted>0</tilted>
              </feature>
              <threshold>61.08094787597656</threshold>
              <left_val>-0.17724529665357155</left_val>
