<?xml version="1.0"?>
<opencv_storage>
  <haarcascade_frontalface_default type_id="opencv-haar-classifier">
    <size>24 24</size>
    <stages>
      <_>
        <trees>
          <_>
            <_>
              <feature>
                <rects>
                  <_>3 4 18 3 -1.0</_>
                  <_>3 7 18 3 2.0</_>
                  <_>3 10 18 3 -1.0</_>
                </rects>
                <tilted>0</tilted>
              </feature>
              <threshold>-41.671966552734375</threshold>
              <left_val>1.420964692814442</left_val>
              <right_val>-1.420964692814442</right_val>
            </_>
          </_>
          <_>
            <_>
              <feature>
                <rects>
                  <_>0 0 8 10 -1.0</_>
                  <_>8 0 8 10 2.0</_>
                  <_>16 0 8 10 -1.0</_>
                </rects>
                <tilted>0</tilted>
              </feature>
              <threshold>86.51954650878906</threshold>
              <left_val>-1.0345933595784067</left_val>
              <right_val>1.0345933595784067</right_val>
            </_>
          </_>
          <_>
            <_>
              <feature>
                <rects>
                  <_>6 6 4 4 -1.0</_>
                  <_>10 6 4 4 2.0</_>
                  <_>14 6 4 4 -1.0</_>
                </rects>
                <tilted>0</tilted>
              </feature>
              <threshold>12.222057342529297</threshold>
              <left_val>-0.6901959966765254</left_val>
              <right_val>0.6901959966765254</right_val>
            </_>
          </_>
          <_>
            <_>
              <feature>
                <rects>
                  <_>1 7 22 4 -1.0</_>
                  <_>1 11 22 4 2.0</_>
                  <_>1 15 22 4 -1.0</_>
                </rects>
                <tilted>0</tilted>
              </feature>
              <threshold>31.59841537475586</threshold>
              <left_val>-0.6111095747342292</left_val>
              <right_val>0.6111095747342292</right_val>
            </_>
          </_>
        </trees>
        <stage_threshold>-2.5346444743351446</stage_threshold>
        <parent>-1</parent>
        <next>-1</next>
      </_>
      <_>
        <trees>
          <_>
            <_>
              <feature>
                <rects>
                  <_>3 4 17 3 -1.0</_>
                  <_>3 7 17 3 2.0</_>
                  <_>3 10 17 3 -1.0</_>
                </rects>
                <tilted>0</tilted>
              </feature>
              <threshold>-47.888816833496094</threshold>
              <left_val>1.089912898674765</left_val>
              <right_val>-1.089912898674765</right_val>
            </_>
          </_>
          <_>
            <_>
              <feature>
                <rects>
                  <_>0 0 8 7 -1.0</_>
                  <_>8 0 8 7 2.0</_>
                  <_>16 0 8 7 -1.0</_>
                </rects>
                <tilted>0</tilted>
              </feature>
              <threshold>75.7965316772461</threshold>
              <left_val>-0.9177327583910379</left_val>
              <right_val>0.9177327583910379</right_val>
            </_>
          </_>
          <_>
            <_>
              <feature>
                <rects>
                  <_>6 6 4 4 -1.0</_>
                  <_>10 6 4 4 2.0</_>
                  <_>14 6 4 4 -1.0</_>
                </rects>
                <tilted>0</tilted>
              </feature>
              <threshold>14.596275329589844</threshold>
              <left_val>-0.6528749682109172</left_val>
              <right_val>0.6528749682109172</right_val>
            </_>
          </_>
          <_>
            <_>
              <feature>
                <rects>
                  <_>2 18 6 3 1.0</_>
                  <_>8 18 6 3 -1.0</_>
                  <_>2 21 6 3 -1.0</_>
                  <_>8 21 6 3 1.0</_>
                </rects>
                <tilted>0</tilted>
              </feature>
              <threshold>6.664349555969238</threshold>
              <left_val>-0.6237145389025159</left_val>
              <right_val>0.6237145389025159</right_val>
            </_>
          </_>
          <_>
            <_>
              <feature>
                <rects>
                  <_>0 6 24 4 -1.0</_>
                  <_>0 10 24 4 2.0</_>
                  <_>0 14 24 4 -1.0</_>
                </rects>
                <tilted>0</tilted>
              </feature>
              <threshold>30.26525115966797</threshold>
              <left_val>-0.5825700345554174</left_val>
              <right_val>0.5825700345554174</right_val>
            </_>
          </_>
          <_>
            <_>
              <feature>
                <rects>
                  <_>18 0 3 23 -1.0</_>
                  <_>21 0 3 23 1.0</_>
                </rects>
                <tilted>0</tilted>
              </feature>
              <threshold>-24.087684631347656</threshold>
              <left_val>0.562270096506771</left_val>
              <right_val>-0.562270096506771</right_val>
            </_>
          </_>
        </trees>
        <stage_threshold>-2.593609778459349</stage_threshold>
        <parent>0</parent>
        <next>-1</next>
      </_>
      <_>
        <trees>
          <_>
            <_>
              <feature>
                <rects>
                  <_>3 0 18 3 -1.0</_>
                  <_>3 3 18 3 2.0</_>
                  <_>3 6 18 3 -1.0</_>
                </rects>
                <tilted>0</tilted>
              </feature>
              <threshold>32.20350646972656</threshold>
              <left_val>-0.9361031222601398</left_val>
              <right_val>0.9361031222601398</right_val>
            </_>
          </_>
          <_>
            <_>
              <feature>
                <rects>
                  <_>0 20 8 4 -1.0</_>
                  <_>8 20 8 4 2.0</_>
                  <_>16 20 8 4 -1.0</_>
                </rects>
                <tilted>0</tilted>
              </feature>
              <threshold>41.53300094604492</threshold>
              <left_val>-0.679784842717733</left_val>
              <right_val>0.679784842717733</right_val>
            </_>
          </_>
          <_>
            <_>
              <feature>
                <rects>
                  <_>3 7 5 4 -1.0</_>
                  <_>3 11 5 4 2.0</_>
                  <_>3 15 5 4 -1.0</_>
                </rects>
                <tilted>0</tilted>
              </feature>
              <threshold>16.408824920654297</threshold>
              <left_val>-0.7239284569209501</left_val>
              <right_val>0.7239284569209501</right_val>
            </_>
          </_>
          <_>
            <_>
              <feature>
                <rects>
                  <_>11 6 4 5 1.0</_>
                  <_>15 6 4 5 -1.0</_>
                  <_>11 11 4 5 -1.0</_>
                  <_>15 11 4 5 1.0</_>
                </rects>
                <tilted>0</tilted>
              </feature>
              <threshold>9.006786346435547</threshold>
              <left_val>-0.6284788197071266</left_val>
              <right_val>0.6284788197071266</right_val>
            </_>
          </_>
          <_>
            <_>
              <feature>
                <rects>
                  <_>14 0 5 6 1.0</_>
                  <_>19 0 5 6 -1.0</_>
                  <_>14 6 5 6 -1.0</_>
                  <_>19 6 5 6 1.0</_>
                </rects>
                <tilted>0</tilted>
              </feature>
              <threshold>19.6624755859375</threshold>
              <left_val>-0.5357210004304657</left_val>
              <right_val>0.5357210004304657</right_val>
            </_>
          </_>
          <_>
            <_>
              <feature>
                <rects>
                  <_>10 15 6 6 -1.0</_>
                  <_>12 17 2 2 2.0</_>
                </rects>
                <tilted>0</tilted>
              </feature>
              <threshold>-124.37051391601562</threshold>
              <left_val>-0.5435824729330766</left_val>
              <right_val>0.5435824729330766</right_val>
            </_>
          </_>
          <_>
            <_>
              <feature>
                <rects>
                  <_>0 0 4 4 -1.0</_>
                  <_>4 0 4 4 1.0</_>
                </rects>
                <tilted>0</tilted>
              </feature>
              <threshold>13.55960750579834</threshold>
              <left_val>-0.5777929824749087</left_val>
              <right_val>0.5777929824749087</right_val>
            </_>
          </_>
          <_>
            <_>
              <feature>
                <rects>
                  <_>6 7 17 3 -1.0</_>
                  <_>6 10 17 3 1.0</_>
                </rects>
                <tilted>0</tilted>
              </feature>
              <threshold>12.584117889404297</threshold>
              <left_val>-0.49574749625639714</left_val>
              <right_val>0.49574749625639714</right_val>
            </_>
          </_>
        </trees>
        <stage_threshold>-2.605983543315514</stage_threshold>
        <parent>1</parent>
        <next>-1</next>
      </_>
      <_>
        <trees>
          <_>
            <_>
              <feature>
                <rects>
                  <_>3 4 18 3 -1.0</_>
                  <_>3 7 18 3 2.0</_>
                  <_>3 10 18 3 -1.0</_>
                </rects>
                <tilted>0</tilted>
              </feature>
              <threshold>-61.84339141845703</threshold>
              <left_val>0.7336270146011111</left_val>
              <right_val>-0.7336270146011111</right_val>
            </_>
          </_>
          <_>
            <_>
              <feature>
                <rects>
                  <_>0 0 8 6 -1.0</_>
                  <_>8 0 8 6 2.0</_>
                  <_>16 0 8 6 -1.0</_>
                </rects>
                <tilted>0</tilted>
              </feature>
              <threshold>66.80322265625</threshold>
              <left_val>-0.7533919534072574</left_val>
              <right_val>0.7533919534072574</right_val>
            </_>
          </_>
          <_>
            <_>
              <feature>
                <rects>
                  <_>6 6 4 4 -1.0</_>
                  <_>10 6 4 4 2.0</_>
                  <_>14 6 4 4 -1.0</_>
                </rects>
                <tilted>0</tilted>
              </feature>
              <threshold>17.03719139099121</threshold>
              <left_val>-0.65289677839182</left_val>
              <right_val>0.65289677839182</right_val>
            </_>
          </_>
          <_>
            <_>
              <feature>
                <rects>
                  <_>9 18 7 3 1.0</_>
                  <_>16 18 7 3 -1.0</_>
                  <_>9 21 7 3 -1.0</_>
                  <_>16 21 7 3 1.0</_>
                </rects>
                <tilted>0</tilted>
              </feature>
              <threshold>-7.369616508483887</threshold>
              <left_val>0.5822958742135642</left_val>
              <right_val>-0.5822958742135642</right_val>
            </_>
          </_>
          <_>
            <_>
              <feature>
                <rects>
                  <_>16 7 5 4 -1.0</_>
                  <_>16 11 5 4 2.0</_>
                  <_>16 15 5 4 -1.0</_>
                </rects>
                <tilted>0</tilted>
              </feature>
              <threshold>14.010612487792969</threshold>
              <left_val>-0.5522195245537699</left_val>
              <right_val>0.5522195245537699</right_val>
            </_>
          </_>
          <_>
            <_>
              <feature>
                <rects>
                  <_>0 0 3 23 -1.0</_>
                  <_>3 0 3 23 1.0</_>
                </rects>
                <tilted>0</tilted>
              </feature>
              <threshold>30.104820251464844</threshold>
              <left_val>-0.47520659356618183</left_val>
              <right_val>0.47520659356618183</right_val>
            </_>
          </_>
          <_>
            <_>
              <feature>
                <rects>
                  <_>8 14 6 6 -1.0</_>
                  <_>10 16 2 2 2.0</_>
                </rects>
                <tilted>0</tilted>
              </feature>
              <threshold>-137.94265747070312</threshold>
              <left_val>-0.5473338990090214</left_val>
              <right_val>0.5473338990090214</right_val>
            </_>
          </_>
          <_>
            <_>
              <feature>
                <rects>
                  <_>18 0 3 6 -1.0</_>
                  <_>21 0 3 6 1.0</_>
                </rects>
                <tilted>0</tilted>
              </feature>
              <threshold>-14.732342720031738</threshold>
              <left_val>0.4745261020759648</left_val>
              <right_val>-0.4745261020759648</right_val>
            </_>
          </_>
          <_>
            <_>
              <feature>
                <rects>
                  <_>2 0 21 3 -1.0</_>
                  <_>2 3 21 3 2.0</_>
                  <_>2 6 21 3 -1.0</_>
                </rects>
                <tilted>0</tilted>
              </feature>
              <threshold>19.047016143798828</threshold>
              <left_val>-0.48114668227091195</left_val>
              <right_val>0.48114668227091195</right_val>
            </_>
          </_>
          <_>
            <_>
              <feature>
                <rects>
                  <_>1 18 6 3 1.0</_>
                  <_>7 18 6 3 -1.0</_>
                  <_>1 21 6 3 -1.0</_>
                  <_>7 21 6 3 1.0</_>
                </rects>
                <tilted>0</tilted>
              </feature>
              <threshold>8.839885711669922</threshold>
              <left_val>-0.42669373564020774</left_val>
              <right_val>0.42669373564020774</right_val>
            </_>
          </_>
          <_>
            <_>
              <feature>
                <rects>
                  <_>1 6 15 4 -1.0</_>
                  <_>1 10 15 4 1.0</_>
                </rects>
                <tilted>0</tilted>
              </feature>
              <threshold>15.876694679260254</threshold>
              <left_val>-0.36998750474070563</left_val>
              <right_val>0.36998750474070563</right_val>
            </_>
          </_>
        </trees>
        <stage_threshold>-2.256856334583107</stage_threshold>
        <parent>2</parent>
        <next>-1</next>
      </_>
      <_>
        <trees>
          <_>
            <_>
              <feature>
                <rects>
                  <_>14 0 5 5 -1.0</_>
                  <_>19 0 5 5 1.0</_>
                </rects>
                <tilted>0</tilted>
              </feature>
              <threshold>-16.975276947021484</threshold>
              <left_val>0.6455268814682593</left_val>
              <right_val>-0.6455268814682593</right_val>
            </_>
          </_>
          <_>
            <_>
              <feature>
                <rects>
                  <_>4 4 5 3 -1.0</_>
                  <_>4 7 5 3 2.0</_>
                  <_>4 10 5 3 -1.0</_>
                </rects>
                <tilted>0</tilted>
              </feature>
              <threshold>-21.621044158935547</threshold>
              <left_val>0.6887867849309343</left_val>
              <right_val>-0.6887867849309343</right_val>
            </_>
          </_>
          <_>
            <_>
              <feature>
                <rects>
                  <_>0 20 8 4 -1.0</_>
                  <_>8 20 8 4 2.0</_>
                  <_>16 20 8 4 -1.0</_>
                </rects>
                <tilted>0</tilted>
              </feature>
              <threshold>33.888755798339844</threshold>
              <left_val>-0.5690235716531259</left_val>
              <right_val>0.5690235716531259</right_val>
            </_>
          </_>
          <_>
            <_>
              <feature>
                <rects>
                  <_>15 4 5 3 -1.0</_>
                  <_>15 7 5 3 2.0</_>
                  <_>15 10 5 3 -1.0</_>
                </rects>
                <tilted>0</tilted>
              </feature>
              <threshold>-19.242557525634766</threshold>
              <left_val>0.5521645320728271</left_val>
              <right_val>-0.5521645320728271</right_val>
            </_>
          </_>
          <_>
            <_>
              <feature>
                <rects>
                  <_>0 0 5 5 -1.0</_>
                  <_>5 0 5 5 1.0</_>
                </rects>
                <tilted>0</tilted>
              </feature>
              <threshold>13.44223403930664</threshold>
              <left_val>-0.5432661786745295</left_val>
              <right_val>0.5432661786745295</right_val>
            </_>
          </_>
          <_>
            <_>
              <feature>
                <rects>
                  <_>7 6 3 4 -1.0</_>
                  <_>10 6 3 4 2.0</_>
                  <_>13 6 3 4 -1.0</_>
                </rects>
                <tilted>0</tilted>
              </feature>
              <threshold>11.153368949890137</threshold>
              <left_val>-0.48973413797160836</left_val>
              <right_val>0.48973413797160836</right_val>
            </_>
          </_>
          <_>
            <_>
              <feature>
                <rects>
                  <_>1 5 23 5 -1.0</_>
                  <_>1 10 23 5 2.0</_>
                  <_>1 15 23 5 -1.0</_>
                </rects>
                <tilted>0</tilted>
              </feature>
              <threshold>48.59123229980469</threshold>
              <left_val>-0.4391954241553378</left_val>
              <right_val>0.4391954241553378</right_val>
            </_>
          </_>
          <_>
            <_>
              <feature>
                <rects>
                  <_>0 13 4 9 -1.0</_>
                  <_>4 13 4 9 2.0</_>
                  <_>8 13 4 9 -1.0</_>
                </rects>
                <tilted>0</tilted>
              </feature>
              <threshold>28.388423919677734</threshold>
              <left_val>-0.3771711958930894</left_val>
              <right_val>0.3771711958930894</right_val>
            </_>
          </_>
          <_>
            <_>
              <feature>
                <rects>
                  <_>9 14 6 6 -1.0</_>
                  <_>11 16 2 2 2.0</_>
                </rects>
                <tilted>0</tilted>
              </feature>
              <threshold>-115.50506591796875</threshold>
              <left_val>-0.39151096474754316</left_val>
              <right_val>0.39151096474754316</right_val>
            </_>
          </_>
          <_>
            <_>
              <feature>
                <rects>
                  <_>13 18 4 3 1.0</_>
                  <_>17 18 4 3 -1.0</_>
                  <_>13 21 4 3 -1.0</_>
                  <_>17 21 4 3 1.0</_>
                </rects>
                <tilted>0</tilted>
              </feature>
              <threshold>-4.710573196411133</threshold>
              <left_val>0.36657099245199753</left_val>
              <right_val>-0.36657099245199753</right_val>
            </_>
          </_>
          <_>
            <_>
              <feature>
                <rects>
                  <_>6 0 12 3 -1.0</_>
                  <_>6 3 12 3 2.0</_>
                  <_>6 6 12 3 -1.0</_>
                </rects>
                <tilted>0</tilted>
              </feature>
              <threshold>21.979812622070312</threshold>
              <left_val>-0.3237359341689078</left_val>
              <right_val>0.3237359341689078</right_val>
            </_>
          </_>
          <_>
            <_>
              <feature>
                <rects>
                  <_>18 2 3 21 -1.0</_>
                  <_>21 2 3 21 1.0</_>
                </rects>
                <tilted>0</tilted>
              </feature>
              <threshold>-39.52252960205078</threshold>
              <left_val>0.33881997891704657</left_val>
              <right_val>-0.33881997891704657</right_val>
            </_>
          </_>
          <_>
            <_>
              <feature>
                <rects>
                  <_>8 5 6 8 -1.0</_>
                  <_>8 13 6 8 1.0</_>
                </rects>
                <tilted>0</tilted>
              </feature>
              <threshold>7.555252552032471</threshold>
              <left_val>0.35627415837685994</left_val>
              <right_val>-0.35627415837685994</right_val>
            </_>
          </_>
          <_>
            <_>
              <feature>
                <rects>
                  <_>8 6 3 9 -1.0</_>
                  <_>11 6 3 9 2.0</_>
                  <_>14 6 3 9 -1.0</_>
                </rects>
                <tilted>0</tilted>
              </feature>
              <threshold>19.562124252319336</threshold>
              <left_val>-0.3238955069978784</left_val>
              <right_val>0.3238955069978784</right_val>
            </_>
          </_>
          <_>
            <_>
              <feature>
                <rects>
                  <_>2 8 17 3 -1.0</_>
                  <_>2 11 17 3 1.0</_>
                </rects>
                <tilted>0</tilted>
              </feature>
              <threshold>16.552658081054688</threshold>
              <left_val>-0.3482352739377394</left_val>
              <right_val>0.3482352739377394</right_val>
            </_>
          </_>
        </trees>
        <stage_threshold>-2.3967463877691313</stage_threshold>
        <parent>3</parent>
        <next>-1</next>
      </_>
      <_>
        <trees>
          <_>
            <_>
              <feature>
                <rects>
                  <_>0 2 4 4 1.0</_>
                  <_>4 2 4 4 -1.0</_>
                  <_>0 6 4 4 -1.0</_>
                  <_>4 6 4 4 1.0</_>
                </rects>
                <tilted>0</tilted>
              </feature>
              <threshold>-9.196005821228027</threshold>
              <left_val>0.5940931865754377</left_val>
              <right_val>-0.5940931865754377</right_val>
            </_>
          </_>
          <_>
            <_>
              <feature>
                <rects>
                  <_>16 7 4 3 -1.0</_>
                  <_>16 10 4 3 1.0</_>
                </rects>
                <tilted>0</tilted>
              </feature>
              <threshold>8.87175178527832</threshold>
              <left_val>-0.5369921310880681</left_val>
              <right_val>0.5369921310880681</right_val>
            </_>
          </_>
          <_>
            <_>
              <feature>
                <rects>
                  <_>0 0 8 24 -1.0</_>
                  <_>8 0 8 24 2.0</_>
                  <_>16 0 8 24 -1.0</_>
                </rects>
                <tilted>0</tilted>
              </feature>
              <threshold>168.81214904785156</threshold>
              <left_val>-0.5958817384868139</left_val>
              <right_val>0.5958817384868139</right_val>
            </_>
          </_>
          <_>
            <_>
              <feature>
                <rects>
                  <_>16 1 4 5 1.0</_>
                  <_>20 1 4 5 -1.0</_>
                  <_>16 6 4 5 -1.0</_>
                  <_>20 6 4 5 1.0</_>
                </rects>
                <tilted>0</tilted>
              </feature>
              <threshold>13.081925392150879</threshold>
              <left_val>-0.47194725897538226</left_val>
              <right_val>0.47194725897538226</right_val>
            </_>
          </_>
          <_>
            <_>
              <feature>
                <rects>
                  <_>1 7 8 4 -1.0</_>
                  <_>1 11 8 4 2.0</_>
                  <_>1 15 8 4 -1.0</_>
                </rects>
                <tilted>0</tilted>
              </feature>
              <threshold>25.20068359375</threshold>
              <left_val>-0.4640279580024609</left_val>
              <right_val>0.4640279580024609</right_val>
            </_>
          </_>
          <_>
            <_>
              <feature>
                <rects>
                  <_>3 18 4 3 1.0</_>
                  <_>7 18 4 3 -1.0</_>
                  <_>3 21 4 3 -1.0</_>
                  <_>7 21 4 3 1.0</_>
                </rects>
                <tilted>0</tilted>
              </feature>
              <threshold>7.4268388748168945</threshold>
              <left_val>-0.4535785084138384</left_val>
              <right_val>0.4535785084138384</right_val>
            </_>
          </_>
          <_>
            <_>
              <feature>
                <rects>
                  <_>0 0 24 3 -1.0</_>
                  <_>0 3 24 3 2.0</_>
                  <_>0 6 24 3 -1.0</_>
                </rects>
                <tilted>0</tilted>
              </feature>
              <threshold>34.498199462890625</threshold>
              <left_val>-0.3959654402804343</left_val>
              <right_val>0.3959654402804343</right_val>
            </_>
          </_>
          <_>
            <_>
              <feature>
                <rects>
                  <_>18 10 3 13 -1.0</_>
                  <_>21 10 3 13 1.0</_>
                </rects>
                <tilted>0</tilted>
              </feature>
              <threshold>-16.31659507751465</threshold>
              <left_val>0.42568664380562604</left_val>
              <right_val>-0.42568664380562604</right_val>
            </_>
          </_>
          <_>
            <_>
              <feature>
                <rects>
                  <_>10 3 6 9 -1.0</_>
                  <_>10 12 6 9 1.0</_>
                </rects>
                <tilted>0</tilted>
              </feature>
              <threshold>-2.4062230587005615</threshold>
              <left_val>0.34322074588582424</left_val>
              <right_val>-0.34322074588582424</right_val>
            </_>
          </_>
          <_>
            <_>
              <feature>
                <rects>
                  <_>7 7 3 7 -1.0</_>
                  <_>10 7 3 7 2.0</_>
                  <_>13 7 3 7 -1.0</_>
                </rects>
                <tilted>0</tilted>
              </feature>
              <threshold>23.943872451782227</threshold>
              <left_val>-0.36430913997944886</left_val>
              <right_val>0.36430913997944886</right_val>
            </_>
          </_>
          <_>
            <_>
              <feature>
                <rects>
                  <_>4 8 19 3 -1.0</_>
                  <_>4 11 19 3 1.0</_>
                </rects>
                <tilted>0</tilted>
              </feature>
              <threshold>17.756471633911133</threshold>
              <left_val>-0.3257205015454368</left_val>
              <right_val>0.3257205015454368</right_val>
            </_>
          </_>
          <_>
            <_>
              <feature>
                <rects>
                  <_>0 0 3 16 -1.0</_>
                  <_>3 0 3 16 1.0</_>
                </rects>
                <tilted>0</tilted>
              </feature>
              <threshold>23.824012756347656</threshold>
              <left_val>-0.36492819201075477</left_val>
              <right_val>0.36492819201075477</right_val>
            </_>
          </_>
          <_>
            <_>
              <feature>
                <rects>
                  <_>9 14 6 6 -1.0</_>
                  <_>11 16 2 2 2.0</_>
                </rects>
                <tilted>0</tilted>
              </feature>
              <threshold>-120.8692398071289</threshold>
              <left_val>-0.3128253598662029</left_val>
              <right_val>0.3128253598662029</right_val>
            </_>
          </_>
          <_>
            <_>
              <feature>
                <rects>
                  <_>4 20 10 4 -1.0</_>
                  <_>14 20 10 4 1.0</_>
                </rects>
                <tilted>0</tilted>
              </feature>
              <threshold>-40.034507751464844</threshold>
              <left_val>0.33055203264047817</left_val>
              <right_val>-0.33055203264047817</right_val>
            </_>
          </_>
          <_>
            <_>
              <feature>
                <rects>
                  <_>10 13 5 4 -1.0</_>
                  <_>15 13 5 4 1.0</_>
                </rects>
                <tilted>0</tilted>
              </feature>
              <threshold>0.7961467504501343</threshold>
              <left_val>-0.28533846602516844</left_val>
              <right_val>0.28533846602516844</right_val>
            </_>
          </_>
          <_>
            <_>
              <feature>
                <rects>
                  <_>6 0 4 14 -1.0</_>
                  <_>10 0 4 14 2.0</_>
                  <_>14 0 4 14 -1.0</_>
                </rects>
                <tilted>0</tilted>
              </feature>
              <threshold>17.27089500427246</threshold>
              <left_val>-0.24465238077835033</left_val>
              <right_val>0.24465238077835033</right_val>
            </_>
          </_>
          <_>
            <_>
              <feature>
                <rects>
                  <_>14 18 4 3 1.0</_>
                  <_>18 18 4 3 -1.0</_>
                  <_>14 21 4 3 -1.0</_>
                  <_>18 21 4 3 1.0</_>
                </rects>
                <tilted>0</tilted>
              </feature>
              <threshold>-6.919188022613525</threshold>
              <left_val>0.25266277988557667</left_val>
              <right_val>-0.25266277988557667</right_val>
            </_>
          </_>
          <_>
            <_>
              <feature>
                <rects>
                  <_>0 6 16 6 -1.0</_>
                  <_>0 12 16 6 2.0</_>
                  <_>0 18 16 6 -1.0</_>
                </rects>
                <tilted>0</tilted>
              </feature>
              <threshold>5.490180969238281</threshold>
              <left_val>-0.28614209670176927</left_val>
              <right_val>0.28614209670176927</right_val>
            </_>
          </_>
          <_>
            <_>
              <feature>
                <rects>
                  <_>0 1 12 23 -1.0</_>
                  <_>12 1 12 23 1.0</_>
                </rects>
                <tilted>0</tilted>
              </feature>
              <threshold>210.0419921875</threshold>
              <left_val>-0.2880927062755487</left_val>
              <right_val>0.2880927062755487</right_val>
            </_>
          </_>
          <_>
            <_>
              <feature>
                <rects>
                  <_>7 4 8 3 -1.0</_>
                  <_>7 7 8 3 1.0</_>
                </rects>
                <tilted>0</tilted>
              </feature>
              <threshold>-7.515412330627441</threshold>
              <left_val>0.2932937358096215</left_val>
              <right_val>-0.2932937358096215</right_val>
            </_>
          </_>
          <_>
            <_>
              <feature>
                <rects>
                  <_>1 10 19 3 -1.0</_>
                  <_>1 13 19 3 1.0</_>
                </rects>
                <tilted>0</tilted>
              </feature>
              <threshold>6.838565826416016</threshold>
              <left_val>0.25852569070129056</left_val>
              <right_val>-0.25852569070129056</right_val>
            </_>
          </_>
          <_>
            <_>
              <feature>
                <rects>
                  <_>0 9 12 15 -1.0</_>
                  <_>12 9 12 15 1.0</_>
                </rects>
                <tilted>0</tilted>
              </feature>
              <threshold>-119.84760284423828</threshold>
              <left_val>0.2896998917793311</left_val>
              <right_val>-0.2896998917793311</right_val>
            </_>
          </_>
          <_>
            <_>
              <feature>
                <rects>
                  <_>18 1 3 5 -1.0</_>
                  <_>21 1 3 5 1.0</_>
                </rects>
                <tilted>0</tilted>
              </feature>
              <threshold>-4.2273149490356445</threshold>
              <left_val>0.2587664276599466</left_val>
              <right_val>-0.2587664276599466</right_val>
            </_>
          </_>
          <_>
            <_>
              <feature>
                <rects>
                  <_>3 8 16 4 -1.0</_>
                  <_>3 12 16 4 1.0</_>
                </rects>
                <tilted>0</tilted>
              </feature>
              <threshold>8.875906944274902</threshold>
              <left_val>-0.23400668290261245</left_val>
              <right_val>0.23400668290261245</right_val>
            </_>
          </_>
        </trees>
        <stage_threshold>-2.5653119688048682</stage_threshold>
        <parent>4</parent>
        <next>-1</next>
      </_>
      <_>
        <trees>
          <_>
            <_>
              <feature>
                <rects>
                  <_>0 0 8 4 -1.0</_>
                  <_>8 0 8 4 2.0</_>
                  <_>16 0 8 4 -1.0</_>
                </rects>
                <tilted>0</tilted>
              </feature>
              <threshold>49.24943161010742</threshold>
              <left_val>-0.5499511191804721</left_val>
              <right_val>0.5499511191804721</right_val>
            </_>
          </_>
          <_>
            <_>
              <feature>
                <rects>
                  <_>2 4 20 3 -1.0</_>
                  <_>2 7 20 3 2.0</_>
                  <_>2 10 20 3 -1.0</_>
                </rects>
                <tilted>0</tilted>
              </feature>
              <threshold>-72.44761657714844</threshold>
              <left_val>0.6345145442334313</left_val>
              <right_val>-0.6345145442334313</right_val>
            </_>
          </_>
          <_>
            <_>
              <feature>
                <rects>
                  <_>0 20 8 4 -1.0</_>
                  <_>8 20 8 4 2.0</_>
                  <_>16 20 8 4 -1.0</_>
                </rects>
                <tilted>0</tilted>
              </feature>
              <threshold>46.983367919921875</threshold>
              <left_val>-0.49863726141943343</left_val>
              <right_val>0.49863726141943343</right_val>
            </_>
          </_>
          <_>
            <_>
              <feature>
                <rects>
                  <_>6 5 4 5 -1.0</_>
                  <_>10 5 4 5 2.0</_>
                  <_>14 5 4 5 -1.0</_>
                </rects>
                <tilted>0</tilted>
              </feature>
              <threshold>14.243332862854004</threshold>
              <left_val>-0.5120635155356025</left_val>
              <right_val>0.5120635155356025</right_val>
            </_>
          </_>
          <_>
            <_>
              <feature>
                <rects>
                  <_>0 6 24 4 -1.0</_>
                  <_>0 10 24 4 2.0</_>
                  <_>0 14 24 4 -1.0</_>
                </rects>
                <tilted>0</tilted>
              </feature>
              <threshold>57.71604919433594</threshold>
              <left_val>-0.40153640302195764</left_val>
              <right_val>0.40153640302195764</right_val>
            </_>
          </_>
          <_>
            <_>
              <feature>
                <rects>
                  <_>0 0 3 6 -1.0</_>
                  <_>3 0 3 6 1.0</_>
                </rects>
                <tilted>0</tilted>
              </feature>
              <threshold>13.502143859863281</threshold>
              <left_val>-0.3924699211565789</left_val>
              <right_val>0.3924699211565789</right_val>
            </_>
          </_>
          <_>
            <_>
              <feature>
                <rects>
                  <_>14 0 8 3 -1.0</_>
                  <_>14 3 8 3 2.0</_>
                  <_>14 6 8 3 -1.0</_>
                </rects>
                <tilted>0</tilted>
              </feature>
              <threshold>11.149091720581055</threshold>
              <left_val>-0.3386140561150557</left_val>
              <right_val>0.3386140561150557</right_val>
            </_>
          </_>
          <_>
            <_>
              <feature>
                <rects>
                  <_>12 12 4 11 -1.0</_>
                  <_>16 12 4 11 2.0</_>
                  <_>20 12 4 11 -1.0</_>
                </rects>
                <tilted>0</tilted>
              </feature>
              <threshold>18.067405700683594</threshold>
              <left_val>-0.33708510027296296</left_val>
              <right_val>0.33708510027296296</right_val>
            </_>
          </_>
          <_>
            <_>
              <feature>
                <rects>
                  <_>9 14 6 6 -1.0</_>
                  <_>11 16 2 2 2.0</_>
                </rects>
                <tilted>0</tilted>
              </feature>
              <threshold>-102.35646057128906</threshold>
              <left_val>-0.31029903268104003</left_val>
              <right_val>0.31029903268104003</right_val>
            </_>
          </_>
          <_>
            <_>
              <feature>
                <rects>
                  <_>0 11 3 12 -1.0</_>
                  <_>3 11 3 12 1.0</_>
                </rects>
                <tilted>0</tilted>
              </feature>
              <threshold>22.826465606689453</threshold>
              <left_val>-0.3275277100382785</left_val>
              <right_val>0.3275277100382785</right_val>
            </_>
          </_>
          <_>
            <_>
              <feature>
                <rects>
                  <_>4 6 4 5 -1.0</_>
                  <_>4 11 4 5 1.0</_>
                </rects>
                <tilted>0</tilted>
              </feature>
              <threshold>6.662945747375488</threshold>
              <left_val>-0.30872075771429125</left_val>
              <right_val>0.30872075771429125</right_val>
            </_>
          </_>
          <_>
            <_>
              <feature>
                <rects>
                  <_>14 0 5 6 1.0</_>
                  <_>19 0 5 6 -1.0</_>
                  <_>14 6 5 6 -1.0</_>
                  <_>19 6 5 6 1.0</_>
                </rects>
                <tilted>0</tilted>
              </feature>
              <threshold>25.26291275024414</threshold>
              <left_val>-0.288369840633856</left_val>
              <right_val>0.288369840633856</right_val>
            </_>
          </_>
          <_>
            <_>
              <feature>
                <rects>
                  <_>8 7 8 6 -1.0</_>
                  <_>8 13 8 6 1.0</_>
                </rects>
                <tilted>0</tilted>
              </feature>
              <threshold>10.352838516235352</threshold>
              <left_val>0.27147716512229775</left_val>
              <right_val>-0.27147716512229775</right_val>
            </_>
          </_>
          <_>
            <_>
              <feature>
                <rects>
                  <_>0 0 12 24 -1.0</_>
                  <_>12 0 12 24 1.0</_>
                </rects>
                <tilted>0</tilted>
              </feature>
              <threshold>-187.02493286132812</threshold>
              <left_val>0.3257748142706791</left_val>
              <right_val>-0.3257748142706791</right_val>
            </_>
          </_>
          <_>
            <_>
              <feature>
                <rects>
                  <_>15 7 5 4 -1.0</_>
                  <_>15 11 5 4 2.0</_>
                  <_>15 15 5 4 -1.0</_>
                </rects>
                <tilted>0</tilted>
              </feature>
              <threshold>10.461749076843262</threshold>
              <left_val>-0.28895287398227854</left_val>
              <right_val>0.28895287398227854</right_val>
            </_>
          </_>
          <_>
            <_>
              <feature>
                <rects>
                  <_>2 17 3 3 1.0</_>
                  <_>5 17 3 3 -1.0</_>
                  <_>2 20 3 3 -1.0</_>
                  <_>5 20 3 3 1.0</_>
                </rects>
                <tilted>0</tilted>
              </feature>
              <threshold>3.4314684867858887</threshold>
              <left_val>-0.27860519796290234</left_val>
              <right_val>0.27860519796290234</right_val>
            </_>
          </_>
          <_>
            <_>
              <feature>
                <rects>
                  <_>5 7 3 8 -1.0</_>
                  <_>8 7 3 8 2.0</_>
                  <_>11 7 3 8 -1.0</_>
                </rects>
                <tilted>0</tilted>
              </feature>
              <threshold>-7.506070613861084</threshold>
              <left_val>0.24021442901524992</left_val>
              <right_val>-0.24021442901524992</right_val>
            </_>
          </_>
          <_>
            <_>
              <feature>
                <rects>
                  <_>4 0 5 3 -1.0</_>
                  <_>4 3 5 3 2.0</_>
                  <_>4 6 5 3 -1.0</_>
                </rects>
                <tilted>0</tilted>
              </feature>
              <threshold>5.847832679748535</threshold>
              <left_val>-0.251496383968759</left_val>
              <right_val>0.251496383968759</right_val>
            </_>
          </_>
          <_>
            <_>
              <feature>
                <rects>
                  <_>18 0 3 15 -1.0</_>
                  <_>21 0 3 15 1.0</_>
                </rects>
                <tilted>0</tilted>
              </feature>
              <threshold>-23.121389389038086</threshold>
              <left_val>0.251256829354402</left_val>
              <right_val>-0.251256829354402</right_val>
            </_>
          </_>
          <_>
            <_>
              <feature>
                <rects>
                  <_>9 14 6 6 -1.0</_>
                  <_>11 16 2 2 2.0</_>
                </rects>
                <tilted>0</tilted>
              </feature>
              <threshold>-181.78421020507812</threshold>
              <left_val>-0.2502123155440939</left_val>
              <right_val>0.2502123155440939</right_val>
            </_>
          </_>
          <_>
            <_>
              <feature>
                <rects>
                  <_>2 0 11 24 -1.0</_>
                  <_>13 0 11 24 1.0</_>
                </rects>
                <tilted>0</tilted>
              </feature>
              <threshold>243.3232879638672</threshold>
              <left_val>-0.28220990701124143</left_val>
              <right_val>0.28220990701124143</right_val>
            </_>
          </_>
          <_>
            <_>
              <feature>
                <rects>
                  <_>6 6 17 6 -1.0</_>
                  <_>6 12 17 6 2.0</_>
                  <_>6 18 17 6 -1.0</_>
                </rects>
                <tilted>0</tilted>
              </feature>
              <threshold>3.1197290420532227</threshold>
              <left_val>-0.296343919400178</left_val>
              <right_val>0.296343919400178</right_val>
            </_>
          </_>
          <_>
            <_>
              <feature>
                <rects>
                  <_>4 18 4 3 1.0</_>
                  <_>8 18 4 3 -1.0</_>
                  <_>4 21 4 3 -1.0</_>
                  <_>8 21 4 3 1.0</_>
                </rects>
                <tilted>0</tilted>
              </feature>
              <threshold>7.238819122314453</threshold>
              <left_val>-0.2586883236561541</left_val>
              <right_val>0.2586883236561541</right_val>
            </_>
          </_>
          <_>
            <_>
              <feature>
                <rects>
                  <_>7 2 10 7 -1.0</_>
                  <_>7 9 10 7 1.0</_>
                </rects>
                <tilted>0</tilted>
              </feature>
              <threshold>8.249000549316406</threshold>
              <left_val>0.22047776561003563</left_val>
              <right_val>-0.22047776561003563</right_val>
            </_>
          </_>
          <_>
            <_>
              <feature>
                <rects>
                  <_>7 7 3 4 -1.0</_>
                  <_>10 7 3 4 2.0</_>
                  <_>13 7 3 4 -1.0</_>
                </rects>
                <tilted>0</tilted>
              </feature>
              <threshold>16.497516632080078</threshold>
              <left_val>-0.25762279210727584</left_val>
              <right_val>0.25762279210727584</right_val>
            </_>
          </_>
          <_>
            <_>
              <feature>
                <rects>
                  <_>7 7 7 5 -1.0</_>
                  <_>7 12 7 5 1.0</_>
                </rects>
                <tilted>0</tilted>
              </feature>
              <threshold>-5.503911018371582</threshold>
              <left_val>-0.21165505991363034</left_val>
              <right_val>0.21165505991363034</right_val>
            </_>
          </_>
          <_>
            <_>
              <feature>
                <rects>
                  <_>16 19 4 5 -1.0</_>
                  <_>20 19 4 5 1.0</_>
                </rects>
                <tilted>0</tilted>
              </feature>
              <threshold>22.20956802368164</threshold>
              <left_val>-0.2369455183465412</left_val>
              <right_val>0.2369455183465412</right_val>
            </_>
          </_>
          <_>
            <_>
              <feature>
                <rects>
                  <_>6 11 6 3 -1.0</_>
                  <_>6 14 6 3 1.0</_>
                </rects>
                <tilted>0</tilted>
              </feature>
              <threshold>1.1660722494125366</threshold>
              <left_val>0.2659762711652101</left_val>
              <right_val>-0.2659762711652101</right_val>
            </_>
          </_>
          <_>
            <_>
              <feature>
                <rects>
                  <_>14 18 3 3 1.0</_>
                  <_>17 18 3 3 -1.0</_>
                  <_>14 21 3 3 -1.0</_>
                  <_>17 21 3 3 1.0</_>
                </rects>
                <tilted>0</tilted>
              </feature>
              <threshold>-3.782258987426758</threshold>
              <left_val>0.22942124736867708</left_val>
              <right_val>-0.22942124736867708</right_val>
            </_>
          </_>
          <_>
            <_>
              <feature>
                <rects>
                  <_>4 0 3 6 -1.0</_>
                  <_>7 0 3 6 2.0</_>
                  <_>10 0 3 6 -1.0</_>
                </rects>
                <tilted>0</tilted>
              </feature>
              <threshold>-2.8320693969726562</threshold>
              <left_val>-0.19801636149496593</left_val>
              <right_val>0.19801636149496593</right_val>
            </_>
          </_>
        </trees>
        <stage_threshold>-2.3302298116700517</stage_threshold>
        <parent>5</parent>
        <next>-1</next>
      </_>
      <_>
        <trees>
          <_>
            <_>
              <feature>
                <rects>
                  <_>1 7 21 3 -1.0</_>
                  <_>1 10 21 3 1.0</_>
                </rects>
                <tilted>0</tilted>
              </feature>
              <threshold>36.51218032836914</threshold>
              <left_val>-0.5391525005697317</left_val>
              <right_val>0.5391525005697317</right_val>
            </_>
          </_>
          <_>
            <_>
              <feature>
                <rects>
                  <_>0 0 8 6 -1.0</_>
                  <_>8 0 8 6 2.0</_>
                  <_>16 0 8 6 -1.0</_>
                </rects>
                <tilted>0</tilted>
              </feature>
              <threshold>80.02327728271484</threshold>
              <left_val>-0.5527723060774429</left_val>
              <right_val>0.5527723060774429</right_val>
            </_>
          </_>
          <_>
            <_>
              <feature>
                <rects>
                  <_>0 20 8 4 -1.0</_>
                  <_>8 20 8 4 2.0</_>
                  <_>16 20 8 4 -1.0</_>
                </rects>
                <tilted>0</tilted>
              </feature>
              <threshold>54.592185974121094</threshold>
              <left_val>-0.414523717939871</left_val>
              <right_val>0.414523717939871</right_val>
            </_>
          </_>
          <_>
            <_>
              <feature>
                <rects>
                  <_>1 0 21 3 -1.0</_>
                  <_>1 3 21 3 2.0</_>
                  <_>1 6 21 3 -1.0</_>
                </rects>
                <tilted>0</tilted>
              </feature>
              <threshold>36.48771286010742</threshold>
              <left_val>-0.49597877607945795</left_val>
              <right_val>0.49597877607945795</right_val>
            </_>
          </_>
          <_>
            <_>
              <feature>
                <rects>
                  <_>7 6 3 4 -1.0</_>
                  <_>10 6 3 4 1.0</_>
                </rects>
                <tilted>0</tilted>
              </feature>
              <threshold>6.137791633605957</threshold>
              <left_val>-0.3849949539285326</left_val>
              <right_val>0.3849949539285326</right_val>
            </_>
          </_>
          <_>
            <_>
              <feature>
                <rects>
                  <_>0 0 3 24 -1.0</_>
                  <_>3 0 3 24 1.0</_>
                </rects>
                <tilted>0</tilted>
              </feature>
              <threshold>34.52230453491211</threshold>
              <left_val>-0.3569931563466669</left_val>
              <right_val>0.3569931563466669</right_val>
            </_>
          </_>
          <_>
            <_>
              <feature>
                <rects>
                  <_>16 8 4 3 -1.0</_>
                  <_>16 11 4 3 2.0</_>
                  <_>16 14 4 3 -1.0</_>
                </rects>
                <tilted>0</tilted>
              </feature>
              <threshold>7.545217514038086</threshold>
              <left_val>-0.34355785286235746</left_val>
              <right_val>0.34355785286235746</right_val>
            </_>
          </_>
          <_>
            <_>
              <feature>
                <rects>
                  <_>18 0 3 4 -1.0</_>
                  <_>21 0 3 4 1.0</_>
                </rects>
                <tilted>0</tilted>
              </feature>
              <threshold>-9.109107971191406</threshold>
              <left_val>0.32847525734538824</left_val>
              <right_val>-0.32847525734538824</right_val>
            </_>
          </_>
          <_>
            <_>
              <feature>
                <rects>
                  <_>0 8 3 3 1.0</_>
                  <_>3 8 3 3 -1.0</_>
                  <_>0 11 3 3 -1.0</_>
                  <_>3 11 3 3 1.0</_>
                </rects>
                <tilted>0</tilted>
              </feature>
              <threshold>2.2930240631103516</threshold>
              <left_val>-0.3090272674957325</left_val>
              <right_val>0.3090272674957325</right_val>
            </_>
          </_>
          <_>
            <_>
              <feature>
                <rects>
                  <_>11 18 5 3 1.0</_>
                  <_>16 18 5 3 -1.0</_>
                  <_>11 21 5 3 -1.0</_>
                  <_>16 21 5 3 1.0</_>
                </rects>
                <tilted>0</tilted>
              </feature>
              <threshold>-7.777285575866699</threshold>
              <left_val>0.2878308913278759</left_val>
              <right_val>-0.2878308913278759</right_val>
            </_>
          </_>
          <_>
            <_>
              <feature>
                <rects>
                  <_>10 14 6 6 -1.0</_>
                  <_>12 16 2 2 2.0</_>
                </rects>
                <tilted>0</tilted>
              </feature>
              <threshold>-121.7948989868164</threshold>
              <left_val>-0.30026451521599495</left_val>
              <right_val>0.30026451521599495</right_val>
            </_>
          </_>
          <_>
            <_>
              <feature>
                <rects>
                  <_>2 0 11 24 -1.0</_>
                  <_>13 0 11 24 1.0</_>
                </rects>
                <tilted>0</tilted>
              </feature>
              <threshold>-226.71363830566406</threshold>
              <left_val>0.3188766996586019</left_val>
              <right_val>-0.3188766996586019</right_val>
            </_>
          </_>
          <_>
            <_>
              <feature>
                <rects>
                  <_>8 5 5 9 -1.0</_>
                  <_>8 14 5 9 1.0</_>
                </rects>
                <tilted>0</tilted>
              </feature>
              <threshold>2.800525665283203</threshold>
              <left_val>0.298585176141105</left_val>
              <right_val>-0.298585176141105</right_val>
            </_>
          </_>
          <_>
            <_>
              <feature>
                <rects>
                  <_>2 18 4 3 1.0</_>
                  <_>6 18 4 3 -1.0</_>
                  <_>2 21 4 3 -1.0</_>
                  <_>6 21 4 3 1.0</_>
                </rects>
                <tilted>0</tilted>
              </feature>
              <threshold>5.561313152313232</threshold>
              <left_val>-0.2596473633961178</left_val>
              <right_val>0.2596473633961178</right_val>
            </_>
          </_>
          <_>
            <_>
              <feature>
                <rects>
                  <_>6 1 12 6 -1.0</_>
                  <_>6 7 12 6 2.0</_>
                  <_>6 13 12 6 -1.0</_>
                </rects>
                <tilted>0</tilted>
              </feature>
              <threshold>-12.53027057647705</threshold>
              <left_val>0.2617838823945478</left_val>
              <right_val>-0.2617838823945478</right_val>
            </_>
          </_>
          <_>
            <_>
              <feature>
                <rects>
                  <_>0 20 10 4 -1.0</_>
                  <_>10 20 10 4 1.0</_>
                </rects>
                <tilted>0</tilted>
              </feature>
              <threshold>53.53578186035156</threshold>
              <left_val>-0.2916602386572991</left_val>
              <right_val>0.2916602386572991</right_val>
            </_>
          </_>
          <_>
            <_>
              <feature>
                <rects>
                  <_>0 6 20 4 -1.0</_>
                  <_>0 10 20 4 1.0</_>
                </rects>
                <tilted>0</tilted>
              </feature>
              <threshold>13.884090423583984</threshold>
              <left_val>-0.28774406546141335</left_val>
              <right_val>0.28774406546141335</right_val>
            </_>
          </_>
          <_>
            <_>
              <feature>
                <rects>
                  <_>8 8 3 6 -1.0</_>
                  <_>11 8 3 6 2.0</_>
                  <_>14 8 3 6 -1.0</_>
                </rects>
                <tilted>0</tilted>
              </feature>
              <threshold>20.23836898803711</threshold>
              <left_val>-0.2671492393014714</left_val>
              <right_val>0.2671492393014714</right_val>
            </_>
          </_>
          <_>
            <_>
              <feature>
                <rects>
                  <_>3 12 6 4 -1.0</_>
                  <_>9 12 6 4 2.0</_>
                  <_>15 12 6 4 -1.0</_>
                </rects>
                <tilted>0</tilted>
              </feature>
              <threshold>1.2618482112884521</threshold>
              <left_val>0.2503114617807547</left_val>
              <right_val>-0.2503114617807547</right_val>
            </_>
          </_>
          <_>
            <_>
              <feature>
                <rects>
                  <_>0 0 3 4 -1.0</_>
                  <_>3 0 3 4 1.0</_>
                </rects>
                <tilted>0</tilted>
              </feature>
              <threshold>6.086723327636719</threshold>
              <left_val>-0.25490438931057885</left_val>
              <right_val>0.25490438931057885</right_val>
            </_>
          </_>
          <_>
            <_>
              <feature>
                <rects>
                  <_>1 11 9 4 -1.0</_>
                  <_>1 15 9 4 1.0</_>
                </rects>
                <tilted>0</tilted>
              </feature>
              <threshold>-1.5770587921142578</threshold>
              <left_val>0.21054953323234893</left_val>
              <right_val>-0.21054953323234893</right_val>
            </_>
          </_>
          <_>
            <_>
              <feature>
                <rects>
                  <_>18 1 3 22 -1.0</_>
                  <_>21 1 3 22 1.0</_>
                </rects>
                <tilted>0</tilted>
              </feature>
              <threshold>-46.897483825683594</threshold>
              <left_val>0.2708662431288642</left_val>
              <right_val>-0.2708662431288642</right_val>
            </_>
          </_>
          <_>
            <_>
              <feature>
                <rects>
                  <_>16 0 3 7 1.0</_>
                  <_>19 0 3 7 -1.0</_>
                  <_>16 7 3 7 -1.0</_>
                  <_>19 7 3 7 1.0</_>
                </rects>
                <tilted>0</tilted>
              </feature>
              <threshold>0.6297169923782349</threshold>
              <left_val>-0.24080830105659543</left_val>
              <right_val>0.24080830105659543</right_val>
            </_>
          </_>
          <_>
            <_>
              <feature>
                <rects>
                  <_>6 4 4 3 1.0</_>
                  <_>10 4 4 3 -1.0</_>
                  <_>6 7 4 3 -1.0</_>
                  <_>10 7 4 3 1.0</_>
                </rects>
                <tilted>0</tilted>
              </feature>
              <threshold>1.7695392370224</threshold>
              <left_val>-0.21145869351017063</left_val>
              <right_val>0.21145869351017063</right_val>
            </_>
          </_>
          <_>
            <_>
              <feature>
                <rects>
                  <_>0 16 3 8 -1.0</_>
                  <_>3 16 3 8 1.0</_>
                </rects>
                <tilted>0</tilted>
              </feature>
              <threshold>-18.49706268310547</threshold>
              <left_val>0.21786769135482648</left_val>
              <right_val>-0.21786769135482648</right_val>
            </_>
          </_>
          <_>
            <_>
              <feature>
                <rects>
                  <_>15 12 5 4 -1.0</_>
                  <_>15 16 5 4 1.0</_>
                </rects>
                <tilted>0</tilted>
              </feature>
              <threshold>-0.5190327167510986</threshold>
              <left_val>0.2612833842303005</left_val>
              <right_val>-0.2612833842303005</right_val>
            </_>
          </_>
          <_>
            <_>
              <feature>
                <rects>
                  <_>2 16 11 8 -1.0</_>
                  <_>13 16 11 8 1.0</_>
                </rects>
                <tilted>0</tilted>
              </feature>
              <threshold>-65.73606872558594</threshold>
              <left_val>0.19003738008094018</left_val>
              <right_val>-0.19003738008094018</right_val>
            </_>
          </_>
          <_>
            <_>
              <feature>
                <rects>
                  <_>14 7 4 8 -1.0</_>
                  <_>14 15 4 8 1.0</_>
                </rects>
                <tilted>0</tilted>
              </feature>
              <threshold>-11.235130310058594</threshold>
              <left_val>-0.23148382977027857</left_val>
              <right_val>0.23148382977027857</right_val>
            </_>
          </_>
          <_>
            <_>
              <feature>
                <rects>
                  <_>0 1 12 23 -1.0</_>
                  <_>12 1 12 23 1.0</_>
                </rects>
                <tilted>0</tilted>
              </feature>
              <threshold>198.1861572265625</threshold>
              <left_val>-0.1895200599846989</left_val>
              <right_val>0.1895200599846989</right_val>
            </_>
          </_>
          <_>
            <_>
              <feature>
                <rects>
                  <_>13 7 6 6 -1.0</_>
                  <_>15 9 2 2 2.0</_>
                </rects>
                <tilted>0</tilted>
              </feature>
              <threshold>-189.22203063964844</threshold>
              <left_val>-0.25422584088223615</left_val>
              <right_val>0.25422584088223615</right_val>
            </_>
          </_>
          <_>
            <_>
              <feature>
                <rects>
                  <_>18 17 3 6 -1.0</_>
                  <_>21 17 3 6 1.0</_>
                </rects>
                <tilted>0</tilted>
              </feature>
              <threshold>19.918716430664062</threshold>
              <left_val>-0.21954662932925242</left_val>
              <right_val>0.21954662932925242</right_val>
            </_>
          </_>
          <_>
            <_>
              <feature>
                <rects>
                  <_>12 10 4 3 -1.0</_>
                  <_>12 13 4 3 1.0</_>
                </rects>
                <tilted>0</tilted>
              </feature>
              <threshold>2.1995983123779297</threshold>
              <left_val>0.24972616380580787</left_val>
              <right_val>-0.24972616380580787</right_val>
            </_>
          </_>
          <_>
            <_>
              <feature>
                <rects>
                  <_>15 17 3 5 -1.0</_>
                  <_>18 17 3 5 2.0</_>
                  <_>21 17 3 5 -1.0</_>
                </rects>
                <tilted>0</tilted>
              </feature>
              <threshold>7.024321556091309</threshold>
              <left_val>-0.1889193238952389</left_val>
              <right_val>0.1889193238952389</right_val>
            </_>
          </_>
          <_>
            <_>
              <feature>
                <rects>
                  <_>10 5 5 3 -1.0</_>
                  <_>10 8 5 3 2.0</_>
                  <_>10 11 5 3 -1.0</_>
                </rects>
                <tilted>0</tilted>
              </feature>
              <threshold>-1.2251667976379395</threshold>
              <left_val>0.20983668967095628</left_val>
              <right_val>-0.20983668967095628</right_val>
            </_>
          </_>
          <_>
            <_>
              <feature>
                <rects>
                  <_>0 18 4 4 -1.0</_>
                  <_>4 18 4 4 1.0</_>
                </rects>
                <tilted>0</tilted>
              </feature>
              <threshold>22.943206787109375</threshold>
              <left_val>-0.20792706815970413</left_val>
              <right_val>0.20792706815970413</right_val>
            </_>
          </_>
          <_>
            <_>
              <feature>
                <rects>
                  <_>11 6 12 6 -1.0</_>
                  <_>11 12 12 6 2.0</_>
                  <_>11 18 12 6 -1.0</_>
                </rects>
                <tilted>0</tilted>
              </feature>
              <threshold>7.8067426681518555</threshold>
              <left_val>-0.22775650921447557</left_val>
              <right_val>0.22775650921447557</right_val>
            </_>
          </_>
          <_>
            <_>
              <feature>
                <rects>
                  <_>10 6 3 5 -1.0</_>
                  <_>13 6 3 5 1.0</_>
                </rects>
                <tilted>0</tilted>
              </feature>
              <threshold>-5.843852996826172</threshold>
              <left_val>0.17423881016210135</left_val>
              <right_val>-0.17423881016210135</right_val>
            </_>
          </_>
          <_>
            <_>
              <feature>
                <rects>
                  <_>1 5 10 7 1.0</_>
                  <_>11 5 10 7 -1.0</_>
                  <_>1 12 10 7 -1.0</_>
                  <_>11 12 10 7 1.0</_>
                </rects>
                <tilted>0</tilted>
              </feature>
              <threshold>11.428064346313477</threshold>
              <left_val>0.19710280695929336</left_val>
              <right_val>-0.19710280695929336</right_val>
            </_>
          </_>
        </trees>
        <stage_threshold>-2.2022578816823692</stage_threshold>
        <parent>6</parent>
        <next>-1</next>
      </_>
      <_>
        <trees>
          <_>
            <_>
              <feature>
                <rects>
                  <_>0 0 5 4 -1.0</_>
                  <_>5 0 5 4 1.0</_>
                </rects>
                <tilted>0</tilted>
              </feature>
              <threshold>14.855613708496094</threshold>
              <left_val>-0.49435002696141256</left_val>
              <right_val>0.49435002696141256</right_val>
            </_>
          </_>
          <_>
            <_>
              <feature>
                <rects>
                  <_>15 2 4 4 -1.0</_>
                  <_>15 6 4 4 2.0</_>
                  <_>15 10 4 4 -1.0</_>
                </rects>
                <tilted>0</tilted>
              </feature>
              <threshold>-26.65660285949707</threshold>
              <left_val>0.4932853046331413</left_val>
              <right_val>-0.4932853046331413</right_val>
            </_>
          </_>
          <_>
            <_>
              <feature>
                <rects>
                  <_>0 20 8 4 -1.0</_>
                  <_>8 20 8 4 2.0</_>
                  <_>16 20 8 4 -1.0</_>
                </rects>
                <tilted>0</tilted>
              </feature>
              <threshold>40.71417236328125</threshold>
              <left_val>-0.44801003064903444</left_val>
              <right_val>0.44801003064903444</right_val>
            </_>
          </_>
          <_>
            <_>
              <feature>
                <rects>
                  <_>4 7 5 3 -1.0</_>
                  <_>4 10 5 3 1.0</_>
                </rects>
                <tilted>0</tilted>
              </feature>
              <threshold>11.384288787841797</threshold>
              <left_val>-0.42252786813687265</left_val>
              <right_val>0.42252786813687265</right_val>
            </_>
          </_>
          <_>
            <_>
              <feature>
                <rects>
                  <_>14 0 5 6 -1.0</_>
                  <_>19 0 5 6 1.0</_>
                </rects>
                <tilted>0</tilted>
              </feature>
              <threshold>-28.45380401611328</threshold>
              <left_val>0.40418510209624514</left_val>
              <right_val>-0.40418510209624514</right_val>
            </_>
          </_>
          <_>
            <_>
              <feature>
                <rects>
                  <_>7 6 3 4 -1.0</_>
                  <_>10 6 3 4 2.0</_>
                  <_>13 6 3 4 -1.0</_>
                </rects>
                <tilted>0</tilted>
              </feature>
              <threshold>10.537641525268555</threshold>
              <left_val>-0.3576823607886644</left_val>
              <right_val>0.3576823607886644</right_val>
            </_>
          </_>
          <_>
            <_>
              <feature>
                <rects>
                  <_>2 0 10 3 -1.0</_>
                  <_>2 3 10 3 2.0</_>
                  <_>2 6 10 3 -1.0</_>
                </rects>
                <tilted>0</tilted>
              </feature>
              <threshold>14.533395767211914</threshold>
              <left_val>-0.3135098289765707</left_val>
              <right_val>0.3135098289765707</right_val>
            </_>
          </_>
          <_>
            <_>
              <feature>
                <rects>
                  <_>16 17 3 3 1.0</_>
                  <_>19 17 3 3 -1.0</_>
                  <_>16 20 3 3 -1.0</_>
                  <_>19 20 3 3 1.0</_>
                </rects>
                <tilted>0</tilted>
              </feature>
              <threshold>-5.181026458740234</threshold>
              <left_val>0.3254426258072961</left_val>
              <right_val>-0.3254426258072961</right_val>
            </_>
          </_>
          <_>
            <_>
              <feature>
                <rects>
                  <_>9 5 6 8 -1.0</_>
                  <_>9 13 6 8 1.0</_>
                </rects>
                <tilted>0</tilted>
              </feature>
              <threshold>-2.505929470062256</threshold>
              <left_val>0.2862779561985228</left_val>
              <right_val>-0.2862779561985228</right_val>
            </_>
          </_>
          <_>
            <_>
              <feature>
                <rects>
                  <_>0 14 3 8 -1.0</_>
                  <_>3 14 3 8 1.0</_>
                </rects>
                <tilted>0</tilted>
              </feature>
              <threshold>18.77048683166504</threshold>
              <left_val>-0.29349970825421556</left_val>
              <right_val>0.29349970825421556</right_val>
            </_>
          </_>
          <_>
            <_>
              <feature>
                <rects>
                  <_>9 14 6 6 -1.0</_>
                  <_>11 16 2 2 2.0</_>
                </rects>
                <tilted>0</tilted>
              </feature>
              <threshold>-131.40554809570312</threshold>
              <left_val>-0.2812839993798072</left_val>
              <right_val>0.2812839993798072</right_val>
            </_>
          </_>
          <_>
            <_>
              <feature>
                <rects>
                  <_>18 1 3 21 -1.0</_>
                  <_>21 1 3 21 1.0</_>
                </rects>
                <tilted>0</tilted>
              </feature>
              <threshold>-47.843936920166016</threshold>
              <left_val>0.27128100001115035</left_val>
              <right_val>-0.27128100001115035</right_val>
            </_>
          </_>
          <_>
            <_>
              <feature>
                <rects>
                  <_>10 8 10 3 -1.0</_>
                  <_>10 11 10 3 1.0</_>
                </rects>
                <tilted>0</tilted>
              </feature>
              <threshold>8.27375316619873</threshold>
              <left_val>-0.3092345131054227</left_val>
              <right_val>0.3092345131054227</right_val>
            </_>
          </_>
          <_>
            <_>
              <feature>
                <rects>
                  <_>0 1 12 23 -1.0</_>
                  <_>12 1 12 23 1.0</_>
                </rects>
                <tilted>0</tilted>
              </feature>
              <threshold>199.13075256347656</threshold>
              <left_val>-0.253456052194326</left_val>
              <right_val>0.253456052194326</right_val>
            </_>
          </_>
          <_>
            <_>
              <feature>
                <rects>
                  <_>12 0 10 3 -1.0</_>
                  <_>12 3 10 3 2.0</_>
                  <_>12 6 10 3 -1.0</_>
                </rects>
                <tilted>0</tilted>
              </feature>
              <threshold>9.264203071594238</threshold>
              <left_val>-0.2635227479345311</left_val>
              <right_val>0.2635227479345311</right_val>
            </_>
          </_>
          <_>
            <_>
              <feature>
                <rects>
                  <_>3 18 4 3 1.0</_>
                  <_>7 18 4 3 -1.0</_>
                  <_>3 21 4 3 -1.0</_>
                  <_>7 21 4 3 1.0</_>
                </rects>
                <tilted>0</tilted>
              </feature>
              <threshold>5.498461723327637</threshold>
              <left_val>-0.2519480138216188</left_val>
              <right_val>0.2519480138216188</right_val>
            </_>
          </_>
          <_>
            <_>
              <feature>
                <rects>
                  <_>0 4 3 3 1.0</_>
                  <_>3 4 3 3 -1.0</_>
                  <_>0 7 3 3 -1.0</_>
                  <_>3 7 3 3 1.0</_>
                </rects>
                <tilted>0</tilted>
              </feature>
              <threshold>-5.508211135864258</threshold>
              <left_val>0.22794907774926523</left_val>
              <right_val>-0.22794907774926523</right_val>
            </_>
          </_>
          <_>
            <_>
              <feature>
                <rects>
                  <_>12 0 3 11 -1.0</_>
                  <_>15 0 3 11 1.0</_>
                </rects>
                <tilted>0</tilted>
              </feature>
              <threshold>-4.390716552734375</threshold>
              <left_val>0.22035775285675574</left_val>
              <right_val>-0.22035775285675574</right_val>
            </_>
          </_>
          <_>
            <_>
              <feature>
                <rects>
                  <_>0 0 12 24 -1.0</_>
                  <_>12 0 12 24 1.0</_>
                </rects>
                <tilted>0</tilted>
              </feature>
              <threshold>-232.1696319580078</threshold>
              <left_val>0.2152692457705321</left_val>
              <right_val>-0.2152692457705321</right_val>
            </_>
          </_>
          <_>
            <_>
              <feature>
                <rects>
                  <_>3 3 19 7 -1.0</_>
                  <_>3 10 19 7 2.0</_>
                  <_>3 17 19 7 -1.0</_>
                </rects>
                <tilted>0</tilted>
              </feature>
              <threshold>18.88470458984375</threshold>
              <left_val>-0.26131907405774496</left_val>
              <right_val>0.26131907405774496</right_val>
            </_>
          </_>
          <_>
            <_>
              <feature>
                <rects>
                  <_>5 7 3 8 -1.0</_>
                  <_>8 7 3 8 2.0</_>
                  <_>11 7 3 8 -1.0</_>
                </rects>
                <tilted>0</tilted>
              </feature>
              <threshold>-9.975452423095703</threshold>
              <left_val>0.2051673106476121</left_val>
              <right_val>-0.2051673106476121</right_val>
            </_>
          </_>
          <_>
            <_>
              <feature>
                <rects>
                  <_>13 12 4 4 -1.0</_>
                  <_>17 12 4 4 1.0</_>
                </rects>
                <tilted>0</tilted>
              </feature>
              <threshold>-0.16735109686851501</threshold>
              <left_val>-0.21279830741655165</left_val>
              <right_val>0.21279830741655165</right_val>
            </_>
          </_>
          <_>
            <_>
              <feature>
                <rects>
                  <_>18 0 3 7 -1.0</_>
                  <_>21 0 3 7 1.0</_>
                </rects>
                <tilted>0</tilted>
              </feature>
              <threshold>-7.0482683181762695</threshold>
              <left_val>0.19607332382566992</left_val>
              <right_val>-0.19607332382566992</right_val>
            </_>
          </_>
          <_>
            <_>
              <feature>
                <rects>
                  <_>7 8 3 5 -1.0</_>
                  <_>10 8 3 5 2.0</_>
                  <_>13 8 3 5 -1.0</_>
                </rects>
                <tilted>0</tilted>
              </feature>
              <threshold>19.60828399658203</threshold>
              <left_val>-0.19863209715057367</left_val>
              <right_val>0.19863209715057367</right_val>
            </_>
          </_>
          <_>
            <_>
              <feature>
                <rects>
                  <_>1 11 10 3 -1.0</_>
                  <_>1 14 10 3 1.0</_>
                </rects>
                <tilted>0</tilted>
              </feature>
              <threshold>-0.09859901666641235</threshold>
              <left_val>0.2129291445940061</left_val>
              <right_val>-0.2129291445940061</right_val>
            </_>
          </_>
          <_>
            <_>
              <feature>
                <rects>
                  <_>17 18 3 3 1.0</_>
                  <_>20 18 3 3 -1.0</_>
                  <_>17 21 3 3 -1.0</_>
                  <_>20 21 3 3 1.0</_>
                </rects>
                <tilted>0</tilted>
              </feature>
              <threshold>9.231119155883789</threshold>
              <left_val>-0.1887113042637797</left_val>
              <right_val>0.1887113042637797</right_val>
            </_>
          </_>
          <_>
            <_>
              <feature>
                <rects>
                  <_>1 7 11 5 -1.0</_>
                  <_>1 12 11 5 1.0</_>
                </rects>
                <tilted>0</tilted>
              </feature>
              <threshold>2.319291114807129</threshold>
              <left_val>-0.23804999253832734</left_val>
              <right_val>0.23804999253832734</right_val>
            </_>
          </_>
          <_>
            <_>
              <feature>
                <rects>
                  <_>0 16 12 8 -1.0</_>
                  <_>12 16 12 8 1.0</_>
                </rects>
                <tilted>0</tilted>
              </feature>
              <threshold>101.87882232666016</threshold>
              <left_val>-0.19354909523413616</left_val>
              <right_val>0.19354909523413616</right_val>
            </_>
          </_>
          <_>
            <_>
              <feature>
                <rects>
                  <_>9 5 12 8 -1.0</_>
                  <_>9 13 12 8 1.0</_>
                </rects>
                <tilted>0</tilted>
              </feature>
              <threshold>24.538158416748047</threshold>
              <left_val>0.25087918544445065</left_val>
              <right_val>-0.25087918544445065</right_val>
            </_>
          </_>
          <_>
            <_>
              <feature>
                <rects>
                  <_>14 20 5 4 -1.0</_>
                  <_>19 20 5 4 1.0</_>
                </rects>
                <tilted>0</tilted>
              </feature>
              <threshold>-17.417522430419922</threshold>
              <left_val>0.1865849958099807</left_val>
              <right_val>-0.1865849958099807</right_val>
            </_>
          </_>
          <_>
            <_>
              <feature>
                <rects>
                  <_>10 10 6 6 -1.0</_>
                  <_>12 12 2 2 2.0</_>
                </rects>
                <tilted>0</tilted>
              </feature>
              <threshold>-188.6242218017578</threshold>
              <left_val>-0.1813047190074246</left_val>
              <right_val>0.1813047190074246</right_val>
            </_>
          </_>
          <_>
            <_>
              <feature>
                <rects>
                  <_>0 8 3 8 1.0</_>
                  <_>3 8 3 8 -1.0</_>
                  <_>0 16 3 8 -1.0</_>
                  <_>3 16 3 8 1.0</_>
                </rects>
                <tilted>0</tilted>
              </feature>
              <threshold>-29.090614318847656</threshold>
              <left_val>0.22718064546793199</left_val>
              <right_val>-0.22718064546793199</right_val>
            </_>
          </_>
          <_>
            <_>
              <feature>
                <rects>
                  <_>8 8 4 4 -1.0</_>
                  <_>8 12 4 4 2.0</_>
                  <_>8 16 4 4 -1.0</_>
                </rects>
                <tilted>0</tilted>
              </feature>
              <threshold>22.026737213134766</threshold>
              <left_val>0.21192988868177937</left_val>
              <right_val>-0.21192988868177937</right_val>
            </_>
          </_>
          <_>
            <_>
              <feature>
                <rects>
                  <_>0 16 4 4 1.0</_>
                  <_>4 16 4 4 -1.0</_>
                  <_>0 20 4 4 -1.0</_>
                  <_>4 20 4 4 1.0</_>
                </rects>
                <tilted>0</tilted>
              </feature>
              <threshold>10.913984298706055</threshold>
              <left_val>-0.18592179424048813</left_val>
              <right_val>0.18592179424048813</right_val>
            </_>
          </_>
          <_>
            <_>
              <feature>
                <rects>
                  <_>5 6 9 6 -1.0</_>
                  <_>5 12 9 6 2.0</_>
                  <_>5 18 9 6 -1.0</_>
                </rects>
                <tilted>0</tilted>
              </feature>
              <threshold>2.236133098602295</threshold>
              <left_val>-0.21291331040991868</left_val>
              <right_val>0.21291331040991868</right_val>
            </_>
          </_>
          <_>
            <_>
              <feature>
                <rects>
                  <_>4 6 7 3 1.0</_>
                  <_>11 6 7 3 -1.0</_>
                  <_>4 9 7 3 -1.0</_>
                  <_>11 9 7 3 1.0</_>
                </rects>
                <tilted>0</tilted>
              </feature>
              <threshold>15.483022689819336</threshold>
              <left_val>-0.1809808082212965</left_val>
              <right_val>0.1809808082212965</right_val>
            </_>
          </_>
          <_>
            <_>
              <feature>
                <rects>
                  <_>8 9 4 5 -1.0</_>
                  <_>8 14 4 5 2.0</_>
                  <_>8 19 4 5 -1.0</_>
                </rects>
                <tilted>0</tilted>
              </feature>
              <threshold>3.176443099975586</threshold>
              <left_val>0.20102315718793332</left_val>
              <right_val>-0.20102315718793332</right_val>
            </_>
          </_>
          <_>
            <_>
              <feature>
                <rects>
                  <_>7 2 8 5 -1.0</_>
                  <_>7 7 8 5 1.0</_>
                </rects>
                <tilted>0</tilted>
              </feature>
              <threshold>-12.97999382019043</threshold>
              <left_val>0.17855117537044365</left_val>
              <right_val>-0.17855117537044365</right_val>
            </_>
          </_>
          <_>
            <_>
              <feature>
                <rects>
                  <_>1 0 21 6 -1.0</_>
                  <_>1 6 21 6 1.0</_>
                </rects>
                <tilted>0</tilted>
              </feature>
              <threshold>88.32508850097656</threshold>
              <left_val>-0.205907603019701</left_val>
              <right_val>0.205907603019701</right_val>
            </_>
          </_>
          <_>
            <_>
              <feature>
                <rects>
                  <_>6 8 13 5 -1.0</_>
                  <_>6 13 13 5 1.0</_>
                </rects>
                <tilted>0</tilted>
              </feature>
              <threshold>-7.75440788269043</threshold>
              <left_val>-0.21891016361764626</left_val>
              <right_val>0.21891016361764626</right_val>
            </_>
          </_>
          <_>
            <_>
              <feature>
                <rects>
                  <_>0 0 4 6 -1.0</_>
                  <_>0 6 4 6 2.0</_>
                  <_>0 12 4 6 -1.0</_>
                </rects>
                <tilted>0</tilted>
              </feature>
              <threshold>2.2661972045898438</threshold>
              <left_val>-0.17050922673731667</left_val>
              <right_val>0.17050922673731667</right_val>
            </_>
          </_>
          <_>
            <_>
              <feature>
                <rects>
                  <_>17 12 6 3 -1.0</_>
                  <_>17 15 6 3 1.0</_>
                </rects>
                <tilted>0</tilted>
              </feature>
              <threshold>-1.079176425933838</threshold>
              <left_val>0.16761641155945403</left_val>
              <right_val>-0.16761641155945403</right_val>
            </_>
          </_>
          <_>
            <_>
              <feature>
                <rects>
                  <_>0 0 11 24 -1.0</_>
                  <_>11 0 11 24 1.0</_>
                </rects>
                <tilted>0</tilted>
              </feature>
              <threshold>-211.18075561523438</threshold>
              <left_val>0.18120073107674656</left_val>
              <right_val>-0.18120073107674656</right_val>
            </_>
          </_>
          <_>
            <_>
              <feature>
                <rects>
                  <_>1 8 7 6 -1.0</_>
                  <_>8 8 7 6 2.0</_>
                  <_>15 8 7 6 -1.0</_>
                </rects>
                <tilted>0</tilted>
              </feature>
              <threshold>-10.628142356872559</threshold>
              <left_val>-0.22807664202309771</left_val>
              <right_val>0.22807664202309771</right_val>
            </_>
          </_>
        </trees>
        <stage_threshold>-2.213551595119901</stage_threshold>
        <parent>7</parent>
        <next>-1</next>
      </_>
      <_>
        <trees>
          <_>
            <_>
              <feature>
                <rects>
                  <_>4 3 16 3 -1.0</_>
                  <_>4 6 16 3 2.0</_>
                  <_>4 9 16 3 -1.0</_>
                </rects>
                <tilted>0</tilted>
              </feature>
              <threshold>-41.335418701171875</threshold>
              <left_val>0.4739525464036778</left_val>
              <right_val>-0.4739525464036778</right_val>
            </_>
          </_>
          <_>
            <_>
              <feature>
                <rects>
                  <_>0 0 8 10 -1.0</_>
                  <_>8 0 8 10 2.0</_>
                  <_>16 0 8 10 -1.0</_>
                </rects>
                <tilted>0</tilted>
              </feature>
              <threshold>119.20687866210938</threshold>
              <left_val>-0.5188338023940081</left_val>
              <right_val>0.5188338023940081</right_val>
            </_>
          </_>
          <_>
            <_>
              <feature>
                <rects>
                  <_>13 18 4 3 1.0</_>
                  <_>17 18 4 3 -1.0</_>
                  <_>13 21 4 3 -1.0</_>
                  <_>17 21 4 3 1.0</_>
                </rects>
                <tilted>0</tilted>
              </feature>
              <threshold>-7.667712211608887</threshold>
              <left_val>0.3650530401309205</left_val>
              <right_val>-0.3650530401309205</right_val>
            </_>
          </_>
          <_>
            <_>
              <feature>
                <rects>
                  <_>3 8 5 3 -1.0</_>
                  <_>3 11 5 3 2.0</_>
                  <_>3 14 5 3 -1.0</_>
                </rects>
                <tilted>0</tilted>
              </feature>
              <threshold>10.59268569946289</threshold>
              <left_val>-0.3593323531013237</left_val>
              <right_val>0.3593323531013237</right_val>
            </_>
          </_>
          <_>
            <_>
              <feature>
                <rects>
                  <_>0 0 3 6 -1.0</_>
                  <_>3 0 3 6 1.0</_>
                </rects>
                <tilted>0</tilted>
              </feature>
              <threshold>14.992332458496094</threshold>
              <left_val>-0.35944914224174435</left_val>
              <right_val>0.35944914224174435</right_val>
            </_>
          </_>
          <_>
            <_>
              <feature>
                <rects>
                  <_>11 2 3 4 1.0</_>
                  <_>14 2 3 4 -1.0</_>
                  <_>11 6 3 4 -1.0</_>
                  <_>14 6 3 4 1.0</_>
                </rects>
                <tilted>0</tilted>
              </feature>
              <threshold>-3.835256576538086</threshold>
              <left_val>0.3225872818754126</left_val>
              <right_val>-0.3225872818754126</right_val>
            </_>
          </_>
          <_>
            <_>
              <feature>
                <rects>
                  <_>0 20 5 4 -1.0</_>
                  <_>5 20 5 4 1.0</_>
                </rects>
                <tilted>0</tilted>
              </feature>
              <threshold>12.452848434448242</threshold>
              <left_val>-0.3011122537141811</left_val>
              <right_val>0.3011122537141811</right_val>
            </_>
          </_>
          <_>
            <_>
              <feature>
                <rects>
                  <_>0 1 21 3 -1.0</_>
                  <_>0 4 21 3 2.0</_>
                  <_>0 7 21 3 -1.0</_>
                </rects>
                <tilted>0</tilted>
              </feature>
              <threshold>14.751017570495605</threshold>
              <left_val>-0.29572333325024425</left_val>
              <right_val>0.29572333325024425</right_val>
            </_>
          </_>
          <_>
            <_>
              <feature>
                <rects>
                  <_>18 0 3 23 -1.0</_>
                  <_>21 0 3 23 1.0</_>
                </rects>
                <tilted>0</tilted>
              </feature>
              <threshold>-40.14717102050781</threshold>
              <left_val>0.29777661934821525</left_val>
              <right_val>-0.29777661934821525</right_val>
            </_>
          </_>
          <_>
            <_>
              <feature>
                <rects>
                  <_>12 8 12 3 -1.0</_>
                  <_>12 11 12 3 2.0</_>
                  <_>12 14 12 3 -1.0</_>
                </rects>
                <tilted>0</tilted>
              </feature>
              <threshold>20.69973373413086</threshold>
              <left_val>-0.28476060649520324</left_val>
              <right_val>0.28476060649520324</right_val>
            </_>
          </_>
          <_>
            <_>
              <feature>
                <rects>
                  <_>0 0 5 6 1.0</_>
                  <_>5 0 5 6 -1.0</_>
                  <_>0 6 5 6 -1.0</_>
                  <_>5 6 5 6 1.0</_>
                </rects>
                <tilted>0</tilted>
              </feature>
              <threshold>-16.73706817626953</threshold>
              <left_val>0.25209302296308395</left_val>
              <right_val>-0.25209302296308395</right_val>
            </_>
          </_>
          <_>
            <_>
              <feature>
                <rects>
                  <_>0 0 11 24 -1.0</_>
                  <_>11 0 11 24 1.0</_>
                </rects>
                <tilted>0</tilted>
              </feature>
              <threshold>206.50987243652344</threshold>
              <left_val>-0.2547073869749072</left_val>
              <right_val>0.2547073869749072</right_val>
            </_>
          </_>
          <_>
            <_>
              <feature>
                <rects>
                  <_>4 13 4 4 -1.0</_>
                  <_>8 13 4 4 1.0</_>
                </rects>
                <tilted>0</tilted>
              </feature>
              <threshold>-0.06938008219003677</threshold>
              <left_val>0.2703539385213542</left_val>
              <right_val>-0.2703539385213542</right_val>
            </_>
          </_>
          <_>
            <_>
              <feature>
                <rects>
                  <_>17 7 3 4 1.0</_>
                  <_>20 7 3 4 -1.0</_>
                  <_>17 11 3 4 -1.0</_>
                  <_>20 11 3 4 1.0</_>
                </rects>
                <tilted>0</tilted>
              </feature>
              <threshold>-1.6617326736450195</threshold>
              <left_val>0.2416003025677596</left_val>
              <right_val>-0.2416003025677596</right_val>
            </_>
          </_>
          <_>
            <_>
              <feature>
                <rects>
                  <_>7 7 3 8 -1.0</_>
                  <_>10 7 3 8 2.0</_>
                  <_>13 7 3 8 -1.0</_>
                </rects>
                <tilted>0</tilted>
              </feature>
              <threshold>20.278955459594727</threshold>
              <left_val>-0.22795095712166533</left_val>
              <right_val>0.22795095712166533</right_val>
            </_>
          </_>
          <_>
            <_>
              <feature>
                <rects>
                  <_>12 0 6 4 -1.0</_>
                  <_>18 0 6 4 1.0</_>
                </rects>
                <tilted>0</tilted>
              </feature>
              <threshold>-15.066167831420898</threshold>
              <left_val>0.24403656256697942</left_val>
              <right_val>-0.24403656256697942</right_val>
            </_>
          </_>
          <_>
            <_>
              <feature>
                <rects>
                  <_>2 18 5 3 -1.0</_>
                  <_>2 21 5 3 1.0</_>
                </rects>
                <tilted>0</tilted>
              </feature>
              <threshold>-2.658281087875366</threshold>
              <left_val>0.20998138517912018</left_val>
              <right_val>-0.20998138517912018</right_val>
            </_>
          </_>
          <_>
            <_>
              <feature>
                <rects>
                  <_>8 14 6 6 -1.0</_>
                  <_>10 16 2 2 2.0</_>
                </rects>
                <tilted>0</tilted>
              </feature>
              <threshold>-108.13802337646484</threshold>
              <left_val>-0.21532024110028544</left_val>
              <right_val>0.21532024110028544</right_val>
            </_>
          </_>
          <_>
            <_>
              <feature>
                <rects>
                  <_>2 20 11 4 -1.0</_>
                  <_>13 20 11 4 1.0</_>
                </rects>
                <tilted>0</tilted>
              </feature>
              <threshold>-53.657875061035156</threshold>
              <left_val>0.25619723009244283</left_val>
              <right_val>-0.25619723009244283</right_val>
            </_>
          </_>
          <_>
            <_>
              <feature>
                <rects>
                  <_>4 7 11 5 -1.0</_>
                  <_>4 12 11 5 1.0</_>
                </rects>
                <tilted>0</tilted>
              </feature>
              <threshold>0.12076874077320099</threshold>
              <left_val>-0.2487027831577606</left_val>
              <right_val>0.2487027831577606</right_val>
            </_>
          </_>
          <_>
            <_>
              <feature>
                <rects>
                  <_>0 20 10 4 -1.0</_>
                  <_>10 20 10 4 1.0</_>
                </rects>
                <tilted>0</tilted>
              </feature>
              <threshold>35.90339279174805</threshold>
              <left_val>-0.2343513200245042</left_val>
              <right_val>0.2343513200245042</right_val>
            </_>
          </_>
          <_>
            <_>
              <feature>
                <rects>
                  <_>10 8 5 4 -1.0</_>
                  <_>10 12 5 4 1.0</_>
                </rects>
                <tilted>0</tilted>
              </feature>
              <threshold>8.687313079833984</threshold>
              <left_val>0.2223417198698395</left_val>
              <right_val>-0.2223417198698395</right_val>
            </_>
          </_>
          <_>
            <_>
              <feature>
                <rects>
                  <_>0 7 4 17 -1.0</_>
                  <_>4 7 4 17 1.0</_>
                </rects>
                <tilted>0</tilted>
              </feature>
              <threshold>-47.834747314453125</threshold>
              <left_val>0.21554216104655666</left_val>
              <right_val>-0.21554216104655666</right_val>
            </_>
          </_>
          <_>
            <_>
              <feature>
                <rects>
                  <_>5 12 5 4 -1.0</_>
                  <_>5 16 5 4 1.0</_>
                </rects>
                <tilted>0</tilted>
              </feature>
              <threshold>-0.3128354847431183</threshold>
              <left_val>0.24291227513972113</left_val>
              <right_val>-0.24291227513972113</right_val>
            </_>
          </_>
          <_>
            <_>
              <feature>
                <rects>
                  <_>6 20 9 4 -1.0</_>
                  <_>15 20 9 4 1.0</_>
                </rects>
                <tilted>0</tilted>
              </feature>
              <threshold>-38.49506378173828</threshold>
              <left_val>0.19059081952338855</left_val>
              <right_val>-0.19059081952338855</right_val>
            </_>
          </_>
          <_>
            <_>
              <feature>
                <rects>
                  <_>1 0 23 3 -1.0</_>
                  <_>1 3 23 3 2.0</_>
                  <_>1 6 23 3 -1.0</_>
                </rects>
                <tilted>0</tilted>
              </feature>
              <threshold>22.011415481567383</threshold>
              <left_val>-0.22038572858124886</left_val>
              <right_val>0.22038572858124886</right_val>
            </_>
          </_>
          <_>
            <_>
              <feature>
                <rects>
                  <_>0 2 3 21 -1.0</_>
                  <_>3 2 3 21 1.0</_>
                </rects>
                <tilted>0</tilted>
              </feature>
              <threshold>51.905277252197266</threshold>
              <left_val>-0.1941199131589957</left_val>
              <right_val>0.1941199131589957</right_val>
            </_>
          </_>
          <_>
            <_>
              <feature>
                <rects>
                  <_>12 5 10 6 -1.0</_>
                  <_>12 11 10 6 2.0</_>
                  <_>12 17 10 6 -1.0</_>
                </rects>
                <tilted>0</tilted>
              </feature>
              <threshold>10.517486572265625</threshold>
              <left_val>-0.2136976229302888</left_val>
              <right_val>0.2136976229302888</right_val>
            </_>
          </_>
          <_>
            <_>
              <feature>
                <rects>
                  <_>18 17 3 7 -1.0</_>
                  <_>21 17 3 7 1.0</_>
                </rects>
                <tilted>0</tilted>
              </feature>
              <threshold>15.579522132873535</threshold>
              <left_val>-0.19795257492219834</left_val>
              <right_val>0.19795257492219834</right_val>
            </_>
          </_>
          <_>
            <_>
              <feature>
                <rects>
                  <_>1 7 7 8 -1.0</_>
                  <_>8 7 7 8 2.0</_>
                  <_>15 7 7 8 -1.0</_>
                </rects>
                <tilted>0</tilted>
              </feature>
              <threshold>61.33340072631836</threshold>
              <left_val>0.22841536126720366</left_val>
              <right_val>-0.22841536126720366</right_val>
            </_>
          </_>
          <_>
            <_>
              <feature>
                <rects>
                  <_>6 4 3 6 -1.0</_>
                  <_>9 4 3 6 1.0</_>
                </rects>
                <tilted>0</tilted>
              </feature>
              <threshold>3.522347927093506</threshold>
              <left_val>-0.1824949842744102</left_val>
              <right_val>0.1824949842744102</right_val>
            </_>
          </_>
          <_>
            <_>
              <feature>
                <rects>
